{"layers": [{"weights": [[0.07863221361400144, 0.09682998276632035, 0.07425149014716989, -0.03118561729539214, -0.020401780156439606, -0.09843230078503684, -0.047964414767002486, 0.04847952145436829, 0.0995816909055911, -0.08653567951120243, -0.0917872051657816, 0.04908927846020955, -0.021620755227527995, -0.04404921774163918, 0.0755005283519349, -0.008853646715359915, 0.015935585672347943, -0.017164464665768, -0.023120140801630495, -0.09764819223378324, 0.0653888373194211, 0.008935994534087485, -0.04545674388192436, -0.016506799064651537, 0.07301330902113723, -0.09878557782113805, 0.05359723002976963, 0.062747021793807, 0.06924343139460104, 0.08325726848524848, -0.004254382167518972, 0.056494433278051315, 0.024965359587599083, -0.06746832163683185, -0.09200721366218216, 0.02879562447765831, -0.020995015586712802, 0.004957737022149325, 0.0804711515588785, -0.051385263845405905, 0.046908439674850914, -0.04413190450820634, -0.020617179629384964, -0.027861632407542664, 0.0723872436626723, 0.03715827917399942, -0.09725130161063442, -0.04452323206636906, -0.030200260178293137, -0.0941025606776723, -0.043786027507731196, 0.03543386829928864, 0.0014854020440100008, -0.04082705585430475, -0.0043807497236369175, 0.018534083076131094, 0.06967209073996725, 0.03979690453437773, 0.05787549959923769, 0.08520546782694961, -0.058179525570893606, 0.09940165285904716, 0.08563942260253239, -0.05698865988552894, -0.07356207798460877, -0.06153284541558381, -0.07671788873728277, 0.08433896418520964, -0.016974215075498206, -0.02835531098025623, 0.07570121023991987, 0.06775353350180954, 0.07356977437915696, -0.0991374995498362, -0.026778600281856486, 0.05936247013955782, -0.10237978878651309, -0.011603543429880058, -0.0650317032580547, -0.05997183590934517, -0.0707300114916411, 0.0455487465172506, -0.006494916485980967, -0.044693194556029915, -0.043821194772682294, -0.08975376343637605, 0.005854733808080169, 0.03377445837726032, -0.047650203413990774, 0.036215659716999304, 0.027166702415596627, -0.07529763955224379, 0.05373670461762922, -0.03487968535834817, -0.08822508068965074, -0.008642162225678074, -0.0676952666033651, -0.014761032542461581, 0.023284731460306046, 0.0008971038063500732, -0.10567939048442808, 0.04476899747556689, 0.04346396981269142, -0.05991560638942335, 0.01302704752696297, 0.010929718202561252, 0.06337333805745214, 0.03172767617760424, 0.06681225452317116, -0.03540500781464595, -0.056868293843950854, -0.0697680705426166, -0.0737562270222614, -0.03745734717870016, 0.029365560932002047, 0.03822619324681101, -0.04155709356362998, 0.058253218159613256, -0.015127080897835056, 0.07003977341849237, -0.08298961723421039, -0.06504560373551, -0.004420774529987549, 0.08985525366878225, 0.11123446757312301, 0.102439852463186, 0.035150248006249274, 0.06402494564028169, -0.014370030313599047, -0.07274204246433774, 0.04091766939138109, 0.04307852229321932, -0.008890765514682776, 0.08854120867225933, -0.07578846705590664, 0.053476495257971796, -0.023950463019332312, 0.0874756273270323, 0.06617776894596361, -0.05579856241538623, -0.015259944541835574, 0.07706586657465778, -0.057983858570470254, -0.07627000972903658, 0.08030681771392395, -0.011364983162748801, 0.04962022334871251, -0.0933569553030076, 0.024759122396153535, 0.0200889956977479, 0.06310732897896404, 0.08715524567174611, -0.08518454251987584, 0.005488400389760062, 0.06106804924258504, 0.03575824929242377, -0.015959785151910964, -0.08287039248728746, 0.015652806508121484, -0.07547415628073484, 0.11089483935154701, 0.0733524410401211, 0.09397250526378251, 0.006939321856652084, -0.008700903756620464, -0.046071467603045646, 0.0798665055632962, 0.07265422697983935, -0.02988543404839994, 0.023774868606685335, -0.03640237061815565, -0.03574231803487761, 0.09603614186528563, 0.009154620964601984, 0.0630988283800899, -0.09031850734872089, 0.03235603546810264, 0.0741201046755542, 0.06745798339648751, -0.08329862547611512, -0.05617154066832176, -0.02999408235068605, -0.054356122900814374, 0.0036430879610101475, -0.021341172317945703, -0.027156745034579727, 0.08810496268983335, 0.04651372331370839, 0.057867258443806045, -0.05977698301630368, 0.06444826965138081, -0.03732394451490991, 0.11595490010877867, -0.0504517820020728, 0.023879099042133287, 0.09592456771887253, 0.013467484368766007, 0.07682987023564895, -0.032260538371784594, -0.07767044074637698, 0.043651826350545736, -0.001155934773923488, 0.01990464557680747, -0.042192077755885696, 0.04699149532601697, -0.06467295502506379, 0.003481802993376888, -0.018264592678453748, 0.09839773822768501, -0.0683591646907634, 0.08232799861778188, -0.00717916619162933, 0.007199734198417497, -0.02678020863913938, 0.08709061885528618, 0.009327769465409306, 0.0229445515209036, 0.06113011473334607, 0.03103583008131342, -0.06364634475755843, -0.03836729040270977, 0.09556926002041516, 0.012139434274502165, -0.07074633137983898, 0.031590273814738425, -0.04579835999781534, 0.003800712206303836, 0.07363884043346634, -0.0925780620406843, -0.019495205631537407, -0.08068465611478953, 0.009883897835562448, 0.04306771491950086, 0.07760569266181669, 0.009490385543577437, -0.033322519074347814, 0.029379512497957835, 0.042795163481483156, -0.02509623072086878, -0.0543594784520551, -0.023699926234448554, 0.036447613000196145, 0.05952263033829387, 0.09803351842224103, 0.09175524872944228, 0.010806875153649736, 0.07622260095154675, -0.024704164948096182, 0.08032767360519702, -0.0619945649368135, -0.003210271431291228, -0.042067341185206025, -0.030767815995262855, -0.08303393494288962, -0.02688956206603348, -0.08073269764092841, -0.08239120322270527, 0.038847731714870395, -0.04510014717935435, -0.055841879802951286, 0.07619233861814077, -0.07307238118821724, 0.03246937165844036, -0.08663973506098122, 0.06317331395829123, 0.07967489050136417, 0.1131048926626079, 0.0473311090894018, -0.06596342851988943, -0.0331252709923276, 0.05025704742987533, 0.01121912959739868, -0.05756230123817659, -0.01912347684619544, -0.0588943526869497, -0.020375701936366678, -0.057568496327662796, 0.05763409957468949, 0.04054722016380817, -0.04281447956646353, -0.08582307581392758, 0.030546070217086246, -0.01656736112170252, -0.050690526380777735, 0.005396994436554774, 0.08267683656891606, -0.06793382401779649, -0.08707162285890717, -0.07144145806016701, -0.07689991301856772, -0.012187634214510546, -0.070614106362014, 0.03852594246196278, 0.023482527824426506, -0.03611057462930668, 0.1183291199007336, -0.015050130182415536, -0.00045094492660762055, -0.0925845327990181, -0.06171363194910175, -0.0670138296173128, -0.009083775729731083, -0.10152770450656519, -0.03139186315923794, 0.044089832134890906, -0.01795430788668362, -0.09890458751467099, 0.09475667666837444, 0.019030133067000025, 0.04394226211812886, 0.035178362174919243, -0.031279643033930805, 0.016741027744952165, 0.07491832439843173, -0.05797572835099602, 0.01617773005059359, 0.03884571641369515, 0.06810413464116902, -0.09255355198167406, 0.04338475189646391, -0.002412024565045361, -0.0757328441081648, 0.11543390864961034, -0.008618461973998499, -0.07978810764463747, -0.12942429058212607, -0.04613544628163568, 0.06620983118470183, -0.011195784586805535, 0.07321472064045788, 0.014777105188970286, -0.1027576405707905, -0.02858310118208338, -0.08515115202001217, -0.0422216333514734, -0.046540922735426496, -0.09842735459290913, 0.03835469054379314, 0.010653511143406465, -0.018638739718031337, 0.01454710527680087, 0.07708972080344871, -0.018841370523386435, 0.04600080101827292, 0.03289077013015079, -0.0732473029155304, 0.049566533902839334, -0.09876055795101969, -0.1100320091435624, -0.07279947125522138, -0.012833161035929828, 0.09052849451128486, -0.10223116630958162, -0.03282917914589401, -0.012521784401452926, 0.0537795858591635, 0.03897378612127687, -0.09632128895913303, 0.057734790878063554, 0.057115861234247174, 0.08416995062807778, -0.06855364960514562, 0.08837502447423239, -0.05363711022927224, -0.021350730295900646, -0.05166213452770004, -0.046480350304424, 0.007051409852056271, 0.08388101660334615, 0.0515368792106545, 0.06647486268952554, 0.036591362874895866, -0.07565692457181486, 0.0614245541709713, 0.02613915909210174, -0.09758848984454341, 0.03561168594349297, -0.007564068955814575, 0.05825969715059516, -0.05975194756822266, 0.0006007031906394101, -0.12169133723350962, 0.044860846378404845, -0.05782688045387283, -0.028584681754501646, -0.010635317155244711, 0.015068558412553107, -0.09492832844467963, -0.06622591679140193, -0.0863845616308228, 0.00973894446032181, -0.031440964205158475, -0.06540000324870825, 0.04480509966999166, -0.02357901615220809, -0.07990817452678377, -0.004424884136389133, -0.05281421915717877, -0.055955811820749386, 0.05832506098119237, 0.00701944900569696, 0.10710709699561016, -0.06857721985952663, -0.0025717898299934907, -0.07442679591028918, 0.0040626790478615294, -0.012631768323049424, -0.006214639967667863, -0.006037889520015622, -0.05175571095801663, 0.040471107071717353, -0.04864575086683426, 0.07288244807077994, 0.03655361555482636, 0.03207640983484066, -0.013682393055664535, -0.05798573366782294, -0.04570990023134266, -0.04220418219792867, 0.06354562952358815, -0.057959876559119, 0.020247922584522484, -0.08173592867737423, -0.04174540155107601, -0.06366296082446221, -0.08623032931537634, -0.033540181890773256, 0.08163266649461996, 0.0423406210786757, 0.023134114597012187, -0.0469265438889524, -0.020840304420159075, -0.054456377442878685, -0.0190023968896629, 0.11157981381059978, -0.04125818624994003, -0.12742106700822006, 0.028569222160475277, 0.008444276196060113, -0.03119013908773395, -0.0810154164434623, -0.13136123839404934, -3.425541767172968e-05, -0.0031013828092042012, -0.048169180632307344, -0.001955808611018886, -0.0006024467957501474, 0.017678276207283333, -0.017540033636340754, 0.025313700413823706, 0.052673725260099384, 0.01193731933951547, -0.039584617352990584, 0.022684049798843024, -0.06485381056040022, 0.023166099341292972, -0.030722760767067262, 0.03480620562927066, -0.07989584559768445, -0.06000600484912098, -0.030761011071320857, 0.02711156136589912, 0.08984936720047426, -0.019373122898024165, 0.011717538825907724, -0.08683004992880171, -0.062411852573594585, 0.023656844173652714, -0.08127299236534499, 0.05258980509009552, 0.051750870165947066, -0.039485343401812055, -0.08384863234998063, -0.02969863140910677, -0.09176866493421738, -0.05689359845152882, 0.033485082716493114, -0.05832136242729646, -0.10013774939773562, -0.07317694176534516, 0.07134772025983543, 0.09529497103386134, 0.03839160806002975, -0.05839625549018965, 0.06665382842369656, -0.06718217311873803, -0.03402870593007669, -0.021145647428427814, -0.04190550334403957, 0.06156174256666626, -0.037794904738794814, -0.007126780756290089, -0.07560879659579717, 0.06484467567116078, -0.06955900307810811, -0.0014817967654716826, 0.014807199293012416, -0.07306574819145262, -0.004208969739128306, -0.00012687231436049902, 0.03797527240683109, 0.03197168497308471, 0.002329597828872909, -0.04544067924972677, 0.008290368856972603, -0.09453959020315215, -0.010182704321203667, 0.09245543003893374, -0.028739271388775644, -0.0414912082940083, 0.062154451366853734, 0.050006636703921935, 0.06031289667040196, -0.106677939280392, -0.03578348534859021, 0.03478884689653508, 0.07929460011224558, 0.11057341417928894, -0.03869932389020111, -0.00963724478485264, 0.08460231064629516, 0.013259962391396807, -0.08441108168924723, -0.11458460473232812, -0.09426836323900123, 0.04226503435864402, 0.03924560463135659, 0.024945241131482436, 0.11697359709086305, 0.006995241897363952, 0.047496520180167805, -0.025684390095012326, 0.07085816461667944, -0.09429210881920137, 0.08082841860525013, -0.052207199013664524, 0.03314115778753996, 0.04491286889043439, -0.009123723045829472, -0.030987322241222987, 0.05715227760348733, -0.10134720703152882, 0.05410004986762373, -0.0019876780200009394, 0.0804014127393582, 0.08046525981470487, -0.02381225770988463, 0.06836865868305475, -0.019520387140073814, 0.03930534637333427, 0.03929438312713252, -0.06642897118898775, 0.013324466777942088, 0.014889481614733923, 0.06730959195387835, -0.0049716680331535375, -0.07299103436634959, 0.007533414631453665, -0.031613122711203, -0.0012923452459921696, 0.09373212732332512, 0.04855488254909212, 0.06293873749168982, 0.022239997309874176, -0.017596587441273025, -0.007159319762200339, 0.11229864807310103, 0.031168705817808753, 0.1251345091009505, 0.022036422610974087, -0.018279863810194353, 0.06760138829798787, -0.06240356553469259, -0.09462749099962937, -0.023390858298065698, 0.06651665053028132, 0.06728799090269443, -0.03515877405471039, -0.08359378782362792, -0.044306619842147746, 0.04674171469048182, 0.041855202551958536, -0.02772976634898124, 0.001107943274586688, 0.022305159758494952, 0.052122999050415765, 0.06633028834044544, -0.06292154427439242, -0.08200435247000848, 0.029590811759767018, -0.09225017737583753, -0.05006130255538964, 0.0668955418201063, -0.07058774485933969, 0.07769122602332003, 0.05916193504239789, 0.01609281996590298, 0.04291133718900583, 0.10377385942117276, 0.06832764156393377, -0.03172784717863227, -0.09083927177857386, -0.0665125772127405, -0.008418360142215682, -0.014841991154615113, 0.07748272931916432, -0.07352307931281687, -0.07771963534415263, 0.05765343371417201, 0.007894317567403821, 0.0446249773827127, -0.035025941714580545, 0.01762720218951855, 0.009636051442956149, 0.01786218966373088, -0.013489552783000926, 0.04960036280072589, 0.04858745123290127, -0.10068388604606895, 0.013896377971012095, 0.05458276755164923, 0.07647156600411115, -0.0722138789119687, 0.10285107853703555, -0.009843043313260698, -0.016502767306902772, -0.022308552220953362, 0.019543918798907763, -0.015885824800858907, -0.1179468420120453, 0.032858284861981515, -0.00875664763123455, 0.01778537976065167, -0.06702127159744098, 0.03041588897675115, 0.0031928260847489077, 0.09278342336800219, 0.054054471915677284, 0.017479931960248087, -0.019900089670511174, -0.01678800897328151, 0.05944693694298592, -0.09383770811617266, -0.046582813225050056, -0.05112045254404343, -0.07928535741209078, 0.006996088462842433, 0.09259004617121513, -0.017164224258897073, -0.0637529656089803, -0.028384542248781338, 0.007661948299772976, 0.035579665170232866, -0.08518970028650993, -0.0380187799823552, -0.03596784306595157, 0.027124594024307756, -0.08770599395960488, 0.011232669246399124, 0.038989787240762845, -0.08610642806447692, 0.00742799134545835, 0.02378031744796374, -0.09438569399083052, 0.09606608991833475, 0.00384007265837236, 0.030623147909289397, 0.02424569302144177, -0.0801416369972366, -0.09718329744585269, 0.0648555211836441, -0.09306540632843457, 0.041149573336252576, 0.07616924057387331, 0.09970570159439524, -0.01571872190315005, -0.04693094129897628, -0.0692754915798385, -0.01676185598600632, 0.07171245747070941, 0.026609626784143362, -8.723334488218827e-05, -0.0384949851140298, -0.02144418168291113, 0.012403764399466537, -0.09776518280587895, -0.009385432305356598, -0.08997209643670324, 0.06987773378608647, -0.09171809684457818, 0.07459199272008615, 0.04812264807797044, 0.08238770079082833, 0.08111910298620977, -0.0841457363794396, 0.06616770066385913, -0.08081991512352134, 0.03801450147694463, -0.07943024910111458, -0.017999082503767444, 0.07438506497325867, 0.025729815351722973, 0.08083828689295319, -0.04499402466657963, 0.005253754007397829, -0.06217585613158935, 0.0759181361415124, -0.025726394908811446, 0.07389160981043479, -0.0063615491271299006, -0.0019961748789475353, -0.07690006951044777, -0.07969945808973851, -0.042938964404569596, -0.04664965388568988, 0.007296032245099534, 0.05466419578758205, -0.08825672864207301, 0.04816954227513932, 0.0981264787326423, 0.017304247760351246, -0.0679827812871669, -0.02158032113091866, -0.08442482276752515, 0.05419043845799029, -0.025982371060967728, -0.06325489573307112, 0.08725442104267864, 0.07755040630075247, -0.0431975080800791, -0.05627239676451423, -0.07428213880818961, 0.06702297195338096, -0.041423359394533774, -0.09245194208086158, -0.02150271286978751, 0.05673475904622311, 0.013568484678443187, 0.07486265339290789, 0.02098795557886539, -0.053411005838655504, -0.008860129864889064, 0.08762033016125872, -0.08720491200095008, 0.013989547543853946, 0.025790666537226937, 0.06421667790022005, 0.031996475806100516, 0.017819504689940657, 0.05053182876847367, -0.05964198074100024, -0.0557204668693129, 0.09055999954570558, -0.06777752884213055, -0.0004918255594566767, -0.019443867215116845, -0.046044766446617306, -0.06108700483522203, 0.09442716245780364, 0.07168597149800365, -0.06070136016498372, 0.011999204840663193, 0.021457479771504563, -0.049923890818450216, 0.02537103824558592, 0.014524178923822134, -0.07990939879715596, 0.04801172007127609, 0.07942333112991133, -0.04821672473971079, -0.020441328485550105, 0.0057178450168932134, -0.08476195992157734, -0.08466179138848177, 0.03252942947603716, -0.049060740535722944, 0.034945710484308355, -0.053260923723835174, -0.08239620230064525, -0.002789404813806262, 0.019955414772151348, 0.03272722779416892, -0.027862487445673878, -0.016143392311336296], [0.013585194100181303, 0.04028809980630954, 0.027428597185668036, -0.06960272310172638, -0.012679950121963615, -0.012140328982552379, 0.04664283924498899, 0.02237002228052576, 0.04193712887866738, 0.032220228633465436, -0.010334561448616136, -0.09395117154872544, -0.003988163952683067, -0.012294245711833237, 0.09603267574776385, 0.04767579626691053, -0.005310413572901712, -0.06443151717517007, -0.03465332033544337, 0.07813167977686639, -0.0010076620112027257, 0.006908105573669124, 0.030356438377336203, 0.07632137463196245, -0.04388677187200618, 0.04899637009927521, 0.015456173582646254, -0.06627146193794303, 0.045675402112839325, 0.004805138259180913, 0.07491879660363907, 0.001635212286714774, -0.05727093978460955, -0.0689002976182987, 0.08687037232780737, 0.06226179437359513, 0.048653384778122796, -0.026622281322775505, -0.09443487602570019, 0.07475169219366895, 0.09100422128425605, -0.0005743762087842704, -0.02053155988973187, -0.036037174521641936, 0.07518834641001572, -0.009851109728662861, 0.0757324171280899, 0.03984961456920146, 0.04637347929835288, -0.08323443423547874, 0.07869875727351876, 0.08935459176648693, -0.05169924576122296, -0.04339502298306293, 0.05449057583949787, 0.059903359943626805, 0.01918528569231215, -0.03691244376694838, 0.010730232959427115, -0.013530720449806292, 0.0311217189055357, -0.08977071257503465, 0.035684512849607344, -0.046378189455979296, 0.03873343049304459, -0.05013176901295387, -0.09214881271931342, -0.034421638050759595, 0.03720503524637097, -0.032602943783957825, 0.0823921783038461, -0.07783095218920436, 0.01443566799977462, -0.054476196103520544, 0.07619846252915226, 0.08193816117488519, 0.02832151025513513, 0.00974647791716082, -0.009222975700286244, -0.041201709758479824, 0.08313687115424959, -0.017642119596399646, 0.0008667389538213471, 0.04514324231050365, -0.07812378214176385, 0.06417819680723855, 0.05959314447631064, -0.036304591859418194, -0.08816324221746617, -0.02781808779981877, 0.09695993013932114, 0.0020566797769336915, 0.05417655209097868, 0.023448633562195672, 0.06479095422212174, -0.014803138456314825, -0.043987885053712907, -0.059015293437413754, 0.02720393893557782, 0.08069141373269535, 0.0849855061836423, -0.012894154658997646, -0.037620978451098824, 0.06202049169345583, 0.02229886953749334, -0.09843402104192656, 0.05719722241979718, -0.016798339279388785, -0.051543019691524146, 0.047462048844688055, -0.002733641126627741, -0.09394610899561812, 0.06700757406538635, -0.09172153065891155, -0.04036276458870111, -0.019326931140721277, 0.02454395951207906, 0.023693022034564727, -0.09089939755991971, 0.0562053055009715, -0.06390155066003599, 0.03344640709612094, -0.04254697468693943, 0.003009605252814866, -0.0396147967775795, 0.03661871900577223, 0.06361884224394465, 0.051580376022568035, 0.05811461538415421, -0.06626250203182193, -0.054853033295048766, -0.03283339047040794, 0.013551654543977202, 0.0346703001711574, -0.059930601423806844, 0.06669017361356243, -0.08710848971974659, 0.023699187262111315, -0.07155287365100954, 0.05813859935498422, -0.006076460943484213, 0.05452298728892779, -0.05303045990332517, 0.08401855237634677, 0.056662278676017176, -0.016742914622417223, -0.0663331213449371, -0.09708331404046387, -0.07087245329844385, -0.09440725076733808, 0.005837723483955661, -0.04548277394017781, -0.044049443924798384, 0.11696829110929882, 0.08990411330018144, -0.020815498553877276, 0.11176105367730012, -0.08868297540885903, -0.023351405080913514, -0.07564358684313005, -0.012366423154479332, -0.08680079618853181, 0.007723900488699751, -0.08711719488620301, 0.00574138894998323, 0.07592886967791873, -0.009742767969896234, -0.006762936133917481, 0.010682970504433634, -0.026374642826349028, 0.056534119183026865, -0.041589055645412175, 0.08899298734334296, -0.04305653543190207, 0.08004320691992563, 0.09465178265610637, -0.03230800961965604, 0.07526132048106492, -0.02369324473131019, -0.0146981854831892, -0.06070027571954169, 0.039024842360096824, 0.03823208190476603, 0.04126785056796729, 0.05989043737982181, 0.09266035438905665, 0.06654204826085708, 0.0908306126229429, 0.06572868728601172, 0.05940926097651976, -0.009934319362959337, -0.11585705792589908, -0.03455187577667345, 0.014939492929056001, 0.050887421880014994, -0.0991508734214703, 0.03544612594818677, 0.031988268639223764, -0.07214769748078997, -0.07613517305690427, 0.0048429355111010005, 0.05469379674402851, -0.10343181392713681, 0.011715821931652475, -0.07230427068227682, -0.056324182570473606, -0.028938101292961545, -0.07259351751218232, 0.08130050060008168, -0.039584454653313804, 0.09519353035901913, 0.029323273854425652, 0.001121147138750394, 0.03639143977826421, 0.049307040555761225, 0.01939860868056655, -0.05751245703332564, -0.061556119674571946, -0.027545975107305845, -0.03133857301559956, -0.131947027017883, -0.10850885156269711, -0.09222889678190697, 0.030598331623374542, -0.01509993430140967, 0.08266842339709897, -0.04779056576283264, -0.08351669826239382, 0.0799343309178374, -0.013945128743017508, -0.10097281483776024, -0.10087795199252786, -0.09335081326307443, 0.029456079320495012, -0.032252145215622384, 0.03183059111439962, -0.04963880648998801, 0.027709881210464513, 0.024394759255688202, -0.029623900300252602, -0.012086369621917309, -0.0209899098296815, 0.08421750685715793, 0.09639510920856485, -0.07964024590087536, 0.08376048319335931, 0.016990033815638555, -0.03313239340849357, 0.028112473668109147, -0.04984267881699927, -0.04228871591592381, -0.08454166183749637, -0.024866456823167453, -0.026537612196082826, 0.010575527447804876, 0.024509925516614104, 0.09202323081820785, 0.04439175262267298, -0.033093014792728706, -0.008478741843766725, -0.04453322169347195, 0.047295848386562124, 0.012218727114483827, 0.009810474130958736, -0.0763991716785438, 0.10087857291685182, 0.07769924268378597, 0.030889981397566154, -0.04383241224840419, -0.032258315695738914, 0.02678774469220763, 0.05077828208330775, -0.05645664770856672, 0.013277980300865695, -0.06371105742735216, -0.022354895894023067, -0.04578891877084862, 0.014219706121955908, 0.05707911156179411, 0.09042549063908362, 0.058789146852300085, -0.058880138296439, 0.06052965755557553, -0.037890496772631746, 0.050411452576247864, 0.03377510853631893, 0.07535798981609583, -0.04970035665381423, 0.05980654189105049, 0.005236649334103205, -0.07484093209353763, 0.04851268200319834, 0.04719458563778975, -0.04337685634808608, 0.07304404145884741, -0.07146029735244129, 0.04954892628380726, 0.06079125092038077, 0.08452571379303173, 0.02091663801020926, -0.0177969405686721, 0.09386498004219368, 0.04719777382746278, -0.029151864164318152, -0.02334192251815603, 0.03584811607489783, 0.08869594990028422, 0.035792850610745115, 0.05600896794073051, 0.016886708891238302, -0.019567327291004466, 0.09432333655174442, 0.018414967021813868, -0.06980300924388405, -0.0356382929937446, 0.09832062961832463, 0.03258428656294161, 0.020893846216831737, 0.043233882935671666, -0.0026573158621000697, 0.016706103359444568, 0.0003013234802674758, 0.08193632003912443, -0.0039014873845053034, -0.013564503060674275, -0.053611144815579825, 0.11088276276301355, 0.04987822799876, 0.11547622773397619, 0.11049433306370159, -0.005389488959151791, 0.08621807864034782, 0.0557347859689134, -0.03658792653092364, 0.0209233965306393, -0.06175117475159867, 0.09508806172367813, 0.02587797253715588, 0.06347910512652277, 0.0963842374809483, -0.002293517539526387, -0.08265900692517597, -0.0934342133533633, -0.021895667683957426, 0.08610770128384902, 0.019044059584415025, 0.018229141852917265, 0.043698547912180793, -0.030216031021665486, 0.08536886525957293, -0.05783590675535256, -0.03845639235633757, 0.013384724395389961, 0.0007544869169032614, 0.024646236486827768, -0.05505154464229541, 0.03641601886607206, -0.029897001857778296, 0.10312894624539815, -0.06102161627302354, -0.04945190543277005, 0.025921759300998798, -0.0037801358966218813, -0.0918357158579793, -0.002515883082811155, 0.009953649054632838, 0.007346320358132714, 0.021573215476730873, -0.03733543826281621, 0.03530885398255918, -0.024106254621096317, 0.017119725476300512, -0.11919205957788036, -0.05214201249705771, -0.087739737655569, -0.10461389125283138, 0.04221224181046278, 0.0703134201283434, 0.0917299548695383, -0.013117428755663546, -0.08589139521992362, -0.08309452855112445, 0.03064840342463779, -0.07162228650387605, 0.014452492012966915, 0.021624980849320692, 0.02457914139519159, -0.0637778817188122, -0.09896679962472725, -0.09906984016314868, -0.03721384739468438, 0.004498077233808813, -0.0333024787299655, 0.06441009729882696, 0.08573691195519463, 0.040992157021828284, -0.04251503875406895, -0.08098071962474897, -0.06789215867448473, -0.021773992600730947, -0.060931012884586966, 0.04445704526142688, 0.04360474193974738, -0.12346295115926254, -0.06983412222973655, 0.09148472715238348, -0.09471935670303326, 0.05010145822333601, 0.07643752392648831, -0.0821473228469067, 0.06900590867858133, -0.07651320969164935, -0.06622830532538157, 0.03345326424779412, -0.08129966537851249, 0.06316779259073667, -0.023520555069287474, -0.03856255452625196, -0.09102559844850587, 0.06536625053039066, -0.03920306061141993, 0.035608625055237354, -0.08985173646532901, 0.0293240287815242, -0.09742518072573952, -0.0904634616386961, 0.02190486397478678, 0.044346710240487065, -0.031626767485418136, -0.04278764897664854, 0.05252785370285103, -0.029135149554168346, -0.037402816481646534, 0.031764717374083304, 0.006905842645820644, -0.012054782659011148, -0.06207024241570101, 0.028837497543975823, -0.088514306408436, -0.0007519385011216498, 0.05684628972838624, 0.007641830909638577, 0.051553601119782536, 0.03637294151290185, 0.0764232828582515, -0.016343137358627812, -0.060692544147583766, 0.012725049219993739, -0.004498386468247755, 0.07568507661808782, 0.002592409868116428, -0.06019808861677208, 0.028843459439752948, -0.037040931519770136, -0.009394167159243823, -0.0935790779979414, 0.01926735015022113, 0.10166549075332716, 0.09965828350823577, 0.058658159312062516, 0.061171150286042704, 0.008564852689469599, -0.11836533433031592, 0.030255786683751458, -0.07532088529501803, -0.009394378675728255, 0.04711774942776263, -0.057804735976974185, 0.030629340629262612, -0.03306213364421236, -0.10366639203208775, -0.09160662376955707, 0.021717516676231913, -0.08651132646523102, -0.0006220055189694814, 0.09242360350879951, 0.060907312376520056, 0.04225493616309574, -0.052069216382808085, 0.038655084302517656, 0.045089895410172, -0.031900980983418106, -0.06052957252959608, -0.09990475205758115, -0.022804587456250833, 0.06529326233188233, -0.050218796940855376, 0.09675633189378903, 0.08904331882722236, -0.08054574542022844, -0.01852739013691771, -0.04369733843446559, 0.06301556063662878, -0.055980115748384095, -0.01805410849007573, -0.006862891301073194, 0.08902126984335267, -0.025529164928143992, -0.028241868108235983, 0.08714083408575489, -0.00035598583131052944, -0.08744088818924436, 0.05157616378526615, 0.0750979584143913, -0.021077953487758518, 0.09916027657117292, -0.06135736115233131, 0.005360825555482798, -0.0808466862368124, -0.09238304168354368, 0.05354332907494189, -0.02162862362461893, -0.00285882551959646, 0.04855856548347471, 0.04626969175664921, 0.035109086228585794, -0.07862647691853365, -0.015783586627366623, 0.05499988190642418, 0.030771867047735654, -0.08429979402681119, 0.040643715235641524, -0.003957893183372306, 0.09139946196408723, -0.0031750428491484507, 0.024678830181617685, 0.08368114074882478, -0.07779994658946127, 0.07342445146301442, 0.04733517834056371, 0.027470341536888033, -0.01837582953636902, -0.06605236435519295, 0.01847016889609384, 0.07134647355137654, -0.056059896221620685, 0.012924578225408406, -0.06770023583042821, 0.021692835917883554, 0.09597299159457512, -0.06373949895687264, -0.07018936332186697, -0.07345261276003243, 0.03576364230192101, 0.08140842863580904, -0.01829471338338956, -0.07048654356913718, 0.010260536783410452, -0.019772843743736657, -0.006788330253917573, 0.00253005620315857, -0.03071863627441782, -0.02816907257784328, -0.06860596768346523, 0.08360133173432868, 0.0619534640617523, 0.027316510743150474, 0.06120797950190461, -0.026005919379609728, -0.014282743324928258, -0.014220388508316348, 0.08927018482965358, -0.01652769300458577, -0.018490361012935802, 0.046410949019563975, -0.060081182095587736, 0.041736279217667885, 0.07431131428481107, 0.08501690179111679, -0.07088840275504478, -0.021734040438546577, -0.08381304953234289, -0.023255871209369117, 0.0077843590618089644, -0.08733093902884471, -0.07054878391713748, -0.04053764616636009, -0.06594388829416832, -0.09294435698875644, -0.08021266342278852, -0.007264313417822295, -0.06326577625877497, 0.09153555750522666, 0.04999273516485481, 0.08999770903607619, 0.07451252664721075, -0.09068956076313685, 0.0017889820121308676, -0.09266525302425506, -0.034002116832988656, 0.006875019895783876, 0.03140952409356896, 0.033697848921374826, 0.009786058452378076, -0.05834996874636491, -0.04344174003241352, -0.007976896525569007, 0.0693326667947449, 0.07024431092507133, 0.026677879724138293, -0.08020348642577176, 0.05905543635912841, -0.022745440290356817, -0.014289868210175612, 0.02272947838840811, -0.026628647493695482, -0.04028425687289575, 0.011248859112885755, 0.07609798733975523, 0.020296053088724758, -0.028173973627835146, -0.08783652248183944, 0.04115305067382469, 0.03700593093998078, 0.013009710434164509, 0.008166261894057824, 0.09341807534671001, -0.014270839498944992, -0.04012952099091843, -0.04328034430586834, -0.046375975626163815, 0.04031533210872584, 0.09079409388447778, -0.02811546872464693, -0.07622660551147961, -0.09414718605854701, 0.04995236619183387, -0.060784581975247595, -0.05148294398675797, 0.03621039637911829, -0.03598805271946076, -0.09045197445578486, -0.06232250634759256, -0.0876385712865161, 0.025654874124489843, 0.029674197121823773, -0.06691641470246008, 0.0011997760895588667, -0.058921622000743086, -0.05238333962911201, -0.06670768972412758, -0.08018650834259894, -0.06973876030752839, -0.01552868567393855, 0.07943654652512105, -0.09289613931869843, -0.0018008328611400835, 0.08456837633104837, 0.018911445500612373, 0.010962740271736991, -0.0921514352836206, -0.0811825359723392, -0.09745916423152988, -0.04703740686504074, -0.006982803820294127, 0.032025837466912975, -0.02632831057799132, -0.0015002696000127225, 0.03164835793413379, -0.08928178311138693, 0.04953729120912218, 0.029100667628546587, -0.020570877359569632, -0.08234435670975215, 0.0735033916672479, 0.0991838308602664, -0.0039022246782875344, 0.06920491384538013, 0.07205928399130485, 0.03988188779469386, 0.033634692822642545, -0.02004550488742189, -0.0019920457990497686, -0.02487457738566272, -0.08583225172821468, -0.03318858581516623, 0.0775390382593241, -0.08214067631432635, -0.00502956944552188, 0.04175118035109326, 0.02641840098534897, -0.0861707591543961, 0.007430811563459931, -0.008361128252794845, -0.042531219673406374, 0.06547191601974318, -0.028184134371996877, -0.07571147707226189, -0.034248296366748324, -0.022088813159864194, -0.07075531218952612, -0.07902770114341334, -0.02570809000149902, -0.07517504047192378, -0.004688079293414191, -0.09104373779355883, 0.01738093480292286, -0.042028989714198654, -0.036351658019852934, -0.08027498322027891, 0.044359163091177684, -0.04150412061149669, 0.06593818198585921, 0.024566458978333414, 0.07574222229219592, 0.010095951493073317, 0.03538905646612867, -0.06762317965080085, -0.05802928920189434, -0.0277827344322565, 0.0953012607181411, -0.002194225049110057, 0.028304288272143686, 0.12068862299760268, -0.029534284562806056, 0.08935328683580868, 0.10141343174886794, 0.04932258412014481, 0.010294289650121751, -0.0640465528312869, -0.0869406153647766, 0.07194349631056582, 0.05680553916728276, -0.06301524040663796, -0.020655615216214326, -0.06828136125193121, 0.03984133557900461, 0.08494662783337992, -0.04250983669679487, -0.012526323625491026, 0.030637304099789486, 0.0886987148254434, 0.05450005640227461, -0.03915804969247962, -0.08394284075035906, 0.07081898815410992, 0.07541364767527772, 0.0588653790475767, 0.025745747461155297, -0.018953656836014063, -0.017215220220958633, 0.09098927265819111, 0.07066562950031285, 0.06467950362362339, -0.022847034667725877, -0.01991321581406247, -0.06584444319446872, -0.07922368487149882, -0.03547498441646165, 0.042555643058310284, 0.08856593119442463, 0.07909035307427585, -0.07148370435004692, -0.02456047749030405, 0.09089962607531107, 0.09485659749686612, -0.07031389042321537, -0.07592727519411713, -0.008214793350045962, 0.07532430802589835, -0.048600760001964095, 0.035156714000119035, -0.010872607900034956, 0.028069963195012794, 0.02813987613187932, 0.017936301673736797, -0.059880345544017444, 0.09404507816228792, 0.06994218603449812, -0.02688736169541255, 0.052871668750315334, 0.0006360503172666252, -0.01257692882197711, -0.07228976278955108, -0.052362126192174806, 0.08003469048578997, -0.05196342975129603, -0.04370785814206592, -0.00021840797156495484, 0.00521715921736181, 0.0988883318726401, 0.08011095491993198, -0.029493106190732157, -0.01651393737746673], [-0.08955197193623793, 0.015157236089023265, 0.017812546828029907, 0.06714435414109807, -0.05615399436203936, -0.08803448410100415, -0.056947607097469516, -0.03725519899624222, -0.033659902527881674, 0.008651239138459665, 0.09091441616475898, -0.09878224722619831, -0.0932838506020847, 0.08296417046418049, 0.02138295824866884, 0.08415494172114989, -0.07549866875307297, -0.06647666615431175, 0.00593739899713383, -0.02586453802594671, -0.020744228089991254, -0.03633975411267942, -0.0275805982818476, -0.09924251541943215, -0.09623540650517617, 0.004046333937730753, 0.05830436853425694, 0.05841970420860462, -0.06234317202906248, -0.07918341254944312, 0.059339019450413644, -0.024292617138826356, 0.07560937264861621, -0.09728698780374449, -0.07300754850476918, 0.03318421913713425, -0.05564710117635348, -0.02542476354485115, -0.09379094220858364, 0.01952289866877826, 0.054910836066751983, 0.07579221945014057, 0.00605553476532819, -0.0260840953418094, -0.049981141159665565, -0.020550295118265265, 0.009440793650889245, -0.08210875388784616, -0.02633678556869503, 0.07463552722044565, -0.03481785659958065, 0.0030126804577441644, -0.03367844911226732, -0.012631555542850198, -0.06366096532059125, -0.09725866321457077, -0.0013943552916834134, -0.04475371611002497, -0.08162340820459056, 0.08624026756030415, 0.07557430496384064, 0.06693042752795553, -0.04752931985628679, -0.03460689840807434, 0.03287289845738359, 0.0031012083237647935, -0.03159256209966322, -0.09384076678281268, 0.02542758223352126, 0.025510385919627093, 0.021265829512342856, 0.0005278545822318221, -0.0628752211287181, -0.05777028643391124, 0.0025599769866206635, -0.01340369726092556, 0.06252993937125387, -0.07093616121494896, 0.07570822183770715, 0.01110468952474934, -0.09274292345970206, 0.04241733946189441, 0.08474475196231088, 0.06687379074584629, -0.09787132755993111, 0.046310714135145814, 0.04226638132573484, -0.050340401307605226, -0.01373321441487119, 0.0369474471451434, 0.08705166555233067, 0.09508039131480034, 0.04077711975651849, 0.0826525816551221, -0.05873961640001734, -0.08434620349714037, 0.044658830872453925, -0.05702402613737696, 0.06444407363402106, 0.03188263326911824, -0.040721096003920126, -0.07664513737183642, -0.054917271596913265, 0.03039479863768357, -0.004619839445121977, 0.004202322162494293, 0.051117403217980556, 0.02669010997706433, 0.09387833023772665, -0.06161539830163074, 0.016686290858693817, -0.06391529782413527, -0.0335848139285649, -0.03490572488784897, 0.09655155756519657, 0.07920202541410178, 0.003975240231614405, -0.02105229014144851, 0.05045073296514545, 0.02488427313778138, -0.0303027041026893, 0.01854120872624763, 0.0905649510280294, -0.040137015539647214, -0.07942790883822788, 0.08699540518744016, 0.07310453183442013, -0.03524841831990919, -0.0024309178424290804, -0.05176526830940057, -0.03838520530025491, -0.018478951453866365, 0.10275956633978871, 0.016878528140806252, -0.09776430099609817, -0.07782305983419936, -0.059258248424225245, -0.029499346942471368, 0.020089441858458495, 0.03284326091975228, 0.09278739973608338, -0.06426542930745052, -0.0741128342320086, -0.04947934227561897, -0.07921491998428086, 0.06117686883790124, 0.07287945368068309, 0.03963544433238612, -0.04216329705011754, 0.05876744518596874, -0.05613289477524455, -0.01088999549058076, -0.005925464175146138, -0.1043335673130183, 0.06705148953989182, 0.04903804613353978, 0.04744976783833136, -0.057435069675626324, -0.09515194806960584, -0.0696137491739602, -0.07106870447997254, 0.05820863687483445, -0.08487027206343233, -0.09942566321442542, -0.08817558581869865, 0.038531567287832726, -0.04755645809128969, 0.039480331037282004, -0.052716264513306466, 0.09123611878094409, -0.04682004739197469, 0.06158570683731431, -0.031117218100175186, -0.07350322630932324, 0.06213339826685697, -0.01352745382155235, -0.006941438675889136, -0.044116276832583345, -0.09881601544933108, -0.0658215915282668, 0.03943658005685164, -0.09174498904769235, -0.056587791190419526, -0.042306878443091535, -0.03325914667836733, 0.023718469003498138, -0.08951654921587272, 0.03190705063549796, -0.05788633305144718, 0.09068647181066833, -0.04834532452510476, 0.08798412645973727, 0.048034997125980916, -0.03837019669600251, 0.0805115969255992, -0.0012334734359800423, -0.06747623925241077, -0.010927789781441766, -0.06154845785963388, 0.02995434270333802, -0.06238352410080227, 0.05995920068282434, -0.07082673590347532, 0.0679695302070526, -0.0029092591332320616, 0.01150914694067586, -0.09633870492057915, -0.10248060308863347, 0.01443129567647392, -0.07901475368307098, 0.050495019855600946, 0.06623285597311633, 0.053205333099490604, 0.07452246379115561, -0.037939005867677074, -0.07147158335795094, 0.03103677766994003, 0.02063597858636867, 0.07718194271159745, 0.002193310741263078, -0.11231079764001432, 0.0811499848060463, -0.07874678123899573, -0.0008226709409796099, 0.06300990928267892, 0.07746069337043544, -0.07656379052275697, 0.06002166650479815, 0.0894338416678513, 0.04317123405633624, -0.03550925390858831, -0.06016593029607207, 0.0822875278541376, -0.08452673179570792, 0.05497748279226141, -0.049173683431365106, -0.039464408083583466, 0.0218931017833537, -0.06477797202268577, -0.04712004121052449, 0.0178246035035755, -0.05614628248570771, 0.046011179478138445, -0.041298539299083385, -0.048630105851192304, -0.0055526203669089115, 0.08432203437945396, -0.11435020007320583, -0.05932722934935541, -0.08298371875635199, 0.002403351682916235, -0.05952555905464756, 0.024340196748227804, -0.028910231046598116, -0.012676778523427504, 0.0709774035454321, 0.00646681508108273, -0.0685803554420838, 0.055350868591857075, 0.009699930306656224, 0.07836170919064948, -0.06626278605962332, 0.06384422542280879, -0.05717629826999284, 0.00941983127379241, -0.014241232663323687, -0.07507891108472135, 0.12971435302256284, 0.048045355286945826, -0.062164319467484914, 0.04719706078032357, 0.073474901135672, -0.05230583996261644, -0.02868489760641792, -0.06652330708105934, 0.0639229754990377, -0.07373150290860823, -0.048853197549095055, 0.0877183334253338, 0.07270144845931455, -0.05447382729806627, -0.06496591957431701, -0.023618041612166903, -0.06729605316798974, 0.07350653443703913, -0.045448641432663486, 0.03519982283976867, -0.05807750120756622, 0.028734673783956756, 0.08170245385499826, 0.11073676584162097, 0.09636889930152667, -0.006636696943820061, 0.09460801941362375, 0.07152630629846543, 0.1062193670741122, 0.10430864171405124, 0.0697446661026871, -0.04025299904896718, 0.031008547260248872, 0.09781677177125574, -0.042742143595510984, -0.006387082819924733, -0.03448690670248427, -0.040510228470547034, 0.027656326913393817, -0.06194191517298992, 0.08654595862049427, -0.05367512506017455, 0.02408630235371445, -0.09796785622442072, -0.01695685302583336, 0.07632213650187988, 0.053962426911324135, -0.006015335354989722, -0.05079705737870179, -0.005556454558028231, 0.07045030411132608, -0.07183391771110155, 0.08437603792445324, -0.09477778451960892, 0.01235802570796102, 0.016693879941625883, 0.06791479698979366, -0.03957973378694957, -0.0035703630130810237, 0.054126556430408146, -0.06763621575698732, 0.11398978598682939, 0.01331567134132561, -0.0550623041865767, -0.06899212163344844, 0.003290260238405358, -0.07018893248563045, -0.012065632405207055, -0.08453992447439376, 0.06672721843638035, -0.028809525791574517, -0.081135446961661, 0.09266132519434227, -0.0212988546958866, 0.08574693752427369, 0.09605057804233734, -0.05903037243479183, -0.06369685195509997, -0.07733014417717933, 0.10222871460106961, -0.07219820141231723, -0.02941068968000359, -0.07978626600415302, -0.11621495717196208, 0.009303539143800235, -0.019155259045462114, -0.006118665802521808, 0.07284412205605731, 0.007488307387780899, 0.03963583578258656, 0.012728308507920599, -0.04291578632769916, 0.06650145238550166, -0.06573404035113097, 0.02409443204814464, -0.020603329909223568, 0.0801202490345646, 0.02998993352034069, 0.09493994421737025, -0.01737145171447643, -0.003552002417585984, -0.02369312114670924, 0.04987827320633588, -0.027624211171137805, 0.0895012869888419, 0.0017950240960002584, -0.03429791393237016, -0.061025679216999425, -0.14101124168482473, -0.18081244539387586, 0.01040867144080677, 0.007408496782067537, 0.02188222168344526, 0.05621890688379268, 0.049114443728570586, -0.09004597156983013, -0.0368722836665892, 0.024459346426199267, 0.05954247240791079, 0.03534123564302075, -0.027398598953132576, -0.06665856582145602, 0.016950462127212306, 0.06688246692546333, 0.07401597449270284, 0.08170095576898838, -0.046706054971491544, -0.09496078324715312, 0.0102123219762068, 0.02442196229205409, -0.058616681262041316, 0.07315386536678899, 0.09289683360647939, 0.020926960306184194, 0.08668869483225801, -0.047903238380932286, -0.07663728109906326, -0.08099143568320984, -0.005110096286483248, 0.039282170406239485, -0.036354258065427913, -0.07510801249266766, -0.020370648164813758, 0.09875178188880034, 0.01988738712557468, 0.057634041043991745, -0.06635896411525909, -0.027881929976087565, -0.0788887814689191, 0.022749197019399543, 0.08760877648220969, -0.03804585369779361, 0.015597982270077193, -0.0745325633494568, -0.0649686876794261, 0.09914281631111885, 0.09173237173706557, 0.09000286107109255, 0.05945407850171235, -0.058937779648191954, -0.05718582525476375, -0.0001550380930833291, 0.016804769107862813, -0.022535930548955835, -0.10322939667143996, -0.05583676975554234, 0.024059336965402564, 0.06454899852260769, -0.07642363524969785, 0.039874215896099095, -0.055257511210916266, -0.06332313248376861, 0.0906577861003425, 0.032821237180458485, 0.07197750410887699, -0.01890499408610466, -0.05868595997635908, 0.04086344038799757, 0.07058334239000688, 0.059075389734018484, 0.006407002305441549, -0.04888570521871374, 0.04898877862629863, -0.06614481298959729, -0.06887253579480165, -0.01180743647609372, 0.07507720723869199, 0.0016840815731423745, 0.11279819762473474, 0.1061026419765628, 0.03653464010876024, 0.10513004146260822, 0.04093899246408937, 0.054192985776967496, -0.07925178417158651, -0.01634904946672205, 0.04321893817376323, 0.0988596584595566, 0.023211813504152128, -0.009044579597860116, -0.08781746643126256, -0.0854929008300818, 0.02975122439352044, 0.01802802374914235, -0.07026695704985042, 0.07344027877477333, 0.007102745818840201, -0.025654183835163737, 0.05194664128993073, -0.05672860224791072, 0.09144361146331961, -0.044902560155125, 0.033244118888740314, 0.07610758546149803, 0.07821502745738708, 0.008303699695808802, -0.048032813653259156, 0.041567908053302335, -0.0033891828929808287, 0.034425403192837024, -0.02516807049440281, 0.05602190844926895, -0.0022843638418617203, 0.03857192627353628, 0.09828613858800046, 0.025689427639195142, -0.0320294891981525, -0.106657155173705, 0.019895467661049247, 0.06947401812328562, -0.05262419104172722, -0.043706536065243856, -0.02550631096980918, 0.04530022376629742, -0.040984024328193286, -0.09044975553724272, -0.018997984082074634, 0.029690235403686326, -0.06602325207981556, -0.0015741577384903644, -0.0782734082149027, 0.011573032193309246, -0.02167763800693575, -0.04554383979154976, 0.08434233741902071, 0.0524478927890216, -0.08237159657601356, 0.07470301234198917, 0.02444894806092023, -0.011797677833424567, -0.008473737379740422, 0.03571704155067914, 0.07959327232961465, -0.053805867436561024, -0.08147498021017437, -0.0013674771025605115, 0.03564006552062474, -0.02411649376638901, -0.10967345625300536, -0.11061276801083737, 0.07860697966333978, -0.07140517732717208, -0.08709061201584775, -0.06506320391440776, 0.04396439728221381, -0.044255140625506416, -0.041597783943171554, -0.020541482352245927, -0.06475735813750783, 0.01729744838099147, -0.03087500707157193, -0.0772766663889878, 0.1048451408798425, -0.08645182608231822, 0.028946910026274076, -0.12457926193662983, -0.0957667023302539, -0.06934816940543233, 0.0034848114750038084, 0.08765881966456064, -0.07748709950195055, -0.013058847031830507, 0.03991287393744295, -0.05445912530018888, -0.00030910438579744855, 0.06613246961498243, 0.0747458753760689, -0.04189945433627975, -0.04502655042236135, -0.07216962108767085, 0.029786393355127287, 0.05044129511389557, 0.07770790173241139, 0.09444141955318813, -0.040666197512839355, 0.08196066491566084, 0.06220704642788721, -0.07219020246800151, -0.009371437705861038, -0.01629324911180303, -0.009385327265673992, -0.08762184540432957, 0.052159368800279736, -0.10581686799859917, -0.05027258327448906, 0.06850356295595221, 0.02221156589754309, 0.052635115866120186, 0.030196795406390628, 0.022087367743029503, 0.03078157754934328, -0.09360005440582854, -0.057550385858094494, -0.08534104246561781, -0.049140125774275026, 0.0010811617738111824, 0.047575709068674234, -0.041793179672844134, 0.04495508176438592, -0.007977951783959264, 0.05315420654202692, 0.019932412987039627, -0.0961223439813993, 0.051431215854200116, -0.07905401138767709, -0.02946195396673713, 0.002111073411239959, -0.028876808681388737, -0.08607219792215826, -0.11163982089567842, -0.05401527562146114, 0.010807112926013536, -0.10015543771588332, -0.10463762006775124, -0.025848892720923604, -0.06293970139642793, -0.10459199242683671, -0.09746942385834284, -0.11935863264282766, -0.05335014299507078, 0.04468993523327788, 0.06388944831632226, 0.07751210996297549, -0.013444058508237168, 0.08271381451644319, -0.04561137831977647, -0.02729571229081007, 0.08249075548976069, -0.05994271024282471, 0.051464213971777965, 0.06861928419396586, 0.02620894061680078, 0.06965998885817175, -0.06245027351925838, -0.0012866563407580374, 0.03314677321147023, -0.055153953157892205, -0.05126836618118406, 0.052048419843431, 0.008759923803315521, 0.004363765780040926, -0.08513922585644745, 0.010458780785898212, -0.10111568180544263, -0.009058674736618425, 0.03740795114114966, 0.048968993891758905, -0.02404953786901287, 0.08695368517461975, 0.09448007608406696, -0.08268803658631499, 0.10071710035356761, 0.0016133458276551972, -0.044106863471112014, 0.04416484560258378, 0.0918967409880588, -0.05284796257505332, -0.06027662794753, -0.05267360068171443, -0.008107200837988004, 0.07941143960849464, -0.028233017614782852, 0.06212473662309279, 0.01011351435210818, 0.03169729040240442, -0.002830816012954625, 0.006368074295392786, -0.056370912883927704, 0.036339378326487724, -0.06427269837474596, -0.1129097068803486, -0.053819272027994344, -0.04721245652264127, -0.10534360815167321, 0.06533125768303708, 0.033328445365690657, -0.08429100360122294, 0.045641180814223095, 0.0725533775885405, -0.0034899129490362723, -0.08020178401806312, -0.031033444023629453, -0.05213254935938038, 0.04993340714510835, -0.028968640963067435, -0.047172327396563435, -0.005481455860335743, 0.08133545711298898, -0.06241656236005172, -0.01665868022314347, -0.06320798480716006, 0.08214139809756084, -0.010874781142198264, 0.04582977719224174, -0.04301110791709244, -0.11036264007621688, -0.08741413036499711, -0.13454508970754908, 0.014481704382056109, -0.11834423506603213, -0.10420243110021774, -0.0836890131084475, -0.004985465548668747, -0.031194405789289562, 0.08692823062621127, 0.08437175708508708, -0.0008361961952251424, 0.06135555143493306, -0.06351829274265015, 0.015126001201251646, 0.09583259009996009, -0.04384276311950011, 0.09304904025337377, -0.02706390525446721, 0.09573377597659255, 0.0017584179163013336, 0.04173474812306763, -0.0979323114717385, 0.03744029326763666, 0.09720485305792952, 0.08830993898860233, 0.07336489522814231, -0.02095739270875559, -0.03599601099073661, 0.060311467537446525, 0.08293581171609782, 0.06654412323342022, -0.05150073993428476, 0.1193859328321034, 0.06958841829489236, -0.052945400492152274, 0.061414222951225936, -0.02972426192121515, 0.030438502011196536, -0.0636020341814153, -0.047821886671495464, 0.08838763661699604, -0.06166725009949354, 0.09119853702933488, -0.09451013926402413, 0.03927836997865761, 0.06291507377311953, -0.03143689650929171, -0.01256035156213986, -0.017780236565802864, -0.010730061036261573, 0.01975678556924191, 0.01988517910485016, 0.0037683131659331346, -0.07114757522132599, -0.05359190340110493, -0.06136528507618661, -0.07064930408311872, 0.049488070731993225, 0.0233018811034588, 0.04118760624120669, -0.037971666609389325, 0.05400653670400283, -0.003920947837887015, 0.07051250827416859, 0.07813967140770034, 0.03742635342159509, -0.00735981869823474, -0.02890179711858647, 0.0016310517989298287, 0.07225668475092856, 0.009782235862263417, 0.04829470568043853, 0.05490602934265776, 0.09930279948581319, 0.06070261516251707, -0.08864131437258793, -0.022056564656887503, 0.0296266440755909, -0.06511790523252832, 0.01898481300470916, -0.0985184668109026, -0.005622805502535716, 0.07971766912670313, 0.01315932506227663, -0.024510534559237657, 0.03314032694203839, -0.01988314280247038, 0.09238294557903519, 0.05183425971405855, -0.05877854365390358, 0.0620904384836679, 0.055417797983098656, 0.042148007399925726, 0.03704060319880727, 0.014114689434575396, -0.05904259879377218, -0.00294350628049085, 0.06296693068987855, 0.07306622720121317, 0.03418372914421322, -0.005425809241832155], [0.07389185999454817, -0.03299501325797492, 0.04268658472396886, 0.08314166576796941, -0.0825088672089782, 0.05263852770374275, 0.03433000961959301, -0.027243613367908953, 0.039256910817088014, -0.030420733981520884, 0.0655261199257337, -0.0268207341603095, -0.04025733029908371, -0.09803540531758831, -0.04841520908963816, -0.03807044515857342, 0.0759750360624721, 0.052030766634813486, -0.07887474217240947, -0.08964937641346403, -0.030894980901030267, -0.062192155607558065, 0.015960772821490304, -0.03120940903991512, -0.026986075493933948, 0.08616971495501213, 0.038355754239526585, 0.04292411812600025, 0.0979103652512679, -0.02871170969948271, 0.040198978757374354, 0.007856756247416219, -0.0466873676375071, 0.0022355907713750224, -0.0830203650111604, -0.025592603925005293, 0.04200061588773992, 0.03162965938241224, -0.009142960646235637, -0.03874626159885693, 0.05823571727196699, 0.0690185166299066, 0.04354673011009665, -0.0006902729578603967, -0.014889222668325746, 0.05161100668589523, 0.07449281767754905, 0.02083587153255847, -0.01975260497735203, -0.08179027849184488, -0.06004067187258434, -0.05936844205144173, 0.01156788298031279, 0.0401116659827527, -0.014603768774573214, -0.03278785101505188, -0.07793864081228011, 0.03083479473378653, 0.031096092552361763, -0.010470467744893899, 0.03650203105601476, 0.05373655718739705, -0.004620563272355369, 0.02978075515432072, -0.01344884651983331, 0.018446847315416424, 0.015392232968496114, 0.0664332431187229, 0.08418734091487902, -0.07928210684315971, 0.05176227064251832, 0.1161933459037923, 0.06039715283783313, -0.04757270557420544, 0.10306810923702472, -0.07426231056615645, -0.010705491585339639, 0.06900730826895629, 0.021978923508865465, -0.044586597193726714, -0.038713490418245566, 0.01402169956860619, 0.028930309106648677, 0.09790338452516223, 0.037313441727903546, -0.04034113145949303, 0.0592580307981769, -0.04492228985991597, -0.01106783727335492, 0.02109529442660794, 0.029343462536373714, 0.04830319599455778, 0.07603563616653519, 0.08929529974443583, 0.05233983925173101, 0.08872181483039858, 0.07596097381373355, -0.06109396160520479, 0.11193672987993299, -0.0018240676559293852, -0.021991756109208224, -0.06126885938938795, 0.027417834224629373, 0.11948080328252189, 0.08933996397449279, -0.030792369616108442, 0.09863703704720166, 0.0496381632861436, -0.08734316478957971, 0.012426168422232983, 0.026031017337257423, -0.008002430627433416, -0.038451550234468335, 0.03887659163316576, 0.022122356910941637, 0.01588832582029747, 0.045685125850426105, -0.0012693192866289082, -0.02886420929196892, -0.05443219592130968, 0.000493188350831475, -0.05825935992577389, 0.06560120833700059, 0.06481949407286686, -0.09666293931474725, 0.022484845239938715, 0.0424722109908426, 0.07980335957417983, -0.09912062156035975, -0.07903227848353872, 0.035629427183539564, 0.01269129359906009, -0.047194623774203116, 0.0037332527041851206, 0.09258811387639951, -0.08167419860290653, 0.08577390422075373, -0.02462984130391688, 0.07751467837862058, 0.02736854960927073, 0.04278815747006809, -0.03271788318954015, -0.0410688060480282, -0.07016470473785322, 0.017810663025075744, 0.05659807914131469, 0.07795096066091257, 0.0810502356297941, 0.06626445959754407, -0.020849702751790402, -0.06010191020374614, -0.015822590631730107, 0.051727464484573216, -0.09432537516343427, -0.10531677229963735, -0.09630485684837868, 0.061049679280735354, -0.0786689859029196, -0.00101179349258197, -0.0881814079662617, 0.0050489746086625695, -0.06696856529062134, -0.10992086351519995, 0.04746303930068713, 0.07150559890727795, 0.052025100917350006, -0.0664302827073299, -0.05086503493206447, -0.05381593814359076, 0.08584781865934098, 0.006386663840165751, 0.09683546173038331, 0.039470318742603094, -0.0719799731386517, 0.09243243110269982, -0.013962383745135358, 0.09530962538576532, -0.0028625648122548716, 0.04254239046075505, 0.04567880975905555, 0.02000614086550262, 0.01358581180981658, 0.07498644894677023, -0.05177322806859976, -0.06206117300386201, 0.015135337836112083, 0.029919242943650257, -0.07801445923819451, 0.04992061403157815, -0.0950544276947125, 0.00904875650574583, -0.08313495610830159, 0.07811707215117987, 0.010958207819019947, 0.0314281900211984, 0.07895193830678943, -0.06068081111632057, 0.047558486713498486, 0.043690563508266736, 0.04894043485708345, 0.06710064302334791, -0.021115230915940735, -0.05750765857520951, 0.05909071412800416, -0.01986720743503299, 0.0098251253130825, 0.0595889029505734, -0.056890620925547614, -0.04498825073471265, -0.05667978238324634, 0.009526341011586295, 0.1007369600202562, 0.11466475379910454, 0.03926449875371967, 0.003744082191253273, -0.08059631989360469, 0.017879007206461926, -0.04408724548476724, -0.08988242218597552, -0.01747809642990586, 0.012616150419339932, 0.06530592087157434, -0.08785739752859667, -0.07020833718392826, -0.08436477971482202, -0.0171079844643813, -0.029351988427449356, 0.08384669361607941, 0.0036013989192362613, 0.07834114661742698, 0.08811463933209301, 0.04084646747055403, 0.053745271004393594, -0.08335792962863316, -0.09980931922660259, -0.036689547599083064, 0.039815365891063055, -0.09620727823750692, 0.04387006671697, -0.10340277641002159, -0.039770763056033824, -0.010752478158731227, -0.03218606395607944, -0.08737569983705364, -0.010593073611012114, -0.06800935841530853, -0.040049193346021035, -9.38420827646751e-05, 0.0587633410733348, 0.023441183541682852, 0.009869008207767005, 0.06784574644117304, -0.025631098863730505, -0.09113408049234491, -0.039933926367534185, -0.05914232459341074, -0.029238316989509436, -0.011796151090053292, -0.022624330166149276, -0.024777579408956904, 0.030783616454458162, -0.05754445395528928, -0.04536971153891673, 0.06674935759171974, -0.08751272397339337, 0.07210189522688505, -0.04983355165939753, 0.05989411184604494, -0.06224162415010786, 0.047023191221775014, -0.022488673132254725, 0.028278861131222542, 0.03464092118788237, -0.05801884088776776, 0.022367564999076783, -0.1115265728782115, -0.02220318565843415, -0.09087751309499675, 0.011349758043091726, 0.04558235393144232, 0.010732456221879978, 0.047569626682135505, -0.0001564815975173261, 0.010784346346518828, 0.02810674124095332, 0.06368096493197178, -0.052290431703416816, -0.039121822355544, 0.0893104821748718, 0.0008005714276837292, 0.008091890136743994, -0.09288384810164237, 0.06946226364288194, -0.03477645816428623, 0.0855451024968546, -0.01089760217466452, 0.020439795304155246, 0.08300796563303964, 0.04233078960594203, -0.07656928749460727, -0.07158440041680968, -0.031141583742943967, 0.03182598841130388, 0.08460837371761407, -0.037837711161037665, -0.08622652855272206, 0.024607818706409292, 0.019851410142197313, 0.06264599899940235, 0.08083836884423538, 0.06386837315494721, 0.01811980655455379, -0.060875519933158345, -0.05995760714844701, 0.0041465909402230465, 0.028459088819241137, 0.07946209024034491, -0.057338883087366496, -0.0671477550661954, -0.016575587730305402, -0.07851657768788763, 0.09510813616302005, 0.007190336202188725, 0.04384929973237892, 0.03670456580243695, 0.10167071467417298, -0.016104637374794128, -0.025446788268988156, -0.06550731317706356, 0.0693456517683913, 0.07925332082794917, -0.06289965478249543, -0.05537446990925923, 0.05579754358847274, 0.0903663978041025, 0.017804565059807997, 0.041207241827934074, -0.04143698641481506, -0.019834045798779707, -0.07895364936498712, -0.007112605158837679, -0.07498601281072662, -0.005038289953854518, -0.024148454089656587, 0.08230576753845488, -0.02161424009948034, -0.0647499446247587, -0.0307386652299197, -0.07009987005398634, 0.009946981484289004, -0.01230729024773544, 0.05948496131485429, -0.04497045021345916, -0.035529055068389076, 0.11577165701972474, -0.04193099026970169, 0.04682036880774571, 0.06660162751051889, 0.028321018967263457, -0.01425130853994203, 0.09885578284558806, 0.07924421518651205, 0.06729910597470887, -0.02217802079344927, -0.04573349736855587, 0.0029048957141834075, -0.07571436414545579, -0.08896942405403782, 0.028301524921377042, 0.03246451043946767, -0.005520478897872611, 0.10289883977372498, 0.03487201228240657, 0.048208534773931104, -0.0045932672349864, -0.02278517942568852, 0.034635820034307124, 0.06006595018192952, -0.11647590220452288, 0.07065188607866174, -0.04470654651183272, 0.10261029970139687, -0.07084071293089221, 0.01176249942771907, -0.0483083374116079, -0.049694212241498725, 0.1270594240094071, 0.009091413645944608, 0.08123013384963476, -0.05511330954753593, -0.09332331943215784, 0.07677303105194243, -0.09561660458570603, 0.03194781585454068, 0.05557841091427777, 0.02048219857833347, -0.054081594021703656, -0.030035152807256906, -0.012432029774355077, -0.01614204208965663, -0.04789846336448512, 0.07147992769251277, 0.06602411950525759, -0.07395330697576012, -0.12445158079234463, -0.05571076321692257, -0.13136214952924974, -0.09236906538823016, 0.055182151343666976, -0.017518186547745392, 0.1145823464972869, -0.027284304906345848, 0.04426445233604771, 0.11333987551181997, 0.13670586109014118, 0.06556866515271949, 0.08665336776633237, -0.009382602644967286, -0.03726306627243565, 0.048307690005218826, 0.08433511918763585, -0.06411881889166883, 0.09364148467315234, -0.08939415703434346, 0.0020737621904468777, -0.04558046788723233, -0.04980845811536948, 0.0235352620022149, 0.02503829066979597, 0.06786944824432518, 0.0015562725433481462, 0.07204600702335691, -0.0447381958058241, -0.0900608774637398, -0.09885819774520803, 0.06283480873093132, 0.05428535261116672, -0.0071823195294939525, 0.08445607938269653, 0.014350733133931497, 0.07810569349979266, 0.06776658644718779, 0.08805378608962769, 0.027470388831961016, -0.012987195167916717, -0.10176910428842537, -0.015368223980068893, -0.09183283838690919, -0.06504376438404581, -0.016190177290238947, -0.022703382950483263, -0.07081333802677385, -0.06352012284220158, -0.04869909697334835, -0.06853375274540947, 0.04499999597804587, 0.07780669336022873, 0.03487577958459257, -0.023945139360294205, -0.02832562100237676, 0.009932639043345175, 0.01575287368502211, 0.006379285016023556, 0.00365507762623115, 0.06978902043149339, -0.06960827659282894, 0.023383169954201435, -0.06056019867569318, 0.11098751381060606, 0.050832019409087534, 0.016918196251394072, 0.10590041350015911, -0.078322344901119, -0.06545116890887817, -0.06270008218711384, -0.022940610361927054, -0.03575890530619144, -0.02466300159133633, -0.06842509494535923, -0.0932178206775433, -0.06690806220235662, -0.047677336068556175, -0.022189067308174073, -0.037563916727517695, -0.07578727477024848, 0.08852125157574386, -0.02654110840350079, 0.022600682289313025, -0.052080168661178455, -0.014581174295075484, 0.0538481527699004, -0.04870908638379834, 0.0709633050421452, -0.07087737512874363, 0.023901678365338193, 0.07113286017545514, -0.08345320354841257, 0.011181850914700607, 0.05101370267642671, 0.030160841521936838, 0.026777923879726506, -0.09304304257512788, 0.049385944328779026, -0.051200918038371374, 0.019581112536902697, -0.05519499326145442, 0.05744034633448177, 0.0016198427102655792, -0.06771105513729614, -0.014970007795134943, 0.024862264459983293, -0.09981533606973962, -0.004482374805192819, -0.07056163835434913, -0.06823911388782976, 0.08574167557137174, 0.009026074392339429, 0.07527397199722832, -0.10979178327634051, -0.08458589797417648, -0.0658780005273149, -0.058719450773520365, 0.0946364382818989, 0.04032696261089836, -0.050743739776780136, 0.09626909841685104, -0.0563974148094956, 0.020143890297546797, 0.061600319675948, 0.04082706022903256, 0.05562317382169401, -0.07569330439189412, 0.06707284041269906, 0.002508648381725094, -0.04889489821843402, -0.07030143734401846, 0.037361602652208184, -0.013318989283979966, 0.030754477776018776, 0.03039575892849078, -0.06934742201714125, 0.045425320299940675, -0.014637650206049103, 0.0629875122484651, -0.04705336406156517, 0.06867962500539604, 0.02845908699514722, -0.002050288946407476, 0.07816016564159253, 0.04495898576082517, 0.04754765937102363, -0.10900536313105577, 0.07044363926244114, 0.05947142860169178, 0.07196965518041765, -0.0031858199687855916, -0.07285741203263148, -0.05328339736526136, 0.03436481944495142, -0.03681722985924796, -0.0505219146834123, -0.09901569224839377, 0.04790583096881343, -0.012865975528129408, 0.07394248521732125, -0.08203175709898297, -0.09077669079215657, -0.0016237463965613932, -0.08334879312444428, -0.11171569153566048, -0.0795116692502981, 0.08294051189354092, 0.04803316809609495, 0.0640326263858776, 0.04626857886894186, -0.08974599052722228, -0.03684131183231231, 0.09159676732427902, -0.051812776733813466, -0.035232246100367744, 0.018240823383117468, 0.04886304821697075, 0.04964043830412904, 0.009805457741403635, -0.06132706435541437, 0.06888693665072436, 0.07065379307622069, -0.03649201404541675, -0.015308186340267056, 0.0709903508902458, 0.028324327772437666, -0.07467991897914257, -0.026350704534272056, -0.03170701598533533, 0.06580671656287913, 0.0026236789184794786, -0.02325052379904011, -0.09253606287810552, -0.11607614118782256, -0.0505375760543794, 0.03955635703955042, 0.0013903705506610583, 0.008801221785488613, -0.03753163539962539, -0.060458584910915165, 0.02468091203467061, 0.013498147426903232, -0.0965915345813031, -0.022165456932229453, 0.05569476537093122, 0.057404725271276484, -0.10249650232534564, 0.03811110652168271, 0.00296570061067364, 0.041120504988357544, 0.05801993740857373, -0.043606878831452034, -0.09342314713764867, 0.016786491074625307, -0.08119405193371189, -0.08532345585338301, 0.035505848354522904, -0.07647687013999689, 0.07394404842375295, -0.08808980353612988, -0.09330944241976816, -0.08197352485762442, 0.06740126521279056, -0.052959522622140064, -0.050194247376100155, -0.041822436587574514, -0.02113658828335858, -0.07891360424532678, 0.02670382355897627, -0.026067982432363246, 0.053457192130136805, -0.010535419653015904, -0.09310609175377287, 0.04882627690995594, -0.054477622244221785, -0.060541420752049796, 0.028875321036240985, -0.023864450418417157, 0.007138904793481646, 0.055588082430440694, -0.030810913612985227, -0.07593356930670256, -0.06985781109901705, 0.008337205180183856, -0.01822931252092091, 0.08295306115971207, 0.04310403585742766, -0.049739177050161856, 0.030206028543809386, 0.09587595850874046, 0.09339485225534482, -0.05704110223707747, -0.03178704511219327, 0.022564000467131234, 0.03872154029242616, 0.07370538400403907, -0.09325003379690679, -0.05728110087961561, -0.05152610906326561, -0.09494971983894689, 0.006475368423991319, 0.07957958931016851, -0.09845922118520851, -0.016044661359946817, 0.06000448657846868, 0.06201532962908951, 0.01299485443266482, 0.03339895252660613, -0.060943795745056484, 0.04270159309668983, -0.04857263487905637, -0.08515661123069448, 0.05750251362056728, 0.05591093563795206, 0.08533443496953257, -0.005201052498888306, 0.07698398424537174, 0.051769042318466504, 0.04369316272934527, 0.11337960506077535, -0.04221763995918299, 0.08025159380682143, 0.061131248853627154, -0.06979019844513763, -0.08886438167559545, -0.012398297063843431, -0.06749693368138647, 0.021634334152654353, -0.09255203027302031, -0.054187996425744275, 0.030499823706409225, -0.05291862267576992, 0.07399759529174321, -0.09336642937696557, 0.02561221713296849, -0.08793863637246671, -0.02665796827915559, -0.07163616044733591, -0.07094863458822387, -0.007606319878948897, -0.008834452687532489, -0.010517149538262644, -0.054114590475426994, 0.07159506427965776, 0.002335837761514177, 0.09961434978045508, -0.08510936927028051, 0.07604247078435414, 0.053072620460243775, 0.08875524959439168, 0.019226970233252403, 0.05343931378427571, 0.034740280096082383, -0.043383703163095005, 0.012440917783203087, -0.014561688441156535, -0.06451926341274977, -0.03450572759321137, 0.09009806404704324, 0.06454598945377618, 0.06614672471389303, 0.08786183230776037, -0.08972082753419644, 0.042646591957780894, -0.032308710455524595, -0.003732292346494165, 0.06364243285719452, 0.04607143476009033, -0.027613127634278777, 0.019170106613179264, -0.03916709724223583, 0.04506745317707094, -0.04325382875497077, 0.09425321759374837, -0.05101702100047428, 0.01570179552055454, -0.07218995266941129, 0.06303543466562246, -0.07416875159859196, 0.0044706521458510486, 0.04280690330538068, -0.09580511166689733, -0.017158546572640623, -0.023187844615964643, -0.07671273780857035, -0.04192634924490052, 0.07043001164747954, -0.07473259678155016, -0.044822111612801495, -0.06518368471588139, 0.05131024789694394, 0.03719516537558862, -0.09502082163890642, 0.07869005887853756, 0.0809956758286143, 0.004125084350387127, -0.01990818630891709, -0.022531840211201266, 0.07020879574201962, 0.006409744210514454, -0.04712693631467117, 0.09973699403721885, 0.007839670077937542, -0.08412272643832773, 0.08679547346830066, 0.07962446177696517, -0.011176206486636035, -0.04410185760520263, -0.032558662529248536, -0.050444771445506194, -0.05148458819650889, 0.06725320575358924, -0.06615418782028845, 0.06810603847271506, -0.03382324997161381, -0.03568437175932286, -0.08750850965156261, 0.05769086978580015, -0.09800840712695652], [-0.025162431707034402, 0.09665827285002523, -0.015341615268716288, -0.06396173160336044, -0.03593148623293639, -0.050022389068433065, 0.011256744743036645, 0.008465046146227673, 0.09203055944362082, -0.07309337286803713, -0.01841901986399755, 0.00524712581191604, -0.013062243216487667, -0.09914552980169233, 0.048561427247389634, -0.05887425610313988, -0.06126688868364194, 0.030261614830941475, -0.024351754303983092, 0.03941247492473712, 0.09652085657006071, -0.0798773336430962, 0.08010876641671955, -0.025169480513268616, -0.04810463392558282, -0.030708279348818618, 0.08701390786128649, -0.038331354451392734, 0.0688696485892803, 0.09103585315453724, 0.02309029733060808, 0.07036319092328489, -0.02609293481045679, 0.08679228573558916, 0.053842790443355555, 0.08258972645894957, -0.0504456793553274, 0.06243736724841018, -0.023997568657939384, 0.06414222654375391, -0.04304944901597753, -0.08086565565501425, -0.07732215056830753, 0.08482326825444916, -0.09317025660076816, 0.0779888323041089, -0.0772848090539326, -0.09683335472243071, 0.08206063312302676, -0.09963023203088871, -0.02094367261398195, 0.08610002899380924, 0.03777531834577047, 0.05660810647114853, -0.032716904635254104, -0.03893211353489861, 0.004790320118700661, -0.03826802381412693, 0.06157205231338832, 0.047919898603680296, -0.024895230240064733, 0.0491956652501832, -0.051663753276935336, -0.021728014930429643, 0.029683862977787967, 0.07030098162362089, -0.07368409143387745, -0.07703301352526001, 0.07255599267328862, 0.06252465275496832, -0.09081758234797888, 0.09492239766229482, -0.09278971498780768, -0.021575069156843357, -0.014154724096021153, 0.047561700906834765, -0.03718573131035405, -0.04118459994339731, -0.05280942137137788, -0.009513822089762708, -0.013868481273062231, 0.05205008335104486, 0.028818858575458683, -0.060010566994140625, -0.03402241748288791, -0.03773728424968126, 0.0364940829182199, -0.07190827748255381, -0.029491991668868654, 0.0038854797184356676, -0.06357833798692589, 0.05424368405391394, 0.05097399617514049, 0.011996636359388808, -0.03113783647184734, 0.047191544111769186, -0.05699115289125763, 0.005809089204451743, -0.07609788428903928, -0.03378316389876793, -0.09008294142920635, -0.02233240467768022, 0.03924329037649485, 0.04231456349966953, 0.03268630783343875, -0.09780716813785244, 0.05516018182984254, 0.018516575256717894, 0.045911583515176574, 0.08671495826540723, -0.009821134872768327, -0.017053188399585723, 0.0759252613417134, -0.08579288419176395, 0.02733700334105902, 0.03712999573885095, -0.016319919542794704, 0.05272019522964184, 0.06653142182732845, 0.07997779209803327, -0.09566085189180365, -0.015939160116616537, -0.02221982268162893, 0.05230821160284045, 0.07568900528048654, 0.08078634686720523, -0.055140146042314514, -0.035853742602778696, -0.042490824096353345, -0.08024806961504737, -0.0609292513166558, -0.01591937794006068, 0.006119269796005178, -0.06406714055821824, -0.08294041854873142, -0.0418897714865355, -0.07691406569384901, -0.053239535162204185, 0.09660303368119726, -0.019199571554807067, 0.026751208906671542, -0.09147687112603389, 0.041674604598728855, -0.0022035731064784375, 0.06444413337526733, -0.07175186325367072, -0.07573216815376188, -0.08041522477227649, -0.030405161691010943, -0.0013714782982574218, -0.01798272663686316, 0.014247759331894415, -0.062361630221863286, 0.05816512913249523, -0.04036349088650329, 0.020540476062502807, 0.047923812538377665, -0.02532113210033623, 0.06929716463084667, 0.10376913083155874, -0.07983749885418075, 0.021636434441684657, -0.0578277240474706, 0.020110415270939076, 0.017756189953454685, 0.02414036078636098, -0.0951867509114354, -0.038971738683758285, 0.07412798252435049, 0.06183399768344418, 0.07459245785462228, -0.06996787114200977, -0.003124058292813929, -0.028868116316934287, 0.07041508394087462, 0.020338281674070202, -0.06120567321178363, 0.04797142550348969, -0.10292907577273286, -0.024876144622208995, 0.07537743841835062, -0.06729317329081208, -0.005510552990903083, 0.030849746474647624, 0.0576646779165035, -0.009927808331241314, -0.028351787366111818, 0.08058682943244996, -0.0672975189124168, 0.0073246901814591845, 0.08232588060584525, 0.06776773366460238, -0.05088261521773692, -0.047438176580432125, 0.016698630975741, -0.026888869852050603, -0.013294233021934412, -0.0015163135679763882, -0.09857883651248173, 0.05732889505653918, -0.022402310392105267, -0.03371636804334092, 0.03837236255432965, -0.017900745564802534, 0.05804830910940238, -0.09897816382702168, -0.08691980079336495, -0.016240881289488703, 0.07422665811096438, -0.06538670861450013, -0.08886497611432474, 0.10169994621205755, -0.024831660101361678, -0.09346689163252374, -0.05892072262861503, -0.06499774810382937, 0.04800516744533938, 0.02355193596997734, -0.08939268684085695, -0.08132595779085951, 0.037912190947641235, 0.036872956267415546, -0.03132167514748833, 0.10005851125051071, 0.011674219265601846, -0.06724203744179888, -0.0020016823445903435, 0.032016901231919324, 0.01391645799569046, -0.09883284660055695, -0.051082630747822086, 0.02752471516015033, -0.11437852657473194, -0.022919094968749974, 0.06994526619128795, -0.08504988541428438, -0.10768253089981655, 0.052922626260218465, 0.04503434144552614, 0.01456297186166822, -0.05833985401796972, 0.06276231310847998, -0.07332872855882665, -0.09041196021409822, -0.03492515842662845, -0.11890261088684091, 0.08290908913371402, -0.05299608721245481, 0.017871960914672764, -0.007609710938495236, -0.011460868650822496, 0.03756554229402958, 0.03383019946096018, 0.0858590352302157, -0.0588030037629593, 0.07475638999007087, 0.05049022462997517, 0.003560844239834619, 0.0715416143196252, -0.004831029738750173, -0.04086064163399237, -0.06929835214862098, -0.0644728488417825, -0.07542765999466411, 0.026370165369158028, 0.046891463417701444, 0.03922009793180434, -0.06171857583501735, 0.03075744962608188, -0.027671797339659413, 0.01111374118607666, 0.019419096946298373, 0.06821123910913927, 0.01021615224912549, 0.03302653357200419, 0.07052700283351948, -0.06212126784812359, 0.01734991220576652, 0.0359003439919581, -0.03831881641861197, 0.07091620126104785, 0.05826129952879698, -0.012987167081625875, 0.005647998600296711, -0.0534615311434849, 0.054132424743498664, -0.02278828080874527, -0.08211828312448499, -0.052232109080494166, 0.005166339462227717, -0.08284326648737889, -0.04738676448135233, 0.08125613586904329, 0.07102455395949514, 0.013265915242589339, -0.06288980585390165, -0.003531653787124171, -0.07579207248541163, 0.053607852070479065, -0.08536300291099468, -0.05128194963263003, 0.004766117998092927, 0.10467919855083713, -0.06884417567401126, 0.10112188627681915, -0.03184167078172238, -0.042033053824543073, -0.07451727988997285, -0.0015626844702647123, 0.07775660857805994, 0.059571508660298055, 0.03765753624750867, -0.0965928672281832, 0.009947762231646623, 0.03375629868897571, 0.04743642156109558, -0.04911895162725273, -0.013743717623614834, -0.05059844435868079, 0.022771793737728294, 0.037501275513065375, 0.02218623338512109, -0.027980535363365432, -0.08991885802447454, -0.12074487319152943, -0.1386707625021131, 0.009243593704199903, 0.02986947009880664, -0.06131253236328196, -0.043597643616300384, -0.020569672634877113, 0.05111790420089936, -0.09267817340908602, -0.09387343938858081, -0.03554142312618454, 0.057525379057757314, 0.014886487376089224, 0.06033994256151426, 0.017703074471888826, 0.033499010515666255, -0.09688305799129135, -0.04441427069750357, 0.04489363489249324, 0.10548199708799641, -0.08008754602332491, -0.011425172056339021, -0.080615851821673, -0.041979976128024586, -0.08864217588472101, -0.08180069017861868, -0.10090714476171221, 0.060641466358731466, -0.13374652778728488, 0.0354287464704793, 0.047737215973302466, -0.030333491757130918, 0.0031110519086597795, -0.03586878151705724, -0.0039176541266115455, 0.058000536446121506, 0.0945717716378667, 0.045215202591970066, -0.08490156794049103, 0.06240471085588745, 0.07369929395170581, -0.030710567642719618, 0.08944850264793192, 0.02810587446966788, -0.04566757335006876, 0.06968854375157073, 0.09090320229069833, 0.029842109043796826, 0.07840060397866522, -0.01978176662695488, 0.05640948768767556, 0.0315935061323614, 0.07456894438385793, -0.04984642100404419, -0.06466897178356415, 0.012612917700486172, -0.1326600060349335, -0.03904218893754379, -0.09244171641180453, 0.011155590704983826, -0.08034711911669995, 0.11140938450520507, 0.06245716394357029, 0.07036245582901965, 0.046066515434534806, 0.0246276093175986, 0.0479398505030908, 0.0535111903073132, 0.07001359993697082, -0.07742866879142056, -0.08171140909528841, 0.027955653624283504, 0.0806432518304078, -0.06212066406158605, -0.0064294802387285365, 0.004064823324847807, 0.09939175677804098, 0.05901251443386712, -0.030455891278840377, 0.028428122121187723, -0.006732744438924101, -0.035333393504458334, -0.0021677579118166996, -0.022870633361931306, -0.11908283656683302, 0.0011357650685541725, -0.05282667522594899, 0.00946872012301845, -0.0607688252831585, -0.05293933697571999, 0.0845057584399685, 0.012392453225537337, 0.0755016368438959, 0.044098606163848066, -0.014838694360414737, 0.008791962203831067, 0.053926024443858564, 0.039708234622372274, 0.0505916213078077, 0.06224727233249802, -0.03276749328777984, -0.08630387609845336, -0.06260904372030597, 0.06301344463757157, 0.009894969202774773, -0.052267984173279894, 0.059205043975160396, -0.009753379752052647, 0.007758621103701258, -0.004179179685415895, -0.053982848340068605, 0.07174077043910346, -0.1427797611341202, -0.04883435065266125, -0.07418471534170547, -0.04978970895214304, -0.060435820012959454, -0.038473215732940796, -0.04245146661822221, 0.08835794606371364, 0.08632214272850641, -0.011471824727388079, 0.09835620183922608, -0.03836929184339232, 0.015486495125605479, -0.013264351370912345, 0.00055438312557539, 0.03158629466416082, 0.04974961940767406, 0.03578690074285789, -0.03134444367268567, -0.0948808680946197, -0.004579839933314211, -0.051526424226531926, 0.11787219307294025, -0.05185913197042328, 0.08443131608147551, 0.008069476921441578, 0.05747274719746775, -0.10486681077026228, -0.0471020556936857, -0.0005513098274765511, -0.06929745372214625, -0.10071915755182262, 0.05676392454405338, 0.02724487572494803, 0.09205445570174739, -0.058852540292636306, -0.09125257617582609, -0.00033494527710658357, 0.016175942730282094, -0.025173983715274847, 0.03538506800291835, -0.03235650069033773, 0.031068584720608743, -0.08423634880404365, -0.0936910125222943, -0.03754401333217331, 0.04348383258709017, 0.003783000990008854, -0.005667708750247035, 0.0850099188648192, -0.0017217759437748968, -0.00041428632574370207, -0.0303554872434932, 0.06247399793578824, 0.04359612566114046, 0.028801322013384416, 0.056435862459818076, -0.038431158807778504, 0.0858411813556414, -0.06655040936005452, 0.044172217795218724, 0.10022395548585245, -0.009769849504397039, 0.03625302053049742, 0.10252526345494614, -0.09564696481968393, -0.05425610187548419, -0.07145707159424922, 0.029000223363740835, 0.06790899115291832, -0.05307251902041655, 0.0018375374899321736, 0.04784831511199854, -0.029247053882312198, 0.05398307802796522, -0.06997601122862877, -0.039182485266213915, -0.028856684091410807, -0.008466916540400285, -0.01618698983450338, -0.06943918161795548, 0.015966141729357966, 0.07969893972926317, -0.0005458377491164014, -0.06609433710421145, -0.09240656429478397, 0.04645281268647098, -0.06822379656123691, 0.0328830021634048, -0.043258124127005144, 0.08920284055532056, -0.021423757907077675, -0.08857286562877188, -0.09566597549263083, 0.0035465052624368814, -0.07261908560128401, -0.0900588298080896, -0.002856958971838572, -0.05685645806114693, -0.015990527214920853, 0.011219973767740131, -0.0030147164469833546, 0.0013669975964860806, -0.012216785178812148, 0.09249124560562212, -0.03791832364480435, 0.11982805717919569, 0.12490933414730025, 0.0903793961595581, 0.10015572130496264, -0.046055125240304695, -0.01821306840985411, 0.0571657717159982, 0.010883468196483828, -0.06736720375254408, -0.017307998809425806, -0.06603116450410879, 0.07184787687602383, 0.01641404877550591, -0.05561501441818362, 0.06181991079651276, 0.07575200935928085, 0.054416193473247484, -0.012474129296017931, 0.07147056215090708, 0.052218361046005746, 0.0224644797625094, 0.06463324530337698, -0.09827399904429895, -0.04101405217253554, 0.048044727939656855, 0.11690468332265194, -0.045508291024442135, 0.03572488733498748, 0.003645301331602558, -0.007194563581882587, -0.017530226565022924, -0.06017051932134618, 0.0745396212586659, -0.051359198674100846, -0.06352086507408729, -0.02796374028881181, 0.055982873965127425, 0.017731634652630213, 0.054522754788843324, 0.0012127712767541422, 0.03255684590838022, -0.06453824716306797, -0.0855857594971657, -0.022262822140097678, 0.025459166403792338, 0.01433262720451029, 0.01358533956947335, 0.018865818375293626, 0.0051260751533451715, 0.04292629776609003, -0.0648533041729195, 0.028921385526260186, 0.0698762811425215, -0.03515386668136595, 0.0723616104967702, 0.04867578388888058, -0.07763364055351069, -0.02959650946325593, 0.11032969919746788, 0.03564212634307692, 0.09066826817909823, -0.017659311952880563, -0.0919827618407153, -0.09025611259002976, 0.01180456746023881, -0.0619035476581123, 0.089771116735716, -0.02468433420608937, 0.09464828325371547, -0.012500958559954266, 0.001585220419077885, 0.07622308609590778, -0.06260392488058457, 0.002779035180697651, -0.05584012018104273, -0.02760832140771969, -0.025734094901429475, -0.049115751632749616, -0.08972731374347827, -0.10064532430656445, -0.009041933093730702, 0.058931320727494636, 0.027877712383379827, 0.01048554142379544, 0.10403676691287829, -0.08744246463783784, 0.00558651840142773, -0.029931614571089452, 0.09894553698638402, 0.025531219402680615, -0.07588478847548587, -0.07593631061540672, 0.05112167095453766, -0.05530383273222, 0.06266849020683327, 0.10132683947612314, -0.07638787832274468, 0.0069877820117710205, 0.03445317960448301, 0.035282293293486304, -0.0971339153978878, -0.08697397882191786, -0.038187351989096445, 0.06974700967343747, -0.08678032088374418, -0.09942971905100598, 0.01034293032142027, 0.019441079063227864, -0.03210044843072643, -0.06784080249935215, 0.07683774393812176, 0.045163431047750405, 0.012813696765355504, -0.04703727082646966, 0.07092086709121569, 0.08596680835733109, -0.05560086388507063, 0.016954744357606848, 0.023167561388845632, 0.0961302967583282, -0.08528846893497388, 0.08404304745741772, 0.02833907186772756, 0.08906878172762085, -0.05852221638407691, -0.06055202843181426, -0.053610692597615466, 0.057426826896189415, -0.00733687012810278, 0.07314002078189139, -0.0045921082992515655, -0.040694716856796646, 0.041148530477825095, -0.02607478779925577, -0.08625248498365778, 0.07132310502680764, 0.022535075371164604, -0.09896456996142161, -0.04306038893735695, 0.04208819278758795, -0.01567279054053551, 0.0721367570719922, -0.05673607390420712, -0.07178304106569851, 0.01807621790705465, 0.0703858191935186, 0.017774288348618758, 0.01766886329546514, -0.014522219639488212, -0.027913555250420923, 0.06513549951841394, 0.03572922733401346, 0.07090823787248784, 0.027535658873754025, 0.06965560562737283, 0.08371441024014654, 0.013293878699488925, 0.01654468332223706, 0.08277428753150562, -0.07930607830045654, 0.009539811391492016, 0.03830888056638367, 0.062221704902185974, 0.07612116808624371, 0.06335935488826427, 0.07988758296297555, 0.004278551416664111, -0.1352268352571498, 0.013472253812483735, -0.06573485927992405, 0.05893882746295837, -0.021639659223650416, -0.010390714031826523, -0.006766624229345854, -0.03338579704675505, -0.00010593632511960491, 0.02146114417523198, -0.01772142469883009, 0.06415557027667844, -0.011708009435041276, -0.009703478982005747, -0.08499391239321966, 0.08511195956597091, -0.09624999776401617, 0.02643998558495133, -0.08628192404958963, -0.05925193835854459, 0.05385189653678893, 0.0583027425767369, 0.07956925032647703, 0.05180015423384536, -0.04464046759632154, -0.09582107228052818, -0.068715837535866, -0.01756722184039418, 0.08339664090355041, -0.02462749073801678, 0.0003101998876533599, -0.06356925328090637, -0.06657854652869805, -0.07348820891940548, -0.00924678809402898, 0.038115596915256476, 0.03840725350416385, -0.056035582838168216, -0.0339491084461836, 0.09633299610870309, 0.031099980018797473, 0.0867633809423595, 0.05274471991856458, 0.08763439273832785, -0.0937908562659641, 0.033360113321004886, -0.06243315523566595, 0.007473462414265053, 0.08282763472916, -2.1313191597441272e-05, 0.050039585719851676, -0.07254379140404313, -0.05980761866434654, -0.010986715226342142, 0.09927267572203688, -0.04674819590519119, -0.03288731246493549, 0.07503761351632038, -0.028810788214163857, 0.09125935745782905, 0.0020759536588498407, -0.06577827915885207, 0.08189815526380369, -0.0822207967930728, -0.03405225535459607, -0.058746380406765344, -0.09022939433679372, -0.06429465996441382, 0.04312679775004326, -0.06671754327779827, -0.0018786746875327888, -0.06653707979603693, -0.08099677173369557, -0.0021438959326263857, 0.01731095579872602], [-0.03879885343522471, -0.0612688911160362, 0.06014274638662989, -0.055313799351599614, 0.07953677313384083, 0.08362509976687965, 0.06114866756653639, -0.07488059299689805, 0.045027122540228365, 0.0314634343273561, -0.03423406476240454, -0.04506008195320932, -0.07186457681056824, -0.055857688495802055, 0.024095707162071295, -0.06343229725695983, -0.018245769541349335, -0.02898633868768062, 0.09152830686257601, 0.04642419348765689, -0.08834853949500439, 0.08587709550016634, -0.03519305281981484, 0.02686320524171551, -0.04676114638012983, -0.062190601439990646, -0.08401721849636212, -0.05585194671187477, -0.08647744256641837, -0.03946802962632093, 0.0722884371364981, 3.1351000766496884e-05, 0.045208226913287436, 0.0069074856817787226, 0.08431063495713824, -0.03376305847948542, 0.02041762639120142, -0.09305265626831956, 0.07295126949443993, 0.07008243848987736, -0.07656989623516511, 0.08577661134588052, 0.03558879455971036, 0.061851884962211445, 0.040408626216003135, -0.040870231636881166, 0.0025389145540869952, 0.03757858331541726, 0.014343891913380941, 0.014567194775302782, -0.096248034310522, -0.0740685959103109, -0.05418131117553229, 0.039872675485394055, -0.048533246190133196, 0.05927538546736549, -0.005999499520933219, -0.09264470240825551, 0.04987957258059985, 0.04871999798677808, -0.03694481884445282, 0.02347319922640937, 0.02034035582200774, -0.06173861458720331, 0.003972798846311754, -0.04312313745881466, 0.01840688531095009, 0.07403933047112032, 0.021402328576416003, -0.05688387787254203, 0.004619357543167042, -0.02924280074930783, 0.0798693740055423, -0.08521612755235648, 0.02117297744101537, 0.02167088385547331, -0.038272626389411174, 0.08451072877502214, -0.0066276854933418235, -0.044707744333580046, -0.080839769124754, -0.075773264908296, -0.04669614937152211, -0.008619717952150746, -0.01961254235780989, -0.05361525649618457, 0.021886773911523327, 0.013653672849190026, 0.05200253793007291, 0.08579467895273354, -0.0076550986749153, -0.021051878543436216, 0.007668906185852872, 0.0388351725404056, 0.030480878982769764, -0.023143881414076188, -0.037753349752132466, -0.018893817538619774, 0.061844163604367675, 0.06785367357044121, -0.017941143546816696, 0.05566691358593801, 0.0930642523052197, -0.006006617229581218, 0.04272602746699831, -0.006385465859797554, 0.029870503998295824, -0.05140848774416322, -0.03435360890212606, 0.04044311065663989, 0.021777126293846923, -0.0733283830741993, 0.09173324102569061, -0.07969330507725746, 0.051556030849582844, 0.04796986187393871, 0.007317022552777277, -0.07666847865144316, -0.0690955864962249, 0.05868221179910574, 0.005286420230387826, 0.04723878808008765, 0.08823198307754063, -0.08082641113221199, -0.045947025921909745, 0.09982609824951802, 0.07805519705144272, 0.09618072786028772, 0.07450744385562667, 0.07562041036733741, 0.0005728805487294053, -0.08051142019824069, 0.05839289824489748, 0.09873749328052994, -0.023195270161132278, -0.016039116140531155, -0.0933581200724344, 0.015620885064572812, -0.06641447950528095, -0.017120944549566853, -0.04892142256110524, 0.07615077294552461, -0.022803690836747183, 0.045681465534484794, 0.012935819467270227, 0.09480090765593581, 0.04825704561135559, -0.10242919748723969, -0.04779639280889131, 0.05401555444680869, 0.04538435887098762, 0.05626238911883422, -0.020209073540108716, -0.06118830947014006, -0.06901805787609591, -0.09102338612091584, 0.07985458283411809, -0.026843846589039284, 0.01804877296734086, 0.029461044973249084, -0.08994666995743339, -0.026567230790284134, 0.03051454477743274, 0.022749306869478493, -0.05271695269696656, -0.058893132559980424, -0.019838368679054866, -0.03160984799067866, 0.08022920372330544, 0.021627031421352257, -0.0036853612292011215, 0.014098454703541735, -0.012021394802433909, -0.03522189942377701, 0.0039727843577268915, 0.05831997390795531, 0.06481234813225917, -0.04556783964650397, 0.020601832974263736, -0.09200197635539553, 0.04232257403382012, -0.0002943100406196331, -0.028324826208661828, 0.06542783011546151, -0.06654789186419507, 0.08413823282860651, 0.09520655507138391, -0.06980879442560192, 0.03965861622330309, -0.019694653469251526, -0.002010385558068449, -0.10624200349796488, -0.015277793487127973, -0.08978998963381132, -0.06184214303004196, 0.07936479697782688, -0.01249446413878937, -0.021153669122502092, -0.08465004035758679, -0.053205360625773024, 0.0884059434272921, 0.06315164542270427, 0.053522059912526766, -0.03872194038734005, 0.06648873721742032, -0.02646492343426615, -0.08023782108153604, 0.07403727042580759, 0.05680061555709348, 0.026366963934281628, 0.002935456450020279, 0.07467516892793336, 0.036479090497357224, 0.0017858340399399836, -0.02128689751626197, 0.009278387714557404, 0.0029106947402900546, 0.04700451784430206, -0.12413037131689496, -0.10019183598985085, -0.005504973268886159, -0.017435638852172884, -0.03609572947012149, 0.07926670669232315, -0.049365775551625635, 0.09782271122233563, 0.08426719239297667, -0.052981454917148146, -0.07361424615505335, 0.03046725735948633, 0.033588728158568455, -0.005852431332964465, 0.03878377865070401, -0.02812237908689227, -0.03600641960023656, -0.03191651649175279, 0.02675726700500626, -0.038152003001151985, 0.033843897467438815, -0.028011604914822266, 0.08016022685495679, -0.11771066197935683, -0.0740390979157492, -0.017437340781191933, 0.05034897915011351, -0.004254349507821965, -0.13059264827568912, 0.021227420941308153, -0.0625913555311055, -0.02641031458479979, -0.07651803626886532, 0.007454877296102193, 0.06393052723494627, 0.07115990816928075, -0.010227233219849485, -0.025806654378683153, 0.021088556034343026, -0.06847987937107282, 0.06090804911254096, -0.021751981031074653, 0.013595387278029534, 0.03745093651425119, -0.05351521645389939, 0.04676950313163615, -0.04991813622291422, -0.00874745513678576, 0.0731777905759718, -0.09398058599166978, 0.07139831138177982, -0.07210504656654365, -0.07506651234553222, -0.03799853843558124, -0.11308940209406564, 0.036551664229160494, 0.02584704494364935, 0.00813924261334567, 0.03543201175866269, -0.03247780655490708, 0.012081104210498655, 0.013092517382170666, 0.027186066441509216, 0.05086070739244409, -0.059753466931435004, 0.0036191052619483927, -0.013553927423554914, -0.05532537083982017, 0.02151526900992007, 0.05050196168317891, 0.03895387500543071, -0.08519274675871638, -0.00040550563477388115, 0.007334073197210568, -0.01380459886409826, -0.0182866452770594, -0.06172828898457438, 0.10177884253052467, 0.04595244679250172, 0.040556153915685476, 0.031171428564961988, 0.09191047358668125, 0.028203826190305054, 0.03958722061329534, 0.03423545272672217, 0.060502504745646175, 0.07227797600728941, 0.08194751002668511, 0.07296952797227592, -0.048426833882768264, -0.04493425913148728, 0.09127966358227002, 0.0959124690512561, -0.07140802046879081, 0.0603914593961928, -0.025038797869248303, -0.04329137325341368, 0.07539547103457411, -0.08329165273496808, -0.06386419542452207, 0.0005242736579421247, 0.045460778664411075, -0.017730254063970014, -0.05951548690484641, 0.028395440649493786, -0.04804886936511167, -0.08688856080334592, -0.013806962087712859, 0.06794629461731012, 0.10369181344465352, -0.03766597197139446, 0.014188575109198652, 0.010494172012439306, -0.027437906487122538, 0.04434482658607976, -0.002678261442962864, -0.030462882406632558, 0.008064300607664027, -0.05261450006740994, 0.09740820755136975, 0.012248621431763203, -0.07842358331241317, -0.0743853524988678, 0.06662619127896013, 0.0622869736735451, -0.0953985533205776, -0.0443186753641488, 0.004833039499310983, 0.009386780520282977, -0.11469197857000338, -0.058486363531617895, -0.013707254400382354, -0.055262166535197874, -0.048555906295212774, -0.05676600792691688, -0.04362258518584462, 0.023248674833847058, 0.10927081584122879, -0.008309950611954163, 0.09719149273230208, 0.047084403313799914, -0.04436098029267886, -0.03876382314913115, -0.02351780930484501, 0.025315981022082695, 0.052571991152342665, -0.052207422233504656, 0.04206618659356913, 0.09854583415171195, 0.0922934215552775, -0.03285879486961267, -0.09729706507966464, 0.027509675157741904, 0.0416019192562619, 0.02877303579084107, -0.03343806022990351, 0.036661950096803064, 0.05617661428101912, 0.011925215993596652, -0.05303268388631687, 0.005095321435523755, 0.05259180564859617, -0.1148416768533259, 0.04617921470068576, 0.06880790719186036, 0.015158959029677545, 0.12000807522855257, 0.033650629005616786, 0.13886244485314303, 0.07864588271606973, 0.078263590604605, -0.017821222827655102, -0.0456241706741571, -0.059490759393138685, 0.03083827107758984, -0.02995260623321106, 0.09265693413899793, 0.018514937807550532, -0.017206890078117716, 0.08970862036044018, 0.04025352036962153, 0.00856104205603431, -0.07491132477383865, 0.06389756491918262, 0.06885607593538798, -0.10454992259159245, -0.0629677610688307, 0.07220006012127668, 0.043495593924693446, -0.0730274424046355, 0.04956792893169422, -0.030357075168552763, -0.010925215491156057, -0.04975224338063494, -0.02503541792383079, 0.00911038245995127, -0.05031232855874831, -0.02813948328437974, -0.055629843168013615, -0.025053654168753443, 0.011363248065105531, 0.08410757925840859, -0.0581910673060801, 0.06098176786714138, 0.04282437306325503, 0.06843036133746254, 0.015157651719525862, 0.0953201979866653, -0.05759871053907783, -0.004257347738561676, 0.04651609292197866, 0.0786104488710694, 0.01693905770364988, 0.03927420853060495, -0.039714216429690224, 0.0011288103890074004, -0.02395563712887123, 0.06235551342060632, -0.07875877516028443, 0.061219779590530016, -0.08786307853208065, -0.03880837321141367, -0.030432702911813634, 0.019704601523723848, 0.11534818902847419, 0.05036730163732344, -0.0660663840893837, -0.03669995912879439, 0.0076008392075242424, 0.07577629341012367, 0.05114918429437651, -0.02715937625476834, -0.0023897164565795815, -0.07393337866876801, -0.0898576934867944, 0.10873767309599504, 0.09282669136050123, 0.08252489317764235, 0.04221355665588182, 0.04748271042516495, -0.056186061586592825, -0.09475976560582149, -0.06705246180970621, -0.049196839292124636, 0.014606061225135953, -0.11869559463632505, 0.05088388580550265, -0.10019428987745481, 0.04744682274834315, -0.05612816836019632, 0.046566234626137536, 0.009513025884140288, -0.07275167548773588, 0.058704843217747486, -0.050764831390804545, -0.024736745916648133, 0.0002257773830292438, 0.03011266631279897, 0.02653147414171647, 0.057995149975830974, -0.07912878409499309, 0.005531537048039151, -0.06399729197502643, -0.05241850114541474, 0.10272908258740497, -0.05761068124757829, 0.07600345548776175, 0.06957006111209656, 0.07995655716932248, 0.08956133874654335, 0.0570999551264868, -0.06835105090329746, -0.08236060949638921, -0.11004411061615861, 0.000579168757500933, -0.10531838916579363, 0.04857248183831403, -0.0729942491753736, -0.025741815245019627, 0.006389229736630657, 0.09706217308669152, 0.010744072793112326, 0.08056887340872516, -0.06283917156801777, -0.043613691863343226, -0.02849930112642795, -0.0028575604783422975, 0.09478357497511378, 0.0047560631585688165, -0.09463809297605624, 0.06336565290664098, -0.09934827728221285, -0.014811049979560611, -0.05585827352624356, 0.08298299461762594, 0.08073359678691798, 0.08336361886009862, 0.09774152463967462, 0.08078653186761812, 0.06685954652941752, -0.07974972736320272, -0.1282293918824645, 0.022877375847312663, -0.03735630866385677, 0.024452651264255963, 0.06084239867557613, -0.017245890919066857, 0.043170121933061405, -0.06998196125714931, -0.040979306166214285, -0.03261116894331276, 0.07157613604832053, -0.017391400132833322, 0.05307243276577457, 0.03735770752782263, 0.011575995182554517, -0.05899791664031345, -0.011924693678481384, -0.0938650841794663, 0.08180757324351746, -0.037305481403779366, -0.04913850762899501, 0.008591074132901076, 0.013441393079396995, 0.005606901274207046, 0.011262292934377126, 0.031025932151669215, -0.0891094043455013, -0.0823152351828256, -0.0777629880923826, -0.029754743683630177, -0.024239278690385068, -0.08569421260956155, 0.041142037857309376, 0.037340241423612135, 0.031419932895452474, 0.053625420033585496, 0.044467368592994626, -0.012656025622728787, 0.04787711033622518, 0.06596927325175858, 0.024638411338017946, -0.09719360844751718, 0.057636014398517746, 0.07851309174066352, 0.10032756414456888, 0.08788777238487117, 0.02388949156600402, 0.02313401995462411, 0.05941514161608283, -0.05376636964170813, -0.042058657398159345, -0.03733159403024337, 0.005163359459588257, 0.06043889681103746, -0.039101876050327784, 0.046501613625784845, 0.02600543005401123, 0.09156219404520338, -0.04355743957420357, -0.01862526308119643, -0.05074507391862845, 0.02550394787643784, -0.016125905899291287, 0.009243129240655672, -0.07133371899780426, -0.07294690488824504, 0.040317059405497284, 0.08035588087766526, 0.036381026199561906, -0.09920697718483525, -0.0751325492515874, -0.04731972527744978, -0.039483760385665666, 0.016105390442544727, 0.04026340332027936, -0.03689499270956217, 0.016454805601606236, -0.07160502291767769, 0.008414566204661638, 0.03972127049668852, 0.009980979747749516, 0.005528556558549366, 0.10062528827688746, -0.010885964651461393, 0.1203844050454792, 0.05052333143600869, -0.06560305627553811, -0.1025615140106321, -0.0812843481003999, -0.04310399186200674, -0.09955289374833794, -0.07629607868245304, 0.09006142169548018, -0.020696602744661514, 0.049937047692500194, 0.011241966196452808, 0.0231290541228463, 0.06305889058935112, 0.049866781811466504, 0.09733015028580813, 0.040797886408567526, -0.020776242776930565, -0.07887317861579358, -0.057247332478480975, 0.0739702791822718, 0.06584824960611632, 0.006634449598136314, 0.05403859365898747, 0.005848707125981081, 0.0018594667237237274, -0.05242663525828867, -0.03912657977417786, 0.006214452922039865, -0.08696292380403299, 0.01205663970919412, 0.012424348574595163, 0.035820887729220194, -0.03421873042343049, -0.009167089323887557, 0.028427062473320747, -0.07398529246999061, -0.029566414846615333, 0.0033220773580089364, 0.0929310405001602, 0.03939648827792334, 0.07395908956796543, 0.00913212484380635, 0.07588730739280111, 0.05584274971597254, -0.03852146411254, -0.039625842639853734, -0.05183027132218697, -0.062042791988709, 0.10790541493686862, -0.061103137661233015, -0.08431406829659684, -0.12137062451996389, 0.008189648052122644, 0.011366927509084043, -0.1149437453915072, -0.1036240616451852, 0.02436588167157976, -0.08249121170373151, 0.05736202368397439, -0.07621733238338077, 0.05490794009201618, -0.04055436845662566, -0.011027204642911, 0.05052045486369892, 