{"layers": [{"weights": [[0.020902696558075376, 0.022361224797828788, 0.04424010842392764, -0.05245106282876049, 0.0500403708082143, -0.05535253438193575, -0.023732749691270455, -0.04253671867634772, -0.09178076549594155, -0.0937281550021023, -0.055034410810781954, 0.009027196652707487, 0.01614910631075968, 0.08101846862962866, 0.029653797429188118, -0.055908903092661805, -0.09453668639992266, -0.06155292982666463, 0.04403614003977893, -0.04248316405922912, -0.038997929808166854, 0.04357687715551323, -0.0879321049366359, -0.01238426928307941, 0.09323501227981512, 0.02080300398292563, 0.08119236081078379, 0.003897137616412749, -0.032636406722632724, 0.0015895104269946225, 0.07225012556290827, -0.08923798220428124, 0.02084464926055729, -0.0031000716706671115, 0.09918448251414241, -0.044773231060673935, 0.08315997974753425, -0.06945546339350837, -0.014450758176660432, 0.040353402297976924, -0.005799713695561889, -0.017418849990356637, 0.07287703024172544, 0.03201657541469744, -0.022350950225753133, -0.08087626416611425, -0.08338092694152835, 0.05528877057720414, -0.05331226285338029, 0.06709229355009498, 0.08310738566595782, 0.05765867757001156, -0.03018647734065974, 0.07281217696023878, 0.06358633255293791, -0.0007132621147217799, -0.025363304439860637, 0.010894957139483255, 0.03611961994260615, 0.00860806513169432, 0.02674219220476834, 0.0788021559977436, -0.09046702369875692, 0.08414031781270331, -0.02113033509024882, -0.02588840664844006, 0.08981486684846215, 0.017864276300867832, -0.04101017916448988, -0.07519410603353438, -0.0029003662100427928, -0.04669940055751201, -0.046329341468283776, 0.0833857923884259, 0.07179929536752953, -0.09070022148237065, 0.0571803079693256, -0.010176705727591438, -0.06615177575519454, -0.02932774344736256, 0.08346279045370023, -0.07012785409991207, 0.01267767336792229, -0.03721858223142267, -0.09998766967815749, 0.020975939559935555, 0.04065174403018478, -0.08221111021018862, -0.08419981765669395, -0.09579627091683653, 0.07698759765800622, 0.03584003703782159, -0.01719484106677712, 0.0197809161209881, -0.07303750288630612, -0.040740706892651794, -0.07661998900878814, 0.05544990874374646, 0.09884964469729157, -0.09069259318930105, 0.009956892690145143, -0.07185140422183868, -0.039751707714021825, -0.04483563216676072, -0.004062136384439619, -0.03277199533067274, -0.038287122124204674, 0.03037433233151346, -0.03845447425093828, -0.09014916333389628, 0.0885980711734754, 0.07768172587739494, 0.090639288078977, -0.07571393229315036, -0.013658856313421855, -0.003070634090527834, 0.0166193413604633, -0.0630265958175023, 0.03345202444233568, -0.043791320273286874, -0.031132669110922745, 0.010723128773828559, -0.06300840080623196, 0.018966158615483245, -0.02758440512401993, 0.0007559442114313256, 0.022081883703571496, -0.036017687430881774, -0.02992933290658316, 0.09737726200581388, 0.10001506726780021, -0.06420586405012971, -0.05570707232835303, -0.07717731523869338, -0.03504421718048752, 0.015314353490774408, -0.01861445386803319, 0.020418247557039, 0.029545014488404388, -0.010074091086822085, 0.06126036076384825, 0.05816660983561714, 0.006967345970539291, 0.040206664507793734, -0.02732719737452202, 0.08140343898413721, 0.021204153628237247, 0.01816294712965383, 0.003039484794785645, 0.07451128371594774, 0.0895628120722763, -0.009688519072328776, -0.005680525982949481, 0.08208830379061596, -0.012109221106883686, -0.06056401377865098, 0.07663301331820895, 0.04781941302821437, 0.010116341361728199, 0.12077921036803081, 0.06891937908343342, 0.05394535994286281, -0.07147422079319521, -0.05030240491422559, 0.05825860579092568, 0.03990979626743026, -0.016415932778720946, -0.09370214603813659, -0.015009550435853794, -0.059658983057786955, 0.0470512963317447, 0.029899266746171396, -0.04216003618229524, -0.038956776199427855, -0.020005201657330107, 0.037982570758912024, -0.026451270347144222, -0.0007571887713974287, 0.01743962306088514, 0.11082522400025557, -0.04597618294048421, 0.0877803931181556, 0.12059832551265294, 0.06415463519734177, 0.07718816066475741, -0.025498461483287715, 0.06281908507619598, 0.08871558828350119, 0.0590248640365747, -0.027027929150530584, -0.005795386856672043, -0.010761618942209316, -0.017081530059367182, 0.04577956265392834, -0.04464504678537931, -0.08280889048388554, -0.07258760872588466, 0.0882430512554414, 0.05975119247036912, -0.05361199872234485, -0.013457512485472193, -0.09343868279614304, -0.036685791071609505, 0.014527962721583071, 0.013315140500755924, -0.0010522853819791961, 0.04149732775015411, 0.07157394566041406, 0.04238112289988853, 0.022647364096725898, 0.04017529596190775, 0.05565747978622721, 0.08227008668920259, 0.037197210386497766, 0.005342041824128801, -0.04008342880663312, 0.012103286138188512, -0.057199637903262594, -0.08732136085181415, 0.02190941233826257, -0.08307808808760235, 0.07590624599501324, -0.06825207549899746, -0.05213989697822312, 0.09627879098485362, 0.005812807623203471, -0.08878102633479443, 0.046458403977774364, 0.056837055868071064, -0.024744808558344746, -0.07403393859627566, 0.0425098274353422, -0.06695185264133109, 0.07938579347518662, 0.04476109245503991, 0.10744398191058688, -0.0210614284447887, -0.08142042268158359, -0.03064612557506622, -0.04064016947556664, -0.03465534416540522, -0.02909817778690625, -0.0912648542631164, -0.03286707265941762, -0.07177303581756363, -0.050792735657941526, -0.049747671222006004, -0.1037151070188867, -0.022573042631763768, 0.004225650367497106, -0.01286493685122223, -0.068300560352941, 0.09362307553799984, 0.09661834813454569, 0.01787571400582685, 0.014554459022128903, -0.056776068114031894, -0.09107182419376648, 0.0034784053450718677, 0.012251436820841307, 0.00636127746010947, -0.03645155212945218, -0.045667563937859625, 0.057712069716918384, 0.1047269194078211, -0.08019346098132346, -0.10893704493973291, -0.16837032217565578, -0.05285472246088367, -0.059305393761776154, -0.07777560298443918, -0.028672012975724036, -0.04759064475117974, 0.015437642970419678, 0.029678840842053, -0.027439821559942935, -0.0064184494516964855, 0.042037335789890315, -0.0342805774703029, -0.0636537669577377, 0.0581567859399624, -0.05873016466949715, 0.009002483456302042, -0.09344185704283813, -0.0004495517900359004, -0.03917587543658088, 0.07819723682173038, -0.00808482454174778, 0.05343216829858059, 0.08495017068229904, 0.04341377739425365, 0.04569469264960456, -0.025651324397902835, -0.04699567869833596, -0.041178884266913116, -0.01699978177327062, -0.015045648400517581, -0.04262732879546447, -0.10287541894704269, -0.06341098935392743, -0.08541866536392782, -0.04846724897583289, -0.09509670077388387, -0.12092787483810968, -0.07800086329512616, -0.04004214352616859, 0.045584078270113626, 0.07568283726468515, 0.08310555957865917, -0.06130576751134975, -0.043179579495959984, -0.09564949300923686, 0.035441059892026824, -0.05315629692631844, -0.05464076911083238, -0.0036672297668995674, -0.07907426462406111, -0.046919913536693066, -0.009177073046087763, -0.04012602791785927, -0.034138944761972, -0.08074205096933841, -0.01749538965316789, -0.03095894951358485, 0.018295357713274025, 0.05272193762202197, -0.04261197185018759, 0.08830060307531445, -0.034771590789918136, 0.05290921761382981, 0.08064578520167201, 0.006969879078479651, -0.00200465454773735, -0.048717529292080335, 0.07508243372051655, 0.08848413363489889, 0.09844594178810245, -0.007750973917776089, 0.06462029663240546, 0.05585569193204754, 0.027921989145518158, 0.047686261877547834, -0.001573022881175902, 0.03270913867896006, -0.023064535160865048, 0.05263666102867748, -0.0026273591981854105, 0.050430006460817266, -0.0337932979905442, 0.012089066742908453, -0.12410516540252764, -0.09436839411662261, 0.027178953944370653, 0.015455183609434072, 0.030804640239160245, -0.05767208513007883, -0.04731033528284255, 0.09859806619271279, 0.021789073284942086, -0.06364524015494942, -0.04016644802315172, 0.04126132046479735, 0.021760507653925218, 0.011585948749702063, 0.03201569414143446, -0.014376652016860083, -0.04254962030779248, 0.019193578400500254, 0.0077745555062391745, -0.012950820930479851, -0.05526468786979761, 0.05341493345283008, 0.0557623567217328, -0.04578234278644216, 0.0387694219454662, -0.06178110749318696, -0.06490492400853667, -0.09087629723213062, -0.06356962173473038, -0.0333415169079505, -0.06913236758848654, 0.037539503862623086, -0.02135435910367572, 0.08722328276008656, 0.023844177791870976, 0.1017356784116713, -0.047284245493360674, 0.08922750403157373, -0.01137140953793914, 0.07848138553930573, -0.048097243081259115, 0.04088651407615592, 0.09290553746621101, -0.03220462329456278, 0.03356678622716759, -0.06794804347967216, 0.10462663583854356, -0.055885668804600476, 0.07341529284842897, 0.04144879157190908, -3.659520366065238e-05, -0.038105431735367956, 0.016567300434394968, -0.0293969474344916, -0.10714633039869953, -0.10708440369566252, 0.035148768506149855, -0.07026984069672217, -0.08283335982119865, -0.008015696905101071, -0.0595465877591616, -0.07883644995860646, -0.05672172049606902, -0.056275534094322024, -0.03470901346520207, -0.05118131895515058, 0.03666204181715218, -0.013165840381074101, 0.03609118367628553, 0.04685403911520187, 0.0017817933487166396, -0.07287836684424613, 0.05607186326267111, 0.01865072876234383, -0.052860867846203245, 0.07152831814311088, 0.05257378363843709, 0.06678188355418067, -0.027059320185487058, -0.04937574029077506, 0.028361919556601087, 0.049923774069031604, -0.10044877750980233, 0.058673095441243675, -0.009873621159505717, -0.09171816762163916, -0.09466048931409383, -0.07615414206632411, -0.02803298434943143, 0.08058307236378912, 0.06051986753268631, -0.006162340908153093, -0.025174664738351893, 0.0016770994536649175, 0.04774415147718918, 0.07094082480217347, -0.004757738067121342, 0.053323689569516095, 0.09104362521469037, -0.08130008787962344, -0.09807878675177213, 0.0548386524776543, -0.023617580663115353, -0.01453073527156094, 0.043972514738218345, -0.07536421738089509, -0.016984209215444336, 0.031103766680916117, -0.07653440861260684, -0.004261694761700144, -0.008239383316093184, -0.08598599030931185, -0.017585746601774303, -0.07072782667243835, -0.11017779189894196, 0.019993543088594343, -0.04482849782910852, 0.038073162041169055, -0.040416804999418764, -0.07342629210217412, 0.05436838592961523, 0.07836347415109447, 0.041946790907185345, -0.08899653021077059, -0.07952258022431133, -0.01330019198011397, -0.06597320770741655, 0.0504680061344484, 0.09363693680697717, -0.07163289632686527, 0.09700931891157391, -0.039225236117687676, -0.09471453465773427, -0.016691161456252435, -0.07666586692499586, -0.04839656102874711, 0.03693997394857113, 0.06353310817160875, 0.02101428957433317, -0.08047516517250781, 0.030959837652746604, -0.06546273527740813, -0.09329594613743877, -0.014633258998263244, -0.02296980793954707, 0.02704610008306663, 0.017153010352114688, -0.03842293929432096, 0.03697744857819202, 0.04794733993836312, 0.004717553569310392, -0.040311390100245925, 0.04331400336467555, 0.024019158959342965, -0.09170805159691067, -0.08318762459526985, -0.08832893880758227, 0.09032266696524303, -0.0499247971789505, -0.002546713443273554, -0.02641133477960767, 0.020435091179245572, 0.06893988723574379, 0.051671054446059295, 0.019083945937564406, 0.009907967278411482, -0.06293369321432864, 0.02594594705693279, 0.0025443298859049663, -0.10224018054919687, -0.08452702512684201, 0.04065932938036988, 0.055833458748771006, -0.10317119461033283, -0.007323029208196162, 0.04944122642296676, 0.020716119717334686, -0.036949414330413294, 0.06265903057369253, -0.07898804756562638, 0.03755483551191115, -0.08219802104814451, 0.04920246346972759, -0.06113143476094282, 0.013634154468459884, 0.0020036410263132077, -0.030236927994341727, -0.023270158923529495, -0.12317370988401272, -0.07423969930261551, -0.10582191965740863, 0.040450657321643366, -0.06394432106935555, -0.046914224143172645, 0.0848564972149025, -0.10301976412733573, 0.016548384399818407, -0.09201140665095288, 0.024318066981119123, 0.05745931387651766, 0.025851522537323774, 0.07895267224581733, -0.033658406482273404, -0.06612384455654932, 0.04563093534419122, -0.018829975159732986, 0.021731881948136786, -0.08066439678236775, -0.07010003813132895, 0.006881676629945943, 0.08188149061175284, 0.06749359287553253, 0.030457997387231137, -0.017461048824635405, -0.08718135671369612, -0.07319740093380758, -0.03680079328110826, 0.01893274425251606, -0.08380193228784821, 0.0060289993283525155, 0.07422778445648567, -0.049430320972000355, 0.00571844379387536, -0.11754843677909269, -0.060170219145348015, -0.011521480523980682, 0.08628368842044566, -0.03524552499646521, -0.08668649569508688, 0.09267546027734704, 0.018150400645376975, 0.02486212835500565, 0.10805422502738933, -0.04118335622985731, 0.035975769417985616, -0.02489045093065452, -0.01878399948501899, -0.07321827406175863, 0.013349805127232233, 0.0947810306548866, -0.08669107847187216, -0.10088040581458468, 0.04678123577891935, 0.04662425145693394, -0.05882887531167746, -0.09462891016734461, -0.024104480424554136, -0.08911549928848142, -0.005992299664656484, 0.020155046736351108, 0.09407694051611967, -0.051695884992491246, 0.004112436540793831, 0.010976138082582689, 0.046739938336177816, 0.07878547984273296, -0.02015188247031247, 0.032828953159658274, -0.024949583630876963, -0.010015489894416321, -0.03674565908842324, 0.10653854138000798, -0.08219613368120335, 0.07336298294571561, -0.08098351082247741, 0.05697368222851925, 0.09003470925338256, 0.06622913985670217, 0.00683254851235763, 0.04943638211855108, 0.002374639200806721, -0.08760292728949134, -0.0056796681656160735, -0.07713924849513704, 0.042919773170446346, -0.039447961230871076, 0.10042945231193487, 0.0019247876203497465, 0.09673489082922504, 0.06825523285029167, 0.03774770085665798, 0.004025169105875015, 0.06439772126548657, 0.10032310860158157, -0.012955765989043792, 0.03651576319831662, 0.10820672944848274, 0.053240338200124936, 0.019786101498725284, 0.06357637359787116, 0.020261320977328193, 0.007744408692231404, -0.07677364351799365, -0.045772294699221755, 0.025647472329564797, -0.02394901514023326, 0.0909308271497727, 0.08171558423133407, 0.07144824909184996, 0.034784281902825565, -0.07262628038493785, 0.06444444230878638, -0.032810464969330974, 0.02967372843064697, 0.07792142312296427, -0.031628759509091005, 0.09057208958866524, 0.056545007411402615, -0.0020330705157894724, 0.07292023012822448, 0.014116466981403251, 0.020584517305799414, 0.07821173338173878, 0.035756224998977654, -0.0516127204992753, 0.01783025958549964, 0.058357027078019125, -0.0554184701264064, 0.052699736505589484, -0.031076910036826128, -0.06422556743904993, 0.07582844775879027, 0.029052471673190083, -0.0033600216134844763, 0.06976672207163807, 0.07348998356927018, 0.06811312643801852, 0.0024282328588414804, -0.08675252666354409, 0.08085165652249052, -0.08454321491739744, 0.05320341281372107, 0.02299069526618909, 0.01243169892711094, -0.0627689706998077, -0.04558486405480781, 0.06895990084006648, -0.007884599769432251, -1.638790318653692e-05, 2.5656227008008453e-05, 0.006914426178613268, 0.08938393515526988, -0.029097403541546538, 0.01665369760217864, 0.04317451529462167, 0.008634064277637177, 0.019192725846749293, 0.0056487037332214425, -0.0687041361217645, 0.045309940414167194, 0.0032636593195654734, 0.023113864117039043, -0.010606126177029922, 0.03961693274076668, -0.05850137139840209, -0.028711673132057348, -0.018790988043132, 0.05263524528187567, -0.03937679635258249, 0.06499733149783216, 0.017529074724451813, -0.02717012606189311, -0.04122910356901633, 0.04359463283185054, -0.05650177237962152, 0.06972663542072957, 0.09040425494482589, -0.08719890417863921, -0.027897176288233332, -0.042032813236095215, 0.04175385411312343, 0.0851852505419229, 0.015067053966425882, -0.029798677586008685, 0.043007065048716875, 0.06390002474577235, -0.014248924525685543, 0.0005686819926065956, -0.021276443932967792, 0.06731582227116437, 0.058207698913280925, -0.026875189831469526, 0.004460103029457068, -0.09813735651482237, 0.06646975652774526, -0.0008029253043996674, -0.03561057141059081, -0.02442773332707829, 0.02692552329787329, 0.08528992845323154, -0.03423237527955632, 0.010291746875446964, -0.013192454440161573, -0.10324695867441318, 0.07790355636668256, -0.08586577623830315, 0.04229884100088906, -0.032684421305102705, -0.05662202373956371, 0.08207082851089913, 0.031027471633881056, -0.019657002064425402, -0.08154144332200004, -0.08255257983608429, 0.03340951824632998, -0.06794016528985555, 0.011556498182883582, -0.06253813010638595, 0.06730989253503736, -0.0027864831915152682, -0.01583019672367511, -0.05367256926185358, 0.054471143141585104, -0.0519187592591863, -0.09542473663725858, -0.08366629099892378, 0.050900817290020994, -0.08115884482590822, 0.016625262864734567, 0.020925980132613032, 0.07911072612082204, -0.03658215270558667, -0.0504389055280779, 0.08816555040565648, 0.06149110439704506, -0.004967940157397504, -0.07000729050322439, 0.08112640705816104, 0.020807224267383045, 0.005460519081411145, -0.03163128163629281, -0.08667148151534834, -0.0017091107505615988, 0.024537137516026902], [0.008905255758790004, 0.0197524789405297, 0.041236948293502856, -0.01182536251847402, 0.01073075224572953, -0.034035564075046154, 0.007547848437091817, -0.047625674291165265, 0.05129791739139897, 0.05665666111266554, 0.02842535044135086, 0.08897194219866839, 0.023815538611281394, -0.07798429386793182, 0.00875475231318398, -0.050823069237964646, -0.06330927570798148, 0.05129617773801559, -0.05930636824755667, -0.007065689838706882, 0.08562963960971409, -0.0132780295204947, 0.01050927294160009, -0.06846314658104054, -0.06404711885817711, 0.02460556471135386, -0.047915538371956126, -0.06179760493500559, 0.09506470299327091, 0.035967833404755456, -0.023282634182423087, -0.009340988880379889, 0.00822296989403222, 0.053850975171245666, 0.06995603927653717, -0.04963899260912345, -0.09010243229046587, -0.0980562045150338, 0.07685577516845402, -0.06345829889162874, -0.09796626686946171, 0.06341630345846974, -0.014914389672635416, -0.07358567813203554, -0.024962990214546843, 0.05433474337221473, 0.06820237791800751, -0.05957644180524035, 0.027643047080811344, 0.054067914598005175, 0.09311803872831263, -0.01485562986067901, 0.02374508488630847, -0.0002018107040117345, -0.03957354060748051, -0.08139333845486402, -0.09587289867211019, 0.004827992985592472, 0.06036077245488344, -0.011273013504889226, -0.093460914834078, -0.09976479588678155, -0.0985310322568624, 0.06201071172836427, -0.08766220876652514, 0.012013308983082406, 0.07634680780873745, -0.06238898102321055, -0.032326945765443406, -0.10120814310954374, 0.038418896923099556, 0.07723849424825466, 0.052751902508978606, -0.0550985051427197, -0.07536138095192037, -0.012939531616177145, 0.04432498152985599, 0.0605051044618637, 0.03691991261918207, -0.07686561563429159, 0.01401994232010871, 0.08419057206291795, -0.0073243466231709825, -0.05541720525935541, -0.09379203007642718, 0.02062197716887451, -0.07403072174729382, 0.09309330485759419, 0.06688300643600761, 0.061898393999543874, -0.014904632415796714, 0.04304228601432279, -0.09103083690012646, -0.062515763519048, -0.059820523183422535, 0.06275476331560105, -0.07089596952127078, -0.09725247290291741, -0.0493810475875988, 0.06721767288756501, -0.06731796142866758, -0.11228084588224557, -0.09878331049323433, -0.03137033635338425, 0.0060115554849963495, -0.07192761916497498, 0.041975603644683446, -0.07368096404637596, 0.07127725949679485, 0.08287669003105187, 0.03989580665582487, 0.04437141793915106, -0.03470580856431704, -0.09145253990791624, -0.009497516108233482, -0.0717930125958972, 0.07651859637466968, 0.061806554826420335, 0.037383210324688325, -0.07114494000961044, 0.021448056298212014, -0.05607197398252991, 0.050159211303960706, 0.07516226078898235, -0.10912664020235877, -0.08449736573919191, -0.09132131218145186, -0.029018085948456413, -0.04897307446686074, 0.05191293908205402, -0.12131884005066153, 0.05733194610225107, 0.01005890342991328, 0.06441618725293805, -0.03786559177202227, 0.04135210749839592, -0.03149648601170742, 0.0402456313346392, -0.06489334344927417, -0.05073032265031479, -0.09713794638271288, -0.09070128831677532, -0.07536556096783699, 0.08784258685857907, -0.07899687218045025, 0.04120582299866434, -0.08470687061478537, -0.09433316456472281, -0.05283287467248757, 0.06471247369593199, -0.10995285597456697, 0.03197936079721746, 0.042054934509687544, -0.11289214254715348, 0.03161594669323134, -0.006253908801547178, -0.04716642977316609, 0.07917157687526309, 0.02512569619720791, 0.0356946722656675, -0.01967269430100577, -0.004091790470978956, 0.059586037806741717, 0.001976595209627109, -0.030480904424538432, -0.08852179199664302, -0.08136692315751586, 0.009752448193612394, -0.05801952041453382, -0.02927305877856505, -0.0822100065937515, -0.018484894952161504, -0.037778588748757176, 0.05456773466059232, -0.04272037495231589, -0.014555913926028702, -0.07689203542037369, 0.04652338412410319, -0.0031618641428717426, 0.007883573077578422, -0.17189119399178507, -0.11874976282608248, -0.17077826557265266, 0.019546375295485273, 0.023067937679980836, -0.03980560806461097, 0.05026195104422878, -0.010076358585235685, 0.00405592322249321, 0.044295956530434284, -0.03958034506360858, -0.09732746943567326, 0.055895413881017354, -0.004924062905105175, -0.010083136483121756, -0.029418654657672953, -0.07873404914623922, -0.06566565133870811, -0.07424870232767546, 0.03644838119771517, -0.00750039968589038, 0.07290065960413283, 0.07492792023330719, 0.07633711208087998, 0.02748000553330394, -0.0003614605560006059, -0.11040583902323253, -0.10944708407849463, -0.048737123491155235, -0.09921759911615734, -0.15831319786936235, 0.07086681425373825, 0.03704410471573863, 0.050879727142797405, 0.06900144524885025, 0.08182467043859223, -0.0817235058878477, 0.009642018953939097, -0.09930146408318016, -0.09456150316136938, 0.03861006165525086, 0.08752377527252873, 0.056174128948882816, -0.06189486697332418, -0.07832760050413547, -0.0951022869278038, -0.02999086661176085, 0.07228522378272272, 0.06647676756134865, 0.06715482389625589, -0.04530726701747971, 0.02321632225914391, -0.05380610832873492, -0.030111428548826088, -0.01406385379065296, -0.11244024622566942, -0.17666435163620264, -0.021345298225464344, -0.060766125527644294, 0.05714039189933108, -0.023337482860017085, -0.031935854855047505, 0.06563476854682418, -0.016057537351761818, -0.10809501681272211, -0.11591090461142818, 0.033531083510774225, 0.07122692537420758, -0.046348965475599656, -0.09864099185128344, -0.0742587488308506, 0.059905984424270003, -0.054264914260021016, 0.05368552551827935, -0.079898267029219, 0.001749801726078839, 0.014958548508786368, 0.047089454837235326, 0.06840821297359938, 0.040073214946415435, -0.03867117952313948, -0.02725352537771669, -0.07885575471817059, -0.053574353774698324, -0.058228725387081785, -0.06664001613681664, -0.08836998755254216, 0.001690489382849206, 0.020659525739805742, 0.015456038522252224, -0.038163086285896514, 0.013273012544222824, -0.07579239044922256, 0.000408190838877395, -0.023050632794604946, -0.025632382217049433, 0.08584276339571734, -0.07416181797533339, 0.06943253136910975, 0.0961847569689334, 0.07184941820730843, 0.09351301729134723, 0.024965417820983875, 0.036556326313862034, 0.04000172049728555, 0.08052893111683178, -0.0037434440990674737, 0.07168821131369008, 0.07091384372757556, 0.09670687735203831, 0.0502462644021858, -0.09959971918246753, 0.08489393489124374, -0.020654647514078, 0.006660966073917376, 0.07739245315317476, -0.041657309128402195, 0.0824440791358131, 0.047130127323988476, -0.045458181657958695, -0.02290092882136208, 0.0014888201052507535, -0.0196850907394399, 0.04676899401485357, -0.03606539800217986, -0.06019066529464249, 0.005882193627893721, 0.0845205456969244, 0.05826927351276476, -0.016029597319450552, -0.05416951309147747, -0.005911028224479326, 0.060630248297354465, -0.09047468079485797, -0.0073048892685042485, 0.07467573614187789, 0.011467996513579715, 0.09468337026175111, 0.060022134892430724, -0.023525592811908875, -0.04884110703260591, -0.09346044315563541, 0.06460370453320914, -0.01625151957687722, -0.019146807367106153, 0.05241353419704651, -0.07517044699440212, -0.02521648996028819, 0.03526501466890265, -0.09142696562204704, 0.01747002533005347, -0.09306741805947111, -0.07293757092095397, -0.033965536700926384, -0.0271937561483311, -0.0924356786460341, -0.072347815006445, -0.058235177427595985, 0.017066474563215417, 0.04426662022207537, -0.02844666456810719, 0.0853852467450841, -0.02757471073160165, -0.050358461337707404, 0.03581513561146923, 0.007467588670950307, 0.07610415086227328, 0.03411263395417125, -0.05846063812381034, 0.05022610824192302, -0.013343033243211726, -0.054645669007073676, 0.0442449658269084, 0.0787447030479642, -0.03632395252888477, 0.0029497356598505056, 0.03597920430984491, 0.005195386654536807, -0.0653579023456145, 0.0032899512629895647, -0.08019454841967581, -0.08867503948051053, 0.039787345365396735, 0.09535654459230548, 0.0002955704900059475, 0.03661856023640791, -0.042077171216676534, -0.006705193779868236, 0.04042957985474734, 0.03802691019232495, -0.03092292501312759, -0.009345511601062817, 0.0974175690200545, 0.08996725853479749, 0.08350942958284206, 0.09426587492612194, -0.044933505423299054, -0.08666362028508874, -0.09187195986977735, 0.06873293887877031, 0.0641529271835907, 0.0722637108302119, -0.04881327532779534, -0.02796074435021732, -0.04168575067480876, -0.04664230558777333, 0.08611035227896371, -0.059393807488345454, 0.019226125748852654, 0.05822156683421978, 0.0638500918814137, -0.06754670689518048, 0.07145169480163377, 0.003935104284783353, 0.041400757742307705, 0.08127197473196741, -0.06785293521540842, 0.027950627255178075, 0.11898510236970787, -0.003206143200711089, 0.05264087660518805, -0.05474249752197189, 0.04601322651516273, -0.108354274443597, 0.005878666148101064, -0.018384383650208617, -0.007158809769345024, -0.049833622273983504, -0.027193045358056687, 0.03490456317945346, -0.062257474035242864, 0.0874985193649213, -0.07431718008586335, 0.011509158251702662, -0.013225084589910516, -0.09642703018814976, 0.04731537078623381, -0.09991791163381081, 0.05129996375494076, -0.07195056680644218, -0.036119419463642444, -0.02245369004657332, 0.09137103031526457, -0.07046315002008154, 0.10762425323420106, -0.01584764912113405, 0.04509743730193638, -0.02365352492810455, 0.10582139019628443, 0.04477047680659106, 0.03557230725114076, -0.03396060752102992, 0.025894511145069337, -0.09333567359836625, -0.029365735419741607, -0.04505819144221609, 0.024252336058610897, 0.05508954028325075, -0.07759159220171813, 0.05277690242342047, 0.05215232134466374, -0.04879003603582496, -0.04460871510771901, 0.07195547801704104, -0.10584601658989891, -0.06583125133374365, -0.08052215664859906, 0.02634582462520616, 0.05469730149862098, 0.0002777466737607509, 0.062037903068776996, 0.024866423542974973, -0.07620368183757963, 0.07558994180029412, 0.06646924404925476, 0.0475235366660135, -0.020606179749461547, -0.059623122510596226, 0.05675130394401504, 0.003570703338781732, 0.00425626547947485, -0.09081438426712736, 0.009389897743140644, 0.08625094189556148, 0.07338081960721413, -0.01684147477451635, -0.015436165027439318, -0.031076840151872905, 0.09334627821813848, 0.03427916423867675, 0.06027462722479574, 0.03149123582563527, 0.024749761858546614, -0.0522859911988499, -0.09642855847782468, -0.0654187424419959, 0.08257839595076144, 0.08543734087198249, -0.04241482412663202, 0.04721036787995472, -0.030260201125780116, -0.06570872321950104, 0.034776088136175456, 0.07226414699808992, 0.0287163161155238, 0.06753211966710522, -0.05145056297743991, -0.08533410897210165, 0.022117690788968015, -0.05868663074453734, 0.0007007661004121773, 0.07121947503919857, 0.11472105230887708, 0.04860263966096245, 0.09070882190347572, 0.05762360776821212, -0.0158346222790206, 0.01422389084491408, 0.07667707380061271, -0.01841473067489029, 0.01990502756867958, 0.08942400914459023, 0.052247877282133745, 0.025854256693235197, -0.051104650585239685, -0.041855519018763526, 0.04527266440269442, -0.09419897040853617, 0.08034713863351846, 0.051273172384710276, 0.016851666884644175, -0.001783824067908495, -0.03273956011830804, -0.013348387181749577, -0.03390963333315791, -0.0025351542556530673, -0.06653207247684002, -0.010651079362558095, -0.049778347493526526, -0.0410621746456191, 0.09718838489693064, 0.04157980273321848, 0.05348449891574584, 0.03198731272413276, -0.0030065806446434857, -0.09619090596577855, -0.02259215815843574, -0.04009043142116383, 0.006678883807691127, 0.02942541691525145, -0.019652825959558206, -0.03312780068171932, -0.030438791291432052, 0.006381437609109808, 0.051196060462588074, 0.059798030862955445, 0.06751802190976058, -0.07645500686169628, 0.009942122449994224, -0.011597737755865116, 0.046069441192744046, -0.07302994781200599, -0.019880330522338004, -0.09101252505805266, -0.11498033899583757, 0.013753153890402893, -0.0410916470318456, -0.0481195856381669, -0.02832153416974991, 0.016461065378164438, 0.030296091662322874, -0.09977182327099285, 0.015375417110426207, 0.007966054515417879, -0.028384718107338794, 0.06080707866810817, -0.10007826970942635, -0.0803161165247436, 0.089037639209222, 0.07340682643507035, 0.09392626427438094, 0.07071747852715124, -0.06072654187682565, 0.08383001718053405, -0.026973727272302295, -0.020103805616147, 0.010839046866178207, -0.06397155007166315, 0.03186341972295669, -0.14664211684620757, -0.025545900240279185, -0.0634413536693238, 0.014876043497442561, -0.03285537738211775, -0.0694488194286422, 0.07774074029909966, -0.04283906720523319, 0.04002313763521053, -0.046860187562851374, -0.07018153647627823, -0.025891560985448824, 0.08192713825889505, 0.024675306012304117, 0.03544550963995816, -0.07020685848133996, -0.07990598168140892, -0.03372162457405888, -0.05219686193903066, -0.0933116888127809, 0.014213128591062127, -0.08916113090814255, -0.09957815272865932, -0.055848837629097224, -0.011214931103906183, -0.014844621403457882, 0.025063976383845245, -0.017707812933953522, -0.01137362728007106, 0.0020281196513244133, 0.02971191406108833, -0.012692792690292911, -0.03703005531574257, -0.07247309317434629, -0.0025074882984311027, 0.006050017339829332, 0.006484003499250291, 0.07746653230748052, 0.05901567452853775, 0.015356963088303385, 0.0949142509145274, -0.02032711447591147, -0.10358968394723544, -0.041455822892033485, -0.022252422164232635, 0.06284944194442472, 0.07235769369248296, -0.08479496763784514, -0.01798494523829837, 0.02693495221857732, -0.023687670154313355, 0.060119679585225315, -0.0523378481295355, -0.07605691010220207, -0.05661175781549914, 0.041516702563769145, -0.013777430754410323, -0.0422440092302928, -0.08250328770127015, -0.10789792538054196, -0.09829345750649765, -0.015164425561922006, -0.027769353497318235, 0.08371654193139265, 0.052211474896540724, 0.06601727992299293, 0.04439474823187691, 0.002034951046532643, 0.022337802035305273, -0.007936025936535366, 0.007942639338971467, 0.06017907581233869, 0.010642474969973455, 0.08619936460377976, -0.08074221776173492, -0.051395238183376726, 0.0820065659046326, 0.031071979923990828, -0.01967697851309911, -0.05538854014658779, -0.03341558482777644, -0.04894340063121501, -0.07714664484202192, -0.019967350165666812, -0.09091316932584782, -0.036358686171505596, 0.020436366846602064, -0.0880349316609711, 0.08146195127383028, 0.00400174536152888, -0.014175112340185175, -0.05470046981246434, 0.05396802301733713, 0.07068591460153445, 0.046226567075181677, 0.03533468681897071, -0.001864352242501981, 0.07247272962166271, 0.016579050103288293, 0.05970076906585095, -0.041148646795145766, 0.09412486575972115, 0.04027098598555101, -0.010655392797634874, -0.022808184804420706, 0.0034624173469290642, 0.07411975931336379, -0.015019997269674618, -0.025732730167340682, 0.07279593493479837, 0.037343719084493264, -0.08653852909399921, -0.017472735371780762, -0.053098909704317535, -0.05833381926049806, -0.08271018280732015, 0.036990793276522896, 0.03175686248143678, -0.048399012422120816, -0.07137507405324271, 0.007858658558100732, -0.07301766191715557, 0.07558599315925048, 0.056757026311898544, -0.07118330538114762, 0.08786248635876961, -0.07474911078471279, -0.0036723326663554655, 0.06074249771962873, 0.018229330773734155, -0.07620165434059754, 0.08794777058586589, 0.07005682474193589, -0.0094484273230456, -0.0706997748655684, -0.077069392951445, 0.07539527079415127, -0.003831828656739074, -0.039963351596247886, 0.05699901949096363, 0.0047186388249533745, 0.05337515221486675, 0.09467975430478263, -0.10002285884894475, -0.05597907738151328, -0.010214783635018812, 0.059265378863054226, 0.01581207137078816, -0.07138437033116529, -0.08623032387892315, 0.005422296906465974, -0.037737050892953136, -0.04729576923394522, -0.06769402477609995, -0.05552434499143086, 0.013339786775430634, -0.011737328963451322, 0.08738571870850947, -0.0013720076340679038, -0.05091367952626916, -0.06376040877054481, 0.015306590678367343, 0.08996380119840938, 0.03964599055492048, 0.03511485640804217, -0.09156682946225991, 0.01605118173231399, 0.0627311179420438, -0.018832049557334384, 0.09037135398314744, 0.03892456381446771, -0.030972955689961893, 0.0419183167684871, -0.06802225260467214, -0.12784283380860934, -0.03529191700102481, -0.07437707990175813, -0.05379842939200735, 0.06747485880402009, -0.006517570852533943, -0.07993744186894579, -0.08362107434683642, -0.024616780813579063, -0.09548020131339031, -0.013251624040698268, -0.06514771524059837, 0.0699857181816774, -0.02288380124531786, 0.09811356911876232, -0.0911268228258376, -0.02878433342004165, -0.01264734770439492, -0.08563381144756083, 0.06525992571661117, -0.010886080716233143, -0.04228594137350472, -0.02763672436131319, 0.02779914492262108, 0.07425415032421147, 0.0970903238252375, -0.06169192482808178, -0.030747245562438075, -0.0034460200022918795, 0.08508539192009038, 0.013475016051035077, -0.01807638618701964, 0.009156874687525133, 0.04645723016359155, 0.08856227175711488, -0.05919550374663685, 0.04160890327869371, 0.07169801983589277, -0.03731173517110127, 0.07147355674197367, -0.04829520361477107], [0.0015652526651659393, -0.07180872828652121, 0.05461907370075489, -0.01849543208071351, 0.04404361077818528, 0.017505484535987034, -0.08611127623182256, -0.02530607833892383, 0.0712575191082595, 0.03777279729326588, -0.011678241940824965, 0.04673169891502735, 0.08374890459341258, 0.007000868094344491, 2.9559414373662783e-05, -0.009567923176576789, 0.0376279077320994, -0.07053001976682896, 0.03352137659624663, -0.032341196023699045, 0.04647351244644224, 0.06797895101107343, 0.0984113475209587, -0.007472234170428124, 0.002705969289758678, 0.0673385798362722, 0.07344834546118448, 0.038784224723245386, -0.011461033947448823, -0.0122131839764648, 0.067892151814684, -0.021203330659078604, 0.03601737007917993, -0.05547318378403977, 0.0860577756270694, -0.09484208578302074, -0.045269516800588674, -0.01632793475414719, 0.08741352826374615, 0.056216976455878004, 0.08028874952971526, 0.06947449246639216, -0.054351730927168995, -0.013455924378649214, 0.06939161388407053, -0.0436438063563993, -0.07563019899652185, 0.09644496052294474, 0.06726559646955922, -0.059369477386822064, 0.08704965267704651, -0.009822518517129272, -0.03136725487610291, -0.05911177893378346, 0.010080190963237354, -0.0273795296317714, -0.03904508620873262, -0.07415400806207217, 0.04124619680823988, -0.06364540790429958, -0.05895010810326851, -0.09852620113051637, 0.021943969192373663, 0.09755356701304534, -0.0800102279980306, 0.05006425951680717, -0.07057115236855661, 0.015099829442256244, -0.057519666401435667, 0.03995981608651723, 0.06166074777278634, 0.0717294358235948, -0.037585163318789826, -0.09271839005309683, -0.0011185263545790856, -0.016546812808700097, 0.02742867764334574, -0.07772359696188981, -0.07349901110790988, 0.02169161117454811, -0.09034455409684526, 0.0606887180266652, -0.021619397070215318, 0.0830565378402626, -0.01194936242931624, 0.027356029911786622, -0.061776897867587444, 0.019854190133786743, 0.01833294901526679, -0.08422996004359316, -0.03603008019690404, 0.089832143832254, 0.0246088731381598, 0.08167153335517076, -0.035470822052789605, -0.04477189434605667, 0.0660113454170799, -0.07437756599634435, -0.002965479607707119, -0.02900329979513247, -0.049299017491044046, 0.024260411718355215, -0.09021373064322001, 0.053380327484053955, -0.08553613054852485, -0.07877267073374543, -0.08077393748453561, -0.064521005304003, 0.057114872402797154, 0.030331036589486826, -0.04381391733907421, 0.08605715054121729, -0.04134117541798341, -0.06828035643179281, 0.0433281508767617, -0.07076658040771114, -0.0923396998479303, -0.080459775481363, -0.09200959450481894, 0.055008971610364006, -0.009263019073973151, 0.06265358784262935, -0.024074848273699902, -0.05980855179473624, -0.07460031370677428, -0.046332200874335996, 0.07274332014544524, 0.026118745987595737, -0.09110089411750273, 0.04667803760033249, 0.019437903848134257, 0.044727745932127735, 0.026888415387490337, 0.04413504944364757, 0.08679052770067439, -0.04486314905735035, -0.07780511559552032, 0.0700428012794836, 0.0727552224768105, -0.04672761802532304, 0.042420172832337955, -0.025521787021638723, 0.08724906886467122, -0.01556162104186218, 0.0587225315507304, -0.07698831547333174, 0.03335753152192026, -0.017457567912800426, 0.02960896198110147, 0.004456697052963333, 0.08461413429487705, 0.008972077384757585, -0.026603022821232, -0.08752149349817706, 0.04781499123759587, -0.1340523057220141, -0.10627867778489032, -0.09622657264135269, -0.04009470732014668, -0.07623009126517387, 0.056161771675436394, 0.008159490564574658, -0.09779726084720707, 0.06495583524818863, 0.07405879028909572, -0.0752086025029037, -0.08547446153877411, -0.029154490523590204, -0.0034616740813073477, 0.051303556283130936, -0.0814224337871778, 0.07732204221960882, 0.08655325608461772, -0.013544852614493669, -0.027255953128124646, -0.0021790865939550316, -0.0064334309264819705, 0.0034297737553093187, -0.061379870426541694, -0.00804097098057504, 0.03800248544616713, 0.10223910042089097, -0.04931193022889957, -0.04986469528188401, -0.1871457554817755, -0.06630611500693828, -0.07829313933273666, -0.03628699261805483, -0.04609233461298451, 0.06656929481043054, 0.022069346949648794, 0.015329824621088398, -0.013072469128482938, -0.04149915573095741, 0.03141193688110574, -0.04528293601562118, 0.0004909560303940297, 0.00025961686865705547, -0.033140979222330516, -0.039994138782331504, 0.019926496923388434, 0.05798113555951076, 0.04930024080986705, -0.13102800437379367, -0.0674746678116638, 0.002991256638952285, 0.09628024478845135, 0.0251800514240996, 0.11796452877874454, 0.08944962749232792, -0.0670898746816101, -0.035486814118981996, -0.1449925429891833, -0.02991957689103567, 0.022216373754083096, -0.025017379173093726, 0.06795483563733012, 0.06305125717658096, -0.039931578600674346, -0.040750377961599214, 0.08427998517635649, -0.0027563139263956597, -0.07041698045893885, -0.07950451069514562, -0.03568421898878941, 0.059134152073125446, -0.057289655130361244, 0.09164697900645845, -0.07500317380596937, 0.037008146195606724, -0.02446510942413915, -0.008892640524981435, 0.02387317090628876, 0.01741443828943573, 0.01988845859841219, -0.034922160874717334, -0.018610327004187965, 0.10961890058890927, -0.09310399659667122, -0.09147660988612319, -0.1273367599381787, 0.009149175103032696, 0.019552962318843545, 0.07548397801246187, 0.09128661123493134, 0.006436588153615772, 0.0048923695700644285, -0.023320556216723767, 0.07076830964489132, -0.05644077108419467, -0.00044831666776010045, 0.00790139650080937, 0.010369953858815395, -0.08620892329722149, 0.04534325703831022, -0.031834495296399624, -0.08709571796278245, -0.06504788980850477, -0.025281255986784518, -0.023661490340801287, -0.06483055254782073, -0.05652611124438486, 0.029270672080227492, 0.01231395767834127, -0.012815412700486077, 0.053790488435304325, 0.03261418801694871, -0.15188436280560869, -0.11146586858595557, 0.03625085694312682, 0.04926589667919923, -0.007337584701373549, 0.019516271854671845, 0.09409967689662009, 0.0259226621902894, -0.017817773326537334, -0.05705847168569638, -0.06637382763312337, -0.007260711618805086, -0.09489662583635482, 0.011140755792314638, -6.500875111545298e-05, -0.053087339039537225, 0.04088347437364007, -0.04405391316630761, 0.004455814133138007, 0.02257258254778734, -0.04275819063649267, -0.06629090793118401, 0.028239382714314313, -0.020438417923025577, 0.040309068045067, 0.029373944330768557, -0.09221165352100744, -0.1203228336682631, -0.17789844348981493, -0.028134438807778415, 0.05799533376493897, 0.03604426573253507, 0.07453723990400236, 0.0912332325380233, 0.016639372355630972, -0.05991980314156129, -0.06511481541428654, 0.05133245055449049, 0.08597532258307874, -0.08087018096871487, -0.0815201176183766, -0.08200707100978198, 0.0934913048164923, 0.022722086176401906, -0.028604609698818905, 0.09146461001286404, -0.050148236554700056, 0.009655682289601954, -0.034456212268858935, -0.051686666792598965, 0.06804707549929996, -0.01415970187183101, 0.031637397308691105, 0.053392831273046525, 0.07568033588272136, -0.06929357826643738, -0.11212850866119839, -6.409924320034568e-05, 0.08770427334510862, 0.10877824740138878, 0.012727655991943835, -0.034915069490758295, -0.06520531465264863, 0.07143582257200883, 0.03173951955664827, 0.024666753609046906, 0.006468702499447659, -0.09320538225926091, 0.07095017419343805, 0.09906936151729016, -0.0020523960821575505, -0.06309453131117031, 0.00554760406843302, 0.06588978614094369, 0.06325223148863268, 0.04844079914449245, 0.12139057336493254, 0.0028546607510173405, -0.01536076772661848, 0.10674189953023039, 0.029483626436104245, 0.030661819765754692, 0.014760085735805197, -0.025797073886932677, -0.0663558408691417, 0.06074080660870997, 0.02217878102312923, 0.1122216230775541, -0.05201927304522919, -0.00595686504094763, -0.04152107430221519, -0.09682136558535234, -0.0776792152511269, -0.027385378276400776, -0.09888557624800602, -0.021984847228693007, 8.694204980099751e-05, -0.056556281276966325, 0.09571084736728167, -0.008496347735968272, 0.011284187953662317, -0.0286469409689323, 0.06796064454187782, 0.012306934638231827, -0.07197001204608731, 0.0864610655157653, -0.0010736217731708592, -0.04316904025296807, 0.044943540371509806, 0.055330229464037296, -0.03889887753284393, -0.03361423589813335, -0.1057590689701902, -0.066587105203061, 0.09792729884029608, 0.09946538511756868, 0.016094766589044882, -0.00878849003936266, 0.023766812720609938, 0.07093069827024631, -0.05795834339653138, 0.05525243192612258, 0.034660878959459705, -0.057492996439731804, -0.03068826075162115, -0.04870763019152849, -0.08041344912196545, -0.02937746675898119, 0.05283120794650717, 0.10207905182066848, 0.028210742954379277, 0.06572861997428749, -0.005818898586453633, 0.05636342135392776, -0.08124813858950507, -0.000845114262400184, 0.02213568538984543, -0.13017045467091362, 0.01565503975199306, -0.12050173827696395, -0.019963239513979002, 0.09208865568765483, 0.0036564463592517298, 0.006203506807514871, 0.08939804841058974, 0.010677625514592644, -0.00242603081663246, -0.08962326501431983, -0.003290583590423232, 0.04345765167633785, -0.08686598005436388, 0.07666329421141985, 0.018898585987816505, -0.084579424667448, 0.08339041214978989, 0.023299275448700727, 0.0710839479231709, -0.07942529163546957, -0.07258059620812873, -0.031239575289989416, -0.040949548161119204, -0.0736075363223601, -0.007399548238309333, -0.020901371923895958, 0.0215098859113168, 0.01404420031830585, -0.003157559402362169, -0.0003408167293298435, 0.08067702263334148, 0.06453251409003087, 0.09988874571055452, -0.022514565268684356, 0.05851731777184315, 0.024065241186285974, -0.11232690727427136, -0.04601995814890557, 0.026515963862815527, -0.08065997088124323, -0.04787112465770715, -0.020108617693176463, 0.021295793305316734, 0.0272292968150311, -0.01395488110106509, -0.026971018550679536, -0.09786084410707586, -0.06394419248373641, -0.08916133935932108, -0.05872600685883942, -0.06525142213859393, 0.0014349050957869354, -0.002562649996044687, -0.025678446831645305, 0.026965188435670105, -0.09476798255262724, -0.08707492756284373, 0.017652739410560375, -0.026129904564645014, 0.06805455102389647, 0.019279289928086304, 0.05086841083365312, -0.02297022417096695, -0.0692407717156521, -0.03885036512247897, -0.03302586396320043, 0.08015659555682639, 0.0488189461375806, 0.020867197331471018, 0.08906486239661328, -0.0992032212302639, 0.0997427140071549, 0.027181501804021336, -0.08044964875581335, 0.008849309415519665, 0.01172552518379316, -0.07734255123101262, 0.04387268728711531, -0.06703071858850519, 0.02922172637299057, -0.07811447038146997, 0.0595029805476144, -0.11532717450739177, -0.05770036954356762, -0.03645632479056455, 0.02112369398804472, -0.08079997267886106, -0.014704393834277176, 0.01352688639877962, -0.07619414899099947, -0.04990601670861958, 0.005103811854328119, 0.04818397196946616, 0.07500868467987903, 0.04718776365650458, -0.0795329563861676, 0.08901702468898806, -0.004479381867744516, 0.00040044322389415647, -0.017929735276233937, 0.01931003024007557, -0.08818272627462677, 0.018916222473434746, -0.046385155297194766, -0.04789179928344497, 0.029331960087360543, 0.04216525406673156, -0.04590872704057685, -0.0559565605092478, -0.04328558407156656, -0.008294194432812227, 0.09813992707376808, 0.016287539906126195, 0.04587930730764334, 0.014749437854061824, 0.0005467188777981938, 0.05990823743228717, 0.09446262253841983, -0.004783426335773753, -0.08414207044598745, 0.024615737475229722, -0.017648453338820806, 0.02818533091785553, 0.04765028952008602, 0.0542106676884482, 0.046940144655602686, 0.03432130890503485, -0.06583149126315924, 0.0528984158759373, -0.04297019343426923, -0.025154821555765518, 0.0658820539601939, -0.007371114173315315, 0.029114222472657127, -0.08713139954557535, -0.00348074725513293, 0.0087740638396165, -0.08935858979954638, 0.00198147060523829, 0.013903308805788201, 0.018888037837366818, -0.019170216898992877, -0.01748408290104801, -0.08430551754772121, -0.03375630048848814, -0.060691100575959514, -0.08538461142371336, -0.010796406108008666, -0.049377023794163796, 0.018981545210298705, 0.060306262366033675, -0.0553471049902959, -0.08475175889028132, 0.09839314011149454, 0.010601590219152373, -0.025191761252634517, 0.026459424784432844, -0.0756779505313001, 0.02239064542879061, 0.011229199075274659, 0.045147520101867046, 0.0476297186224312, -0.12238653446316371, -0.0893284673532365, -0.05484493190220742, 0.020057065846136028, 0.04492388117216135, -0.09633429609843336, -0.011999412876159462, -0.0009814502729718635, -0.027858726220851893, -0.11267638524608026, -0.12437654083859195, 0.054718368864325906, -0.10587053647956712, -0.09600098397870817, -0.11194908524381594, 0.07659215416764042, -0.08852179469393838, -0.0032608074909103784, -0.07392076833744635, -0.006702829763995883, 0.07952868396570384, 0.09590848072984978, -0.009130821462765962, -0.09950375805300701, 0.05419486249325089, -0.10756410539643022, -0.050813669615159256, 0.02937076090203716, -0.12824332815767006, 0.03388502407107433, -0.026295326906306125, 0.04385699233659921, -0.1155559490537991, 0.002320166112358269, -0.031457414873667024, 0.03393844698968296, -0.029415456140270843, -0.0010565349156324113, -0.011529061160007388, 0.006229952601929667, -0.035774951842323176, 0.027825534645795753, 0.05577833184008273, -0.025622507876285176, 0.009740569284206423, -0.04062435727191066, -0.061922999027914274, 0.01740785571391023, -0.006338483884850546, 0.042523831853997884, -0.06486971049810673, -0.01909579848169688, 0.021308407156720676, -0.0010126868284219934, 0.019974530767467788, -0.025551649800266096, 0.05553905422582581, -0.05622491310159597, -0.010859191901232251, 0.05983705732868062, -0.10159943367048264, -0.007188539045064211, -0.05887695288857658, -0.021285163794727096, 0.06573809367700864, -0.01764607630499134, 0.02074009416103658, -0.10532050603750535, 0.06496676942584327, 0.07385889529188581, -0.07940312282726444, -0.02332808414272385, -0.036913573594705484, -0.061785835942853584, -0.09723076209506452, 0.05444747376028866, 0.0010316212042836836, 0.04426112493785597, 0.032072791113158444, 0.03206069778383686, -0.08493430841356224, -0.0966450816132385, 0.0517161666955968, 0.0855026608261439, 0.018123287973159118, -0.03183997133202792, 0.04993411004349137, 0.07874997754899797, -0.07748042714056617, -0.038030673248612354, -0.027297998513511765, 0.02496811015307486, -0.047954009837675955, 0.050143668928477575, 0.05693163678798425, -0.04508409251851516, -0.007993719869546256, -0.056061451657674295, -0.06957904466561496, -0.04370132323642873, -0.02810593957124265, -0.03841262587727072, -0.09134344535400805, -0.06980657570958171, 0.09073836136103372, 0.07645083404427369, -0.04339993549691812, 0.08222596225738106, -0.0693347586127936, -0.03246235375280807, -0.003253450959221432, 0.05994905011138981, -0.06779596618924166, -0.06123619020991244, 0.0355450809831172, -0.02217929564230936, 0.09480175228301625, 0.0009571283505331973, -0.07940677207409277, 0.03579620144317904, -0.0790477011770636, -0.012854222443424459, -0.019277020186985537, -0.03612649540223593, -0.07603409728886287, -0.030019513870662026, -0.07014684220621545, 0.003442469191172425, -0.0364027619165622, -0.0061463321740196355, 0.08914687281638095, 0.03592443162996978, 0.0059427581195714285, 0.09038900781363338, -0.041604131127409995, -0.09403115370726628, -0.030306119579654185, -0.04194578543149326, 0.046264292118488114, -0.07367575740555198, 0.06570112306514224, -0.0022600770796451183, -0.05718013370646361, -0.06584745628622432, -0.007807234930565867, -0.02224995752982694, 0.01911652029876341, -0.03411529775124851, 0.01039421087771218, -0.04888358103155231, -0.10862587607969007, -0.017065692636126523, 0.01334992744924988, -0.03240114880797982, -0.029457600055677647, -0.07424442535917739, 0.00781279874737095, 0.0698931141846625, -0.03917481008412482, 0.035195580950250854, 0.06516457885515195, -0.010281609795633195, -0.037448329660369734, -0.02681897978598058, -0.054696405974967055, -0.09187863006345834, 0.05081424951619275, 0.06098502926244529, 0.07837956455711742, 0.04640884203383936, 0.04127961891821729, 0.021944188254085832, -0.05802489362625253, -0.029785469038968292, -0.03652664892501909, 0.05009592112405664, -0.03147496948445616, -0.0464313228577554, 0.02761640450921199, -0.018526853714378663, 0.023341359119989292, 0.07252084413073755, 0.041735284114314285, 0.06531395812646644, 0.0078092274074807655, -0.06138211165061009, 0.003399714987340559, 0.060103460689680394, -0.037833905637432365, -0.05826287904566072, 0.04959137928049012, 0.0005106455768565388, 0.010050525256552728, -0.05518449542520123, 0.00235660164473367, 0.058477764555793975, -0.04548773654367608, -0.03074643989491758, 0.020631789077498883, -0.06506387356523072, 0.10280621422687969, -0.02086613811617991, 0.054640104529992746, -0.0011130540840784586, -0.024123838660120852, 0.0521912347048165, -0.02087822112008147, -0.06522422395591547, 0.013896098392954406, 0.0839422796559703, 0.059443638649487755, -0.007331656444698439, 0.040932061419892196, 0.08174363369842214, -0.04506204856231875, -0.00287733950544429, -0.08715225856373476], [0.07742319357750757, 0.06773912590905617, -0.07540934122361197, -0.05194292660277566, 0.04158670110225729, 0.050180693170935764, 0.02250869298798537, -0.06396020901647664, -0.0020228594514694748, -0.06543121314549794, -0.013546243111771591, -0.09817335045548857, -0.06859760672997343, 0.044179561877938554, 0.0334143045984733, 0.09700530782945278, -0.0015368690845066063, -0.01661603058365428, 0.0348852280730903, 0.03860037845099348, 0.061402500568488505, -0.02117420716582183, 0.09862562085978127, -0.034100660540434743, -0.026181679549318826, -0.06992010281081373, 0.08734664986062515, 0.03441938748319179, -0.042533495653692, -0.02150255463591466, -0.04609952039361456, -0.04551970023880352, 0.04152184754840518, -0.04968490748476249, -0.06637034538052822, -0.062421373141390735, -0.07281852448380918, -0.02969613304071691, -0.09412005466774338, 0.029434678945481938, -0.010746711891704305, -0.0047491360117910345, 0.074849548746278, -0.02654325859295961, -0.04744776857386434, 0.031190216418503627, 0.010061891080432286, -0.08169881406881332, -0.007132807785649189, -0.08492556223316426, -0.04526856730911847, 0.059943836420631225, 0.013488031495044739, 0.03839392159260446, 0.01584879748671357, -0.06086041034819856, -0.045619697082544035, -0.05586558525070236, 0.03422063821273019, 0.020261944132534127, 0.0926389701318959, 0.09570046876871782, -0.03212188107259302, -0.04215108358083239, 0.09345878019511532, 0.07474669219821414, -0.01480947805810058, -0.036658904833396816, -0.05569629670442993, -0.08637856103406973, 0.017801581265348136, 0.010067421329595289, 0.07315744158414118, 0.02942290417696567, 0.0230469302535505, -0.08569504680848986, -0.08141594490617798, 0.07478422456805363, 0.002024271411708193, -0.08561303484766293, -0.08347151622284252, 0.03640813968111537, 0.09503616350071115, 0.05334416030774616, 0.014383823830884518, -0.045843560047181535, -0.04859686083231611, 0.09656841083899147, 0.07867404940671525, 0.01816598386511896, -0.09432390061589507, -0.0006452350227541342, 0.049788445970212925, -0.04293049417284099, 0.0695952759595975, 0.03374335627965567, -0.11338253883031293, -0.04372843209654796, -0.11255483232088823, -0.046675251904170996, 0.05198336209392272, -0.023327046714207683, 0.01782778333601464, -0.11355987015354763, 0.014863358006831917, 5.18729408129525e-05, -0.09196893773341706, -0.018270773906759366, 0.016181227575817157, 0.05324107762698287, -0.04694311917734715, 0.061621394548696445, 0.06841340839198953, 0.06656436662108714, 0.04199756167999752, -0.07701245357243802, 0.08132376578247356, 0.018725086563218765, -0.09177425578504313, -0.06912136450672053, -0.05776226521090501, 0.03130144641489778, -0.09273204410343944, -0.09891745574750292, -0.01073233426091295, 0.008442724177074715, -0.0418294231815557, 0.02792799335937272, -0.01972949430681813, -0.05462093670627158, -0.04480430577461302, 0.058829577861953586, -0.04649828646615559, 0.023724447437398447, 0.05728120205434476, -0.052189791810735464, -0.017943238504594155, -0.07209459885023015, 0.04248591429222549, -0.08687235244171314, 0.029939418004588603, 0.02004108929482533, -0.0682920727021554, -0.0935723622970741, 0.0018911347866259992, 0.0004903474405611499, 0.036798467433430605, -0.05803237767688871, -0.056471064615442504, 0.02177611231404507, -0.00190779041830541, -0.11130263955321607, -0.12742996651408878, -0.07845501590945116, -0.09700268652363139, -0.07148377147328996, -0.008581591524897254, -0.06419328434865818, 0.04961042543493827, -0.12786800363124237, 0.043093632019471285, -0.002017344527968794, -0.012476752851854058, -0.02864910542371294, 0.03739925684358379, -0.020887273126654626, 0.0021270140872818107, -0.09540400383070292, -0.09721963035012773, -0.0614356482365741, 0.00065719536820885, -0.0930736155097306, 0.06528987192498058, -0.05880253423723542, 0.04968538266060098, 0.05526229347514256, -0.10574307129111116, -0.050362284717417424, -0.05112295395816383, -0.03825378453777133, -0.04298060449422378, -0.02357910946691449, -0.01696940073616618, 0.0009941546427916018, -0.04462328362431412, 0.008017311448948372, -0.012664678200722344, -0.14497195098707016, -0.007623096610495242, -0.062349495778402125, 0.07383046264251662, 0.05330490380404398, 0.05327297533991333, 0.007869969691585136, -0.07360535266685704, -0.07343673397953841, -0.09740394421320761, -0.05969311905414835, 0.057992856670967964, 0.08062948147284554, -0.08839622940224928, 0.024797660645818908, -0.008346993101713728, -0.0031460817431015905, 0.02486688267612273, -0.013503429161045643, -0.10904120254253194, -0.13361439038717937, -0.0117371326867424, -0.10891851827667842, -0.04058410204846221, -0.09437426737656998, -0.08092749641874118, -0.07710955593676516, -0.0030545412458490868, -0.1028062278193254, -0.02706980755321663, -0.057365223102266466, -0.0010507537362876612, -0.05122222184090719, 0.06380139507278099, -0.02236634440005779, 0.022603726742941223, 0.05510143980208225, 0.049729083657411854, 0.04011488421610814, -0.06229103086718157, -0.04962641363664811, -0.08993983387847182, 0.07368882513479441, 0.026768847981421023, -0.018169201096844917, -0.07457530054706372, -0.03859748334675959, 0.04391720810128967, -0.009757502421233036, -0.0070586922149197045, -0.09678452851738151, -0.06880218655635181, 0.025041600519116552, 0.028276493926793142, 0.07056273267216748, -0.027311662553038435, 0.09489170634679607, -0.004524200783035263, 0.02944638447806619, 0.036526267904975575, 0.03282181443076841, 0.0672590432072074, -0.06996488637288088, 0.07448553129177697, -0.08029588331097498, 0.025633402081510506, 0.08810337351744707, -0.01193890239275001, 0.06936725356778674, 0.01163932670318281, -0.03471607714312604, -0.08492601278184786, 0.04534148055314375, 0.05657589680289039, -0.13333214513421993, -0.1362560781972121, -0.0645817556192591, -0.0424866884062337, -0.03962471742191106, -0.03588587845687203, 0.09330883811772991, 0.08192813559803097, 0.06928116324410376, 0.10997479638379613, 0.01217579349760662, -0.020509408433248506, 0.04616088859479808, 0.11126209578628002, 0.03876120032343903, -0.042682768801515295, 0.03911738751334568, 0.026989156623141913, -0.06537272952474116, -0.06519646392185204, -0.02668421201719036, -0.018350514144377557, 0.04603484923405758, 0.021196372031344276, 0.022274798080835094, -0.007935550754206332, -0.0951781514647087, -0.039267420628869835, -0.005632637752995375, -0.04669781586091314, -0.09179553589303208, -0.013796353808289172, 0.04819745693264525, 0.010932943623854248, 0.14467510439476652, 0.1518104867770608, 0.02449140310219896, 0.07434925787237581, 0.030365732996329983, 0.021701031495241198, -0.037269861569172405, 0.033498121011298225, 0.08506537322770255, -0.05052281117984475, 0.06800985798674726, 0.0033878022984554514, -0.05414006670366563, 0.053178035088685814, 0.0796633865792747, -0.01356943044431802, -0.005478368722707079, 0.09270850054622053, 0.00196161973386086, -0.021439396466144355, -0.020368825446731294, -0.06075596454161133, -0.09637061771602494, -0.0014649999796636365, -0.04697887472177958, -0.04775582928453959, -0.02411432379755222, 0.0735088142046187, 0.10091716682680502, 0.09972790832001542, -0.005087926344755965, 0.02766658832985737, 0.08128648563056212, -0.07103467049879611, -0.032277457142005625, 0.01013717358077816, 0.03296352614572948, 0.11086872492347231, 0.03609123834893444, 0.005478432277754898, 0.07775945534627614, 0.054293214821861696, -0.020342787930919256, -0.01383294462893851, 0.0788086217149089, -0.06541785359970222, 0.0558232109467603, 0.07515533016248027, -0.02656202016942106, 0.07896372252979131, -0.07651341643157379, -0.10171421599450657, -0.06155223649582554, 0.039369911951275205, 0.052261730435748166, 0.0007142065724467004, -0.028554460430337048, -0.02435603197603422, 0.008391251969869392, -0.12390552930020735, -0.05455141319005155, -0.14065244150001144, -0.09559150918940292, 0.03693731892403634, -0.054636362285476615, -0.09462630169288262, -0.07152034953857574, 0.03460348541804368, 0.0013093807701656888, -0.008827773088599238, -0.05345152711682576, -0.08990393528218024, -0.006144719716081634, 0.00208462573336945, -0.02969790112221027, -0.06538213869839075, 0.049189733681701854, 0.0038211645122627367, 0.05962709503020116, 0.0656281125941268, -0.0892284536397398, -0.04764925045798894, 0.04229923461384674, 0.12073109362176687, 0.06273910506493231, -0.02760459781383824, -0.07264449508354176, 0.00026919882810342725, -0.021828621761072184, -0.057421878066704686, -0.0009312391082896166, -0.06776658682900921, -0.06322340999647091, 0.0715582800500104, -0.08936239088365494, -0.021723101357907528, 0.03058316649942419, 0.07273190452958178, -0.09937161009170346, 0.09359994104008235, 0.027878143284660196, -0.0027849939169332667, -0.010885555469172428, 0.06576121197405212, 0.049697173111160474, -0.012281731674216223, -0.02375789198512738, 0.01157089114189088, -0.04924542462009779, 0.06601562835507274, 0.01340367447317634, 0.03705413151077328, -0.06328285477335023, 0.06802723027466974, -0.05917742484511733, -0.08863777950443705, -0.023111080192887035, -0.09979464551093419, -0.049167343145616146, -0.10540173181326906, -0.044456706823478964, -0.09439684876964584, -0.02146548019758849, 0.04953541120557771, -0.04096102563139062, 0.011508117258424249, -0.09826273935451926, -0.07503506665176103, -0.02238714896385322, 0.07201138592321467, 0.03535847140684233, -0.1094020333284534, -0.04045374553907749, 0.03868634298311588, -0.11276719051319535, -0.03758824292242703, -0.043795507112759584, 0.05618475140271748, 0.04143721447277904, -0.039229978840325794, -0.056581404785526854, 0.040558284986773795, -0.006624425654199679, -0.0635356372190662, -0.012293422361874366, -0.05952163095791334, -0.1004792471319994, 0.051119460479608136, 0.008346348349343332, -0.02668075580304473, -0.01496086613527684, -0.0510369024771431, 0.07952480014061018, -0.04461866014053399, -0.08219183410936134, 0.060010602648176335, -0.026528069493400978, 0.056709467768876885, -0.1013710523365867, -0.022021059352702824, 0.02543903770645511, -0.05261909408355394, 0.030449784518843143, -0.00161233629402195, 0.049655758197359866, -0.07269673634865206, 0.035349169461986914, 0.05551884514923453, -0.07007755257316431, -0.011039801510399896, -0.005008748155840477, -0.024541719356175412, -0.12420057414034727, -0.10103539671629842, 0.04247884729486252, 0.00937608535978003, 0.06663760748877554, -0.10117352327824772, -0.06465150651994601, 0.0207261604048701, 0.012211313158075414, 0.02768506278993821, 0.05730476525093733, 0.09512827287997559, 0.019778653447869585, 0.03164922701081794, 0.06713343293383153, -0.04544993742272635, -0.0951463271074351, -0.09265886992989665, -0.06686139046227522, -0.0913784860817057, 0.030998709419436617, 0.07398281282121935, -0.023844543379766756, 0.042058110280344355, -0.024868737206670228, 0.06154434075196678, 0.00836282507453522, -0.04307863877260755, -0.06588197281262831, 0.028585219846787132, -0.00289402462516357, -0.12366235751474773, -0.08651654218667743, -0.056430162932647555, -0.0343796206374315, -0.013031665835780642, 0.07918745663024782, -0.07892508128284238, -0.020837432929895067, 0.06382017660045546, -0.04328660381774109, -0.0959617326879224, 0.035397375630946, 0.06785346909659187, 0.08732097777979786, -0.08095589332409694, 0.04742309399536721, 0.01100465472162487, 0.026163317439296858, 0.07085977429784805, 0.022005553952779592, 0.014439547206692552, -0.013641319951961411, 0.0010628264012677781, -0.03221002655626512, -0.02967665984437213, -0.1161758557842554, -0.026891707839632063, -0.0919387508489277, -0.11433182353821897, -0.0010784383839730488, 0.0036198275959296775, -0.0550597951942355, -0.07312347211735255, 0.052081559294265764, 0.09660065327659628, 0.0836855286400196, -0.0868749117931741, -0.03785333424318035, -0.026185705743814756, 0.01233282713152022, 0.05451980548570611, -0.07835870932031269, 0.06055888459331331, 0.050087192508457105, 0.10235375593580844, 0.10952491855848898, 0.09336372356977954, 0.08734374824045778, -0.005257599252087963, 0.00999487885520282, -0.011450626076897985, 0.02208060345598365, -0.09657183813952076, -0.10108509013119234, -0.05532091594787659, 0.02560465518440877, 0.03016969889412839, -0.00726063098530983, -0.09833899923690265, -0.0862958977118527, -0.007976347236862646, 0.06039067621119579, 0.08080776844807541, 0.05774823955256324, -0.0030346072747531403, -0.06964006553288608, -0.0021865916127563854, -0.044969253470780464, -0.026853715448613997, 0.0302677116367406, -0.04604603090524881, -0.0283306323461459, 0.04409554566614687, -0.019940814102345557, 0.0034986491091686333, 0.059579155684472015, 0.04336247719413801, -0.00926489526175374, -0.07705888944532917, -0.058730008480151766, -0.05712033421228287, -0.034320041214864504, -0.1424801523713099, -0.0009582690464833917, -0.016279969180469988, -0.04874652429190563, -0.05903735107978951, -0.0679228231899149, 0.0874903434626527, 0.07096887390025729, 0.08157695478358856, 0.004319547078366938, -0.07527689430154624, -0.0806512166476552, -0.018841846570061105, 0.041946509965467504, 0.010478073440243998, 0.029872643510095165, -0.014889272018926971, -0.07786158870089935, 0.029731001687913195, 0.013760320283565495, -0.04137423501290372, 0.021714684453066277, -0.0784160989467524, -0.013410699992693544, -0.11537942948486528, -0.0856319119661134, -0.01658958307629857, -0.09889037987393029, 0.016713474639255037, 0.05329981828344157, 0.0431726637935311, -0.11108394777640763, 0.02585062238842039, 0.03944997011557263, 0.06768091410959269, 0.024888089419097745, -0.035849451179323644, -0.002862899882968249, 0.051457841717604494, -0.08692678705405188, -0.0928341338146373, -0.00020419751656734476, 0.07199215253099694, 0.015340019075979067, -0.042615696077053934, 0.014367539867635408, -0.05497663981301754, -0.013291677409833164, -0.07662934591971245, 0.015150353545418896, -0.07446960649057259, -0.006882567939486332, 0.05382114588255998, 0.03287510280627094, -0.09807679423257336, -0.03872551465412896, 0.007693610692131935, -0.0029396288037658517, 0.0063201832982663, 0.0010531001489538572, -0.09933122804103578, -0.0362183718626473, -0.06307331091896332, -0.069308664344905, 0.09157997483736033, 0.08025206958107978, -0.02880267191713904, 0.01812889835548907, -0.051849607360866724, 0.030335060519981832, 0.011028273607861806, 0.009502156265794289, -0.02082986662372118, -0.014113109243456406, 0.031119499793819384, -0.0033034351643393784, 0.0939558515288886, -0.0158864552353408, -0.018656054934984692, -0.002389026014785947, -0.032259150884223674, -0.07537386644349377, 0.00560542318258417, 0.05760842386881, -0.03710155438169913, -0.007471635077308693, 0.036359795255283676, 0.05023064819841357, -0.014319944847972388, 0.03944939344983872, 0.027202639849201404, 0.09796401753583878, -0.09196335495469375, -0.01264335105340468, -0.053258086491954626, 0.025360503512724498, 0.016715527755784144, 0.00406398164305974, 0.015426826515425046, -0.056037750533909296, 0.01783678982842723, -0.02081737912237443, -0.010827390268774757, -0.025600180915615743, -0.07555327375189581, -0.05799619763747599, 0.05390060726318896, 0.06361596802343836, -0.03435964186311966, 0.06590180672584667, 0.03424362250865956, 0.014079266826576044, 0.06662671583494024, -0.04409031757547166, 0.052193529794587405, -0.04370737753657237, 0.009593540959050314, -0.09580518251717252, -0.013842164015312306, 0.07937351406058199, -0.014316196125307906, -0.06962349409711531, 0.06267001109227857, -0.07139531798260933, 0.08417741506396445, -0.0760057674519896, -0.0012614595555049677, -0.07468151000314449, -0.04835115617015569, 0.0843583838097745, -0.08854976406078029, -0.03242118717236567, -0.07900187574027628, 0.017317237766052592, -0.07363893958689158, 0.07282439484840902, -0.09677040249451302, 0.07481993139929392, 0.022637928344303112, 0.0368376502637468, 0.013903720460754313, 0.08001719737059679, 0.002375392531882057, 0.03178428006452094, 0.0676013444333802, 0.0182326512710312, 0.051074463858821056, 0.04083747797300802, -0.050276356386035205, -0.03740273294499784, -0.09142374604842717, -0.09970499598221956, 0.04729134139785686, -0.09496899612349634, 0.014619862839460122, 0.028535898801164476, -0.08638481014672982, -0.059076556930315764, -0.07792168118928819, 0.0654532846103357, 0.08349291418269515, -0.01726788283052069, 0.02926658070585491, -0.01076814653788225, 0.06414105458648969, 0.07906387822435612, 0.011357364283762283, -0.05690808182145255, -0.0032205753916457916, 0.03186858871076871, -0.02675076750890242, 0.056287612077544624, -0.04631770002648175, 0.05192635579505002, 0.08145081967598941, -0.04392926750093482, 0.08246762868100566, 0.06155452427509736, -0.09756914594734233, 0.03689579898368894, 0.09070602224055702, -0.04830101585405575, -0.007053159514205537, 0.048419606460873295, -0.0816549812109131, 0.030618064467957295, 0.04235126690255049, 0.004330362226963293, 0.00656341097252906, 0.09920939479405333, -0.028913209386719395, 0.09645176016914195, -0.03376246864852599, 0.04649718267183155, -0.013012846461584817, 0.07265999786048742, 0.07755823039581582, -0.08160191259473476, -0.09784074760136897, 0.07664359646740798, -0.06001434794829237, 0.08042415714536269, 0.08275712463156457, -0.07823276683759156], [-0.07186354111225005, 0.09430123393573309, -0.06223488531816038, 0.04446772811619812, 0.08769958917104398, -0.008964111412201145, -0.08144627244969554, -0.0675582477978622, -0.04377289446414077, 0.09422937574811854, -0.024924277847009832, -0.09741898176141515, 0.021361864300393486, -0.03215215266718018, -0.034878956034321375, 0.016455697203548923, -0.036291684293431395, 0.09088227447910441, -0.00584790915820807, 0.06964014439607338, -0.07203316945704095, -0.032792050572530124, 0.04328561106871759, -0.0764547585585361, -0.09808367489924169, 0.020034043704431514, 0.029731374234250985, -0.02853901333471627, -0.03523649678115014, -0.0792846696447229, 0.036322468948427306, 0.06270583452447012, 0.04978541732202946, 0.0663707523872683, -0.0205218503817044, 0.09741721566498686, 0.0647615270879613, -0.05953371630115355, 0.05460505836450575, 0.0760488351864101, -0.04774160506661677, 0.002266337895130491, -0.04895174958316952, 0.06254177261340152, -0.029666713212397187, 0.07717174135027054, -0.01443095087674236, -0.04136514917926289, 0.0769791487535519, 0.06226943466192258, 0.04614509537098656, -0.06891360034380219, -0.06956012246458321, -0.003958946553981366, 0.03801138036788093, 0.0299441393934175, -0.09569517764755656, 0.0247783302361341, -0.0723112399176043, 0.012278205032286299, 0.02116636449273397, -0.03767804416012482, 0.02314488245877468, 0.04464833964479013, -0.022370603828288035, 0.08288625482121992, -0.013604980042620472, 0.00734533796731302, 0.010221466453728859, -0.10048224298714917, -0.004565337992245836, -0.08347837276393126, 0.03763927996077046, -0.018359966557469735, -0.01504168803947712, -0.05554332222091646, 0.06669064403888342, -0.05754221890204674, -0.03745808866158673, -0.0686371218372131, -0.012438543579204387, 0.04575909504321389, -0.09229785640569739, 0.032556476801185674, 0.02598303160233606, 0.0685479372318136, -0.07540028955760986, -0.0929704415950849, 0.09286366966446555, 0.08718533912460034, -0.05964583329790087, 0.048194522503594066, -0.03707015936518308, 0.057802551552564446, 0.039681172818493524, -0.026933283644346048, 0.07297077031533564, 0.013951947865462926, -0.09807946573692813, 0.053922767025278984, -0.09756017502680253, -0.036657598912590836, -0.008394177257404526, -0.005403499083213344, -0.08856089275578258, 0.030403039806683338, 0.07093356889631369, -0.08948546319829273, 0.062268370173130146, 0.044677042189407754, -0.026373164142982724, 0.01859909101871908, -0.06409418086101049, -0.03146000458332587, 0.044649807731458185, 0.06480175036221847, 0.09224577851169695, 0.09897204371593625, 0.0870786265681519, -0.10103121242385057, 0.004927526725371338, -0.012948750977902638, -0.026607606462234017, -0.0947254174436097, -0.11224881485702468, 0.044134797335286365, -0.004704944274588283, -0.06930776957845916, 0.05033618691748248, 0.08403766727156722, -0.03668123527183676, 0.09476686903457117, 0.004300407358497574, -0.015570179009132462, -0.04951181681661182, 0.08639246593567332, 0.0235263288732352, 0.010602822378895548, 0.09834274469257086, 0.03569462494349527, -0.07647530866213169, -0.0012658019310073376, 0.0019814901125444254, -0.07085311179934153, -0.037780474607337626, 0.08805035793665535, -0.035739196356323694, -0.08862342808307636, -0.10243783175422005, 0.007380691030878812, 0.05331407070018891, -0.004125169226500714, -0.10728299140595698, -0.07259683590399674, -0.1036697832464439, -0.10332052580862276, -0.03938007691114948, 0.0030889952127888857, -0.024025385967853464, 0.018775697684146442, 0.07889298211092136, 0.0072331263432829, -0.04962479134889144, -0.030436004184253237, -0.04324139911228027, 0.07440380984578086, -0.07436922848823682, 0.01914214505002848, -0.09264376403355933, -0.07398474750644427, -0.05647559757942145, -0.06699201298019226, -0.055923859938865894, 0.004114321061463849, 0.08350596308789196, -0.08796569916039167, 0.0016174235577797365, -0.050090789069184974, -0.06550366924425963, -0.10221285473143132, -0.057883861595872686, 0.027267740632160527, -0.06437081948269871, -0.0320928895845219, 0.03190904509972635, 0.04793884766680133, 0.013099576902968263, 0.030616041144006345, 0.06780912822047798, 0.0754039692579938, 0.055219162814542935, 0.023287743793149154, -0.013387677475538286, 0.053783564876843944, -0.0843343806582465, 0.04171022446190682, 0.01752000755225025, -0.011303104514958298, -0.024912745366882396, -0.09556158378269708, 0.051697553544444504, -0.02501162980632699, 0.0532392604252179, -0.09721682642726394, -0.026329454132192745, 0.023272099023777876, 0.025212380097844312, -0.05846520938119203, -0.027124735172626813, -0.15949286527861037, -0.06674872631336373, -0.006976455316620237, 0.02810518947512086, -0.07183952949071615, -0.01806589785828174, 0.033760338315013884, 0.026085365793556987, 0.0783214111745724, -0.0819140892269908, 0.017294962759020052, 0.05613115616196471, 0.026615201201749296, 0.07587943546322043, -0.06341671392263658, -0.016620891718825567, 0.05437053813073141, 0.0713063969371534, -0.010893927647903402, -0.08064988746332533, -0.06233449590451373, -0.04368337183753696, 0.01653040539434901, 0.00827812745549042, -0.11397614982774573, 0.025041344702202036, 0.03046667312667161, 0.030587741835652642, -0.027325521550485597, -0.0531005090767828, 0.0508421688361627, 0.022317174052587114, 0.106246381544464, -0.029446761704314046, -0.06827743183727537, -0.034642350592257384, -0.06649812551907988, -0.005783446042113267, -0.03281483925797292, -0.006174510233413638, -0.09589770102931654, 0.0902040429327647, 0.08305716952583868, 0.028643052169320338, -0.08960765931162525, -0.004559843084129878, 0.07056886775682074, 0.009646965944439242, -0.026057064293744863, 0.012217503527593198, -0.10397438477051407, -0.06053484636218456, 0.041223229924197025, -0.011629193214140575, -0.12171113169915951, -0.11803823214745421, -0.06625617802521173, -0.07373565626695656, -0.0615981426904666, -0.05127583108969601, 0.06963594768560336, -0.051282727205093304, 0.03864895097183797, 0.020989716935708988, 0.031131542253102818, -0.004884880307666453, -0.08123286433407649, -0.08003352714745342, 0.08909180676155753, 0.015659938039689007, -0.06639124867715346, -0.04564360473570164, 0.06637711980905082, 0.06613088689645194, -0.032496256198282045, -0.0641020576776417, 0.039710352019107095, -0.02610171571360976, -0.006388765133768654, -0.10606509942355317, -0.07326290813583784, 0.042275628644238755, -0.034564222013123265, -0.13101022118488034, -0.08230732047166146, -0.025819332336277995, 0.0007077053321758646, 0.12821571410380947, 0.0976449821921628, 0.06749715315415925, -0.0667180409870791, -0.0532088622455747, -0.02099708647368548, -0.07469998180855685, -0.09375889202320535, 0.018331281761271356, -0.06087179375827994, 0.04233960763201493, 0.07700339219029403, 0.03344229402925031, -0.07024029993834684, 0.0772409431698426, 0.07731531176327797, -0.04894456432499647, -0.08167935937930954, -0.04862077660709127, 0.04595515775516142, -0.015223665851357739, -0.08266112730968965, -0.019415686919656394, -0.09494597908382964, 0.022223611647543485, -0.033958708610453005, -0.07418036377011122, 0.09668877517348227, 0.09778043381644143, -0.06261504295209838, 0.03148171960307334, 0.06703428493019438, -0.016154605361965862, -0.08912219468371227, -0.10904069868826233, 0.013435744799922206, 0.013609808292128201, 0.0446974188764682, -0.08840306733322867, -0.06371022480666863, 0.039941376298579356, -0.05647364081967432, -0.029339023497401837, 0.060621044013483755, 0.0394999669278798, 0.04643248334319692, 0.012655774647207043, -0.0775557537417125, -0.0676506928027473, 0.028626276489813668, 0.02241738014573879, -0.045030896727627334, 0.02405683366830169, 0.07819950148303265, 0.08624591926899904, 0.09410132741064932, -0.008366110077172834, 0.03606413506984234, -0.018474281762437154, 0.02434645851555348, -0.08308758954933702, 0.02309693208372394, -0.06821673395256125, 0.015349944268300893, 0.08512308956881288, -0.008034720482829648, 0.03592797181158347, 0.037609172576209715, -0.01276645244959336, -0.08680884575024599, -0.03890320748680166, 0.013733343179782654, 0.044958065527093964, -0.05980703257645742, 0.0002982163825192139, -0.06282506765991043, -0.08238852777541854, -0.06069964792394021, -0.08537599847521157, 0.02720695476032853, 0.023846007154419965, -0.000907140129685966, -0.02037464426748397, 0.05054223564839235, 0.09761585533462251, 0.06637406918182234, -0.00227895913624982, -0.06393267151637702, 0.011854319983966459, -0.09804872730682865, -0.03972797604668107, -0.014943243970429258, -0.07875612308300503, -0.04011006814602195, -0.004660543491760388, 0.0791585785375046, 0.016124663793748592, 0.06672869456346067, 0.07300505985375917, 0.046327269452226386, -0.01362802869175279, -0.04453563603748048, 0.04760674711632993, -0.0658143529247861, -0.05614829054745604, -0.019538939003553576, -0.11794343454325092, 0.045017819770230005, -0.03083668809858666, -0.05510562947570334, 0.06345011841158145, -0.02608936556745248, 0.050506725506349916, -0.11454537495855732, -0.061757276400537665, -0.021845327233028233, 0.06938913592579345, -0.08636748097999897, -0.052241765145221865, -0.038606356581905255, 0.08752186832194125, -0.0996615383481223, -0.09886656005506989, -0.07849385282485705, 0.08161320873670147, -0.08338111571707939, -0.029839972859074092, 0.02352817519167121, -0.09086272441683096, -0.06904450479639838, -0.09074176346943168, 0.01908152196640065, 0.05386652012426729, 0.015600800162037302, -0.005994420799741525, -0.04549770879103936, 0.09101649259288325, 0.04004085054109249, 0.006003231805215653, -0.03240157038106064, -0.08340514338907924, 0.019937883619274645, -0.056560161644192655, -0.09241995754970096, 0.06507976743354714, -0.03485621371371772, 0.05153622211139389, -0.06304174277703713, 0.008512018215281232, 0.04461313803771154, -0.028834359736315394, -0.011750310145026909, 0.07735748549972152, -0.00572554628435773, -0.04390170432101666, 0.07751896389071027, -0.012141527086093605, 0.06914606783351593, 0.01284409045524067, -0.1089624045342922, -0.032945253861882545, 0.03787415576285972, -0.037624122851644466, -0.05485084160399343, 0.06082274244338101, 0.11217057540012183, 0.04019803905444053, -0.08585061026068548, -0.023850684164977494, -0.1131716062677987, 0.004664978078740088, 0.04447205259152808, -0.11406725315552256, -0.1111559930905641, 0.012990612497844438, 0.02479694833984381, -0.05897039563863215, 0.09578089503554985, -0.054827418759342814, 0.051474587775881375, -0.04923904250041327, 0.04256668715304205, -0.03265437386251801, 0.03813913422662955, 0.014817229204012452, -0.004646929048615586, 0.02757670902182585, 0.0470782152971708, -0.023143698426656374, 0.02000950646105812, 0.06649643229951335, 0.004138272379102117, 0.06379368809453934, 0.07212092398308555, -0.07538365363873697, -0.010984410505435641, -0.00015728844706718408, 0.027233448457015415, -0.08361300199791492, -0.04916694511065203, -0.06712400722390872, 0.04341722362484745, -0.0961325864043848, -0.014182942560663946, 0.08264613228245868, -0.08853014893371078, 0.09760791787126308, 0.015151203144207537, 0.06930078911254968, -0.08599029060313922, 0.0026269640296772753, -0.05564004354044354, -0.08046176092341861, -0.029894570693542982, -0.12684401764559294, -0.05313014877548751, -0.0880525849912373, 0.009427043196324108, 0.018828014942173246, 0.07854750156898775, -0.07264227142886344, -0.036346777350904934, -0.023912913400233472, -0.13490396789362116, 0.0034363978205847303, 0.037198579806662226, -0.02888240604867185, -0.12451449238178135, -0.020608598132779845, -0.018791559202362, 0.035597530775451525, 0.07130445188731184, -0.0628701015511708, -0.06107421439845494, 0.09400017938571562, 0.018881685214795833, -0.057773726964953136, -0.08983051619527087, -0.012646160386140113, -0.014412724190516476, -0.07039656605150937, -0.045614103748551356, 0.014280094911310975, -0.03020276726964521, 0.06687805305027456, 0.020902547444019953, 0.030752047655679016, 0.0605429775879627, 0.025140129981549145, 0.03639534655099366, -0.14129902834519562, 0.009451857468922784, -0.13543618353821765, 0.015443192752581356, -0.09598995209702467, -0.07999747378754529, 0.01716961727308554, 0.04341719400833434, 0.07040202242749921, 0.012417372675713767, 0.018924293445271596, -0.047689713419180726, -0.024460606462853612, 0.07929537625161295, -0.0092674089919427, -0.012421008475745213, 0.01120118185161426, 0.08625926961581001, -0.0019862914033928316, -0.05828768108967085, -0.08442199324931558, -0.0387667768436616, -0.04550370779398961, 0.03203205311406895, 0.07755383824073939, 0.09009596049952279, 0.025772745533910978, -0.1291796873499332, -0.09674480108719466, -0.02927021485306064, -0.08051613373519914, -0.02653911479556419, -0.04117879848595661, -0.02571054248239021, 0.0066543063922497, -0.0864996455734472, -0.10332797164477152, 0.01274836666709915, 0.015320466387335434, -0.028012133827421754, -0.09814345515641043, -0.05005861064617008, -0.026722689152056518, -0.08635127279894941, 0.06958492109522112, 0.06425815343713676, -0.0546096698416549, -0.020819605448939953, 0.0658046806550803, -0.060588098923154254, -0.003873243952286476, -0.053075498293208095, 0.019587003197591143, -0.06555815280577759, 0.06640417168975485, -0.05705687439359997, -0.002713003453101478, -0.06451361638479089, -0.11215377099699932, -0.11764393478455544, 0.03269290213467656, -0.04368622264252569, -0.082781474143176, -0.04994127783874231, -0.06492887125595909, -0.022830397736116382, -0.06309968839492158, -0.020178665181962388, 0.009301439777595122, 0.07391476708466602, -0.087002415922295, -0.09095185053820765, -0.0368347836936802, 0.00808362758831191, 0.025027970436464632, -0.049179499896699404, 0.025103345179098072, 0.10211757383684214, 0.03810164615387793, 0.08399675946499996, 0.08739749131691922, -0.03201040539372475, 0.08509890177549305, -0.08565903038531869, -0.08208429738711762, -0.08122750852425445, 0.01489615006396096, -0.0549757161582697, 0.058797263123548084, -0.010416754997399453, 0.05098702999820714, 0.04685476230116908, -0.06370889386182331, 0.031016926261079217, 0.05397827769187249, -0.0727507809932559, 0.004684290436235531, -0.01834815284002715, 0.05924065863510264, 0.03360308423294028, 0.04541334952914942, 0.0142286997732942, 0.09568979195497575, 0.08043485350525996, 0.044460806921299015, 0.0966839875989906, -0.057962120262462516, -0.08145778743486431, -0.018300956524286118, -0.04314556166972585, -0.01244749347481891, -0.0786781117641807, 0.07842643023929496, -0.10570881599846771, -0.016339088369119167, -0.0546375925449286, 0.04481098920675298, -0.09599184134605182, 0.03234603588014835, -0.03581175434077947, 0.0048405421865476, -0.008899927808640818, 0.018228889908982002, 0.02227795237843052, 0.04208440105108725, 0.07361514116799664, 0.03794087422815137, 0.08630756699240619, 0.019075554739521914, -0.04792358802152307, -0.08271466905029771, 0.06439847691696146, 0.006020503865165627, -0.00577343513638121, -0.06866645612639671, 0.04198472534655889, -0.08534570175900248, -0.019360299852340872, 0.04836965050495459, -0.08765822502095592, 0.03491374588731809, 0.024809452186532903, 0.04617029889217002, -0.09118814421550485, 0.031027064849243138, 0.018609969023025967, -0.06615965340480938, -0.04891316409762127, -0.08894463345266976, 0.013289792486021105, -0.018147609854154517, 0.004782726049758749, 0.052804685357191704, 0.07699839864698599, -0.07758988884693517, 0.019784733101160065, 0.053192422879710044, 0.03368492162332134, 0.08726629378802218, -0.06019499696112432, 0.026930034591928078, -0.09496897021617394, -0.020546299441065553, -0.06224002752300391, 0.011052050481012174, -0.0351349257164238, 0.05175602025460772, -0.08031843206979318, 0.02779990235211024, -0.016886461029760477, 0.07006088310641206, 0.05056235542474168, -0.002018902031723752, 0.034498372575855044, -0.0777654746138004, -0.03474471949394602, 0.09965592937407165, 0.05841147648220793, -0.08007265063824365, 0.0024747506478779275, -0.043511744112611765, -0.09237077818403346, -0.02362337474356138, 0.0702892747772777, 0.01706843833652967, 0.07883001576664193, 0.010324559923452367, 0.06188202512895398, -0.00033903928645084624, -0.012385976958299579, 0.09072806474107202, -0.07608313088030068, 0.03894599057438886, -0.07343932200453888, -0.01589327993158401, -0.062153822444919224, -0.04829548056913962, 0.012179104117817542, 0.013519260210457028, 0.08088033944237068, 0.04766597875566581, 0.03986646129345256, -0.01251634928166398, 0.030844096367179653, -0.09303680391111167, 0.057418435826679465, 0.08262300442693044, 0.07716733457959038, 0.06358105616485848, -0.03407633527827912, 0.03404811360009097, 0.019974624846312544, 0.007741316168272422, 0.08062353080873039, -0.06322327481797294, 0.05117448823391807, 0.023585111627005564, 0.038048586804026174, 0.08890530386427653, 0.05008743268921298, 0.021962173573789774, -0.023963479378837433, -0.06491171042886176, 0.0414649045629833, 0.036175648188082686, -0.08704118971408288, -0.06111845847640287, -0.09493251958629886, -0.09537162281166392, -0.01668852708012443, 0.02768267625043802, 0.062367056909167634, -0.07563034146225228, -0.003360272126765221, 0.039069132354841885, -0.006690337455416501, -0.0005088650433351383, 0.08208391985592736], [-0.031813883918387825, -0.08868571747183279, 0.07712989262839956, -0.013194284647023949, -0.06228737448766686, -0.007790007428452067, 0.09208772262397133, 0.06382383954358364, 0.09290465777269796, -0.025411362722670902, 0.06336116031729341, -0.025468116263315937, -0.05990276723089082, 0.07917219033878319, -0.01016648967812881, -0.029818628096678887, -0.04243405493653721, 0.08181384314406615, -0.0644114952240384, 0.09435323224055975, 0.08423034485089895, 0.05798657692098022, -0.0356128733066956, 0.08204492373738445, 0.04437061087396085, 0.09961657809750515, -0.07330999319278986, -0.08868548242777086, -0.054656658388412716, 0.007856785432812943, -0.05543117403981315, 0.04431234178097174, -0.008341647429607094, 0.03773084057682171, -0.0029159001367282775, -0.06179283078695612, 0.0258651935662149, -0.07406440749975682, -0.043071347798199766, -0.08652470759225393, -0.07718397153706594, 0.0762351199495067, 0.07486976598718849, 0.0016563359571726193, -0.046674155236064725, 0.05493626236449508, 0.07454225602297032, 0.06188621077583236, -0.03800681424460051, 0.09207307508449321, 0.09576777857911924, -0.04368354205994724, 0.006325033002428995, -0.01859996494236882, 0.05901595276598745, -0.08770454642182007, -0.08462562494597632, -0.04975669594521257, 0.0024238710002527373, -0.0037545393978562834, 0.03815973173419105, -0.09719828686674252, -0.056101591567379455, 0.03164214697491543, -0.0009181107099809939, 0.08480494674020593, 0.0008280521390082382, -0.018881515595979392, -0.06097857066412894, -0.030364719551877955, -0.048489503254688385, -0.04109147325721289, 0.035295998964277375, 0.01348097081347797, 0.059180373656800796, -0.04738820810881416, -0.06517854670531066, -0.09382098319014363, -0.06792774683538313, -0.010139054430390641, -0.08863793730707119, -0.06604606700166805, 0.042242249203714055, 0.06773073673402472, -0.095016307366384, 0.06652033005703897, -0.03731328807026614, -0.0946905530437369, 0.07662797175026365, -0.07972526985806243, 0.02465270574847953, -0.09019370467168826, 0.05125819382725028, 0.008857342217063482, -0.05605390673141799, 0.10749693726031603, -0.04228455716744226, 0.04427887168099373, 0.07253522243971626, 0.022805712596099727, -0.014461337178144795, 0.015840250836294804, -0.03777392889387077, 0.0845457531062758, 0.02147082786784674, 0.03378335733267142, -0.014611432620088972, 0.06904844706424837, -0.052597964288306105, -0.0177348441086378, 0.06924935496869677, -0.04725364562190637, -0.00043202058144380107, 0.07207698371202129, 0.022248076445849228, 0.032225491072434144, 0.06609593651568134, -0.017262340423108393, -0.011542537406585108, -0.07691447283817388, 0.08785043482166562, 0.05517309254307839, 0.0013091763316776153, -0.0694081075385982, 0.05602902482303345, -0.08089650270606669, 0.055817194219903395, -0.06634098039936027, 0.03333202911914187, 0.05389163659381297, 0.027868708326562838, 0.04143074332935692, -0.031121630514183804, 0.09881843229872979, 0.01158993999806145, 0.018834334159744247, -0.08403836899765532, -0.042089670753938276, 0.0906848266965734, 0.028914739152271912, -0.06277544486178813, 0.05124068381426691, 0.029638192538658476, 0.047937615648196645, -0.06350488216501744, 0.017736256178711017, -0.07523330159467433, -0.100071814910233, -0.01941417478918332, -0.03236707243772704, -0.01320185615115675, -0.011520919237311515, -0.011583579944009246, -0.042983297766320525, -0.04512076571822411, -0.12838966380006742, -0.06451277126084966, -0.03772172867956722, -0.03665656094258108, -0.07796970187191722, -0.08237114862360874, 0.07774240943968447, -0.022900144141817826, 0.05223910812429697, -0.10220167464455317, 0.002292318312293474, 0.053452887680701604, 0.06639256336951313, -0.08380300860769348, 0.06911021234819024, 0.021477687631891253, 0.0009467060147582301, -0.029486388863961863, 0.06114781489501599, -0.09149539564523951, -0.10455737654341216, 0.06053317525254907, -0.06144523749712969, -0.12269569161866593, 0.02770420247630117, -0.05733469742541276, 0.020263291644613386, 0.018598980283509044, -0.06826570181732118, -0.000874265513864559, 0.05478503998232644, -0.060790615259367936, -0.06687048232249759, 0.022536120090852787, -0.06587833949070807, -0.06040560832126565, -0.07283887430448963, -0.09769078724780433, 0.0467442593994467, 0.09027254711640158, 0.024790541061416326, 0.06462400730029812, -0.07102279671111514, -0.01312278455924873, 0.016613210283433977, -0.03883111108897138, 0.045395889488692956, -0.0013627935471599924, -0.09793163943200264, -0.12237568787963536, 0.010469225764420477, -0.13491826399833196, -0.05626795990109065, 0.019052592767452043, -0.06670573333140006, 0.1573740597674183, 0.1886153956820642, -0.00500441674461584, -0.04140172147632171, 0.034974899738272024, 0.012273552059730542, 0.0004810518768113143, -0.05123080946246226, 0.006282958015713649, -0.029318233845226454, 0.047075291900609446, -0.07557766507613126, -0.024646936251783463, -0.005572450180538651, -0.054476894204369214, 0.02693917746345729, 0.04548068762776034, -0.006862781273221246, -0.07071301483868458, 0.07087301664929996, -0.041859249246263615, -0.1429397167323171, -0.03675343192859901, -0.024363145312573744, 0.037909172862571235, -0.011415169599823098, 0.03070778603193973, 0.09008759047943447, -0.05518082638831481, 0.03185005205633535, 0.09921606738942941, -0.03179748264198019, 0.06611037323290506, -0.06580768979828887, 0.04930119676443679, -0.002633105429181193, -0.07972977170677982, -0.0074727560956113145, -0.08177046816021351, -0.03623723454677345, -0.004304020181595894, 0.0961836136464856, -0.009814189876265155, 0.08797721991650265, -0.08056129137700237, 0.05308709937071511, 0.04772680906235926, -0.10356197392853332, 0.005397365268900321, -0.13604735017424763, 0.007431546216728269, -0.12454600375588508, 0.04296077411694885, -0.04018330816853712, 0.058515306170641164, 0.01774065345226715, -0.05475311003500169, -0.10428972120962285, -0.00960997526270213, -0.04719736071149388, -0.031567876126179666, -0.008990188058801552, -0.0638232999717062, -0.038171928689196916, -0.08172684922390216, 0.004820438403779561, -0.061262999124180456, -0.06599833268202913, -0.04883136185945121, 0.0021861967407547627, -0.027080650720008963, 0.013036015219624877, -0.08538125098948522, 0.02981466227862655, 0.05921640356531017, -0.1108839847193202, -0.03407107750350189, 0.03512933129554181, 0.07761883910649535, 0.008853818272248341, 0.06928750114561509, 0.07745658536311291, -0.04526707124058776, -0.07478106247793463, 0.043819143072131986, 0.02561891877946403, -0.08944908437830393, -0.058449787991777025, -0.06971405308652925, -0.05527580133224951, -0.06632786460344552, -0.08085659543813643, -0.10651071076240363, 0.05255747082227497, -0.10395150074359395, -0.012751505650497609, -0.004130390893504345, 0.021918279263099857, 0.08114044504997425, -0.04923986696619462, -0.05258512844699686, 0.027848983607361433, -0.061740389075238336, 0.05496444066752977, 0.00040203260440585927, 0.06793488156015533, -0.037955350182317944, 0.02981879970074467, 0.016807640541907726, -0.001134711507926854, 0.025642292281614975, 0.03685505818104069, -0.036152548049057834, -0.04040840850808834, -0.03700925175090362, -0.009215022145989026, 7.756445509877689e-05, 0.1111341628874148, -0.06648701943580243, -0.004672934254212545, -0.08785064533673445, 0.047490442272588404, -0.08587769985623979, 0.0075143958094286804, -0.04235039444106392, 0.09164206472720329, -0.016571444495131413, -0.05756234314068404, -0.09042925194084009, 0.03898674479227583, 0.06471403216157542, -0.05423093881131361, -0.06665972954041535, 0.06435775971418681, 0.06093725994173005, -0.03897651664126513, 0.025385628916907578, -0.0492812412492916, 0.025070280241834, -0.007068286374595861, 0.12875745929858617, 0.0013125267595866495, 0.08890391271107709, 0.08372795730405877, -0.0335464055459534, 0.018255083226698974, 0.016508729133481236, -0.08369734897659205, -0.028151530269161038, 0.04051741057074901, -0.03858134295616507, 0.014531995272940851, 0.01968183172035096, 0.08163151409948978, -0.010161843004428616, 0.06099655394318456, -0.03558787532741246, -0.0711175863717128, -0.08844151300338457, -0.005256484680634242, -0.014747308069036248, 0.004525463731699457, -0.011353729998398137, 0.007687715634095419, 0.10928355929504656, 0.04751688423914018, -0.020713500597632318, 0.1235823617884649, -0.003659661200410157, 0.05635622571478329, -0.07425635064382166, 0.08967009915743386, 0.08479381769405658, -0.05529375608621237, -0.11263762558087304, -0.12783218270043953, -0.027331775193236523, -0.06655716627873096, 0.02118539339243889, 0.02247349253045822, -0.009796109253085605, 0.08939172998160128, 0.026170797245297698, -0.0246961097603005, -0.06469799657618479, -0.0521871828473711, 0.01650184919963135, -0.10420544482876638, -0.050947108656302906, -0.12303471259369042, 0.04095989627400417, -0.0026127090211677697, 0.040908372029026197, -0.03297015678085611, 0.09104267077103238, 0.08852888639076903, -0.00010505296765444577, 0.08639337573835837, 0.017234126228032928, -0.03366489011522757, 0.02728533454660908, -0.014609391782068213, 0.020344852656794855, 0.02646290509337482, 0.042725015986919725, -0.009036446235473235, -0.08645702232869094, -0.007543972349194555, 0.01902918204381229, -0.004434223030538664, 0.09884690730207703, -0.07691106184583951, 0.04315042876050295, -0.09809329007787031, -0.024028063597076696, -0.02676116474436401, -0.11530231655441728, 0.04325155878500178, -0.019905684919729928, -0.04855297796682511, -0.015856378300653905, 0.0870642163120152, 0.010434442771074633, 0.05640677456587583, 0.01916974917995969, 0.026985668241699776, -0.0035036590927105754, 0.06836051343169769, -0.023948448487753314, -0.014169408895307942, -0.12966007564347, -0.047679623264198126, 0.02995002158186671, -0.11449533668196603, -0.03773463189283415, 0.09525700148208704, -0.08049889895615078, 0.08475505715695714, -0.0875095639149558, -0.061241646954133734, 0.08962636190466552, -0.05439511710541264, -0.06478850055347957, -0.0817783952368532, 0.010866610197679049, 0.05093562431896317, -0.03884474742308791, 0.004158936204415252, -0.03694160730537649, 0.06795464230442393, 0.045709318460457574, -0.03236462758259633, 0.0484145985050846, 0.015241403798694066, -0.016016801920542542, -0.06907808270212638, -0.03082340703807831, -0.14985166682712392, -0.004607906030622782, -0.06320790514086665, 0.06312325865655263, 0.0016973219022796593, 0.0044650115774651404, 0.09631068227808526, 0.03891794032202444, 0.08824812688034633, -0.08909166369062516, -0.043475599353753926, -0.07779319390184658, 0.05781245216608757, -0.08290631548884207, 0.031784533372974155, 0.011051216389016336, 0.025971026908577305, -0.10601309927581107, 0.007668349256424656, 0.10802911287799934, -0.03517534233385996, -0.08114671729464772, 0.03855054180116843, -0.08696162314234683, 0.013320519122424454, -0.04822724044839096, 0.0634653861558716, -0.04971197009552767, -0.09117894520077811, 0.05442298695281365, -0.08547101017642486, -0.1129075889872657, 0.02878479465869903, 0.027307707903003228, -0.04765333377288831, 0.09190941551765491, 0.011157025805943214, -0.06242582683663707, 0.06239684511068361, -0.029080030929186235, -0.05496509667610309, 0.0658300181085922, 0.02023299927227035, 0.06262568221365465, -0.07715770585507323, -0.07124181675856768, -0.10127034177047407, 0.01759534407229617, -0.024617536106499593, 0.049701440789403514, 0.03131638940192977, -0.0057937680927590985, -0.08024375190227107, -0.001045874950900659, 0.012996977909107874, -0.014922838877269085, 0.009589865175929304, 0.05017278417451653, -0.015818177071786163, 0.009241003372090315, 0.06964740906069637, -0.007954611412342726, 0.09704471410385357, -0.0761696524607755, -0.055937770746410986, -0.05353150782226981, 0.0874672322603494, 0.008101673419781762, 0.09386646075988869, 0.03046709036215243, -0.051877558948038596, -0.07839481102501475, 0.013704739973019384, 0.0208723019731776, -0.05883516849677596, -0.02101967831648024, -0.07253315341505878, -0.046556656713233134, -0.013160278677175757, 0.01274742774773574, 0.07263203522095282, -0.03382692705140466, -0.024589179626652177, -0.1082693285216197, -0.07674689912673145, 0.020033574044577184, 0.03151187757005774, -0.0066536451970061715, 0.03252192766086229, -0.006740369257465642, -0.06073250547086154, 0.020135099906692776, -0.008381161354524502, -0.010991482492938978, -0.023426976553891893, -0.06133750446399589, -0.05781089926253586, -0.04549792370204309, 0.03002902713126106, 0.030449260593104148, -0.11121051092318389, -0.01917424296325035, -0.07891651802632392, 0.029982919018980623, -0.0036969613222874874, -0.036203822125625965, 0.08681668299384913, -0.07224817501019563, 0.01502905217840568, -0.05307076208961142, -0.044554153711512945, -0.010638807794535632, 0.04108453271606649, -0.10241023868012503, -0.08222859682074786, 0.006182814857225815, -0.09843736769445734, -0.013608391357004288, 0.07391470260739487, -0.07462680840347928, -0.0941089144809517, -0.07608330573658437, 0.04653242451555091, 0.0936542202101796, 0.05431509706989724, 0.08254166326174028, -0.04304805306271167, 0.0439283039541353, -0.08895348245057888, -0.03729561701980583, -0.0902846076115423, -0.044423986537906586, -0.08270638368499998, 0.02489333811452679, -0.10669392020832955, 0.06502866406768225, 0.07664362327570204, -0.04210907737388419, 0.07062539736455621, -0.03528865854490981, -0.08280657886339314, 0.03629258369906545, -0.0373142020237415, -0.0935623272919722, 0.08007927593902839, -0.04816508958330968, -0.07586723102274717, 0.053035212179936765, -0.019408962712428396, -0.06605920270395702, 0.050638595240967255, -0.07065379042276923, -0.029050998865772865, -0.022623184994216755, -0.043452898800185685, 0.06989413033546994, -0.041008012707050755, -0.030851294859817344, 0.011214775072660867, -0.09587110570108437, -0.011679995583722265, -0.056234261620434225, -0.022887700054262935, -0.08124108475884807, -0.04558167876145201, -0.05924899308926635, 0.05008456286166162, 0.009838292180474066, 0.005007491349855357, -0.01375539497603621, 0.0800522936600668, -0.0067434652128389215, -0.04272435511695018, -0.0723913127063664, 0.03329060187310464, 0.0677980172485295, -0.008858119293835703, 0.07327288405853072, 0.04649343614819973, 0.0606264303015975, 0.07033923557410073, 0.0887353543671928, 0.020536033295708904, 0.02204147719303571, 0.06073627118257353, -0.05062384164669359, -0.1125180258868639, -0.011154084357074025, -0.03744941087188831, -0.03264257906863148, 0.01536887101345537, -0.06734853454691153, -0.11159609603215177, -0.060556235712381584, 